encog,BasicNetwork,java,3.4.0,1,1524763044395
[BASIC]
[BASIC:PARAMS]
[BASIC:NETWORK]
beginTraining=0
connectionLimit=0
contextTargetOffset=0,0,0,0
contextTargetSize=0,0,0,0
endTraining=3
hasContext=f
inputCount=8
layerCounts=1,25,49,9
layerFeedCounts=1,24,48,8
layerContextCount=0,0,0,0
layerIndex=0,1,26,75
output=-3868444.639970392,0,0,0,0,0,161200.0442282234,0,0,0,468839.0873475056,80771.467437767,0,298325.7316265164,0,120308.0950884656,17902.6790835265,0,433076.5950953691,0,0,0,0,0,0,1,0,0,2535.8766570701,2555.0792375774,0,0,1304.0251429816,0,0,0,2276.2994122194,0,0,0,0,2315.9018506088,0,0,0,0,0,0,0,2837.2097566325,2956.8508736372,0,0,0,0,2399.1150179525,0,0,0,80.9490904712,0,0,0,0,3789.4631463444,0,0,0,0,0,0,0,0,0,1,79.4386211974,69.4335406753,-0.0033795489,-0.4396702639,0,0,0,1,1
outputCount=1
weightIndex=0,25,1201,1633
weights=-29.8611110747,9.8585365093,-26.5104887404,-0.811825529,4.2282143109,23.5270750361,17.4635254265,-18.0636277261,-75.5918566091,-11.4456986091,-1.9474293499,-19.3603191489,5.1509436002,16.9629471137,-41.5904577703,-1.7189353823,-67.1995582543,3.1659314821,-3.3572210138,-52.8489886965,-86.0114207701,-10.3066619373,-234.9872233122,7.7431727624,-469.9935905943,-0.1186355136,10.332864067,-7.8334552718,-25.6540151039,1.6086244984,-0.5426951248,-49.8519827206,0.3395321033,-0.8553431071,-4.0233108797,13.3189095953,0.7184197065,0.4434202798,-0.1546383786,-0.5247532818,49.9552548035,0.7459550989,0.0761700909,0.9826938262,0.9821497518,-0.1390963831,-0.6092193548,-28.165076729,-98.3695582475,-10.0541449328,5.7968098408,0.9686288532,-7.5875938865,-4.4580974615,-86.8517443758,-0.1502220442,-0.0376093462,0.1574494331,-51.4832231381,5.7635546529,0.0522027481,-0.3005907919,-51.5107220387,-40.5532294626,-49.7269915574,0.3665673316,-7.7184604948,-0.8050476434,43.3725278415,8.6762639296,0.2612638833,2.8500084716,-50.2841682293,85.6032420646,0.28152855,-29.0736943428,27.9837702086,-31.4749498443,-29.8995804241,-0.8519884731,-2.7544193893,-0.1046753818,0.725166359,-8.3347699454,-12.1058239665,0.5840786737,-0.3196014755,-0.6545289841,0.9027105884,-116.8458495745,0.7116962801,-0.9369856931,-0.8281622468,0.7486161161,-0.674054595,0.4456057664,22.990601572,62.4734998663,45.8458293406,-3.8799492525,0.5358626317,41.7758086002,0.9191070919,-50.0335817376,0.8160195459,-4.9771320331,-0.4687575641,-5.7190818868,-6.7454731028,0.9489651481,0.4084420928,46.1591957202,-36.2880885672,-30.6623323303,-0.2529243086,17.8358256925,-1.8261716604,-38.590536937,21.7839491109,0.5149356334,1.0502877438,27.0100637359,-253.3221236491,-0.1287834382,-27.3597033267,23.2350086971,-25.0764074394,1.9479031712,0.3307945127,28.0497055896,0.8862729093,-0.3674949867,7.6519754738,-22.0681560523,0.1849030609,0.6326398809,-0.6788755203,0.5687069561,-23.8361684303,0.5702693119,0.3688483644,0.5843742258,0.3997611436,-0.6328869916,0.9950210335,23.0523527938,-21.1246535485,52.9250864192,7.5295900257,-0.6731698091,38.9466924558,0.8225295288,-81.3467622042,-0.9620158865,-4.9927017289,0.7214819444,1.9447007822,-7.1346327397,-0.2368041693,1.0886088801,45.3133673702,7.0879696462,-85.9366445244,-0.1213981563,12.7846528027,-2.0168655491,2.0660635527,24.3782952688,0.6980628573,19.4919205113,11.8957785164,-299.5762262765,-0.607549385,32.4014273198,-10.366944522,-22.07660445,-3.4146932051,-0.2921896698,-47.6452138601,0.7292812333,0.9591993985,-12.3949498198,0.3594804669,0.5086152129,-0.2090379332,-0.8270877306,-0.1326200277,20.0301621544,-0.2307499987,-0.3018716,0.5901260876,-0.4282723079,-0.3133969636,-0.6866653571,-10.4967851064,-101.8468940852,2.6892711793,6.6704658899,0.4324916038,0.0880267766,-8.2725510286,-73.0104504701,-0.0712233029,4.4979070063,0.6564050739,-41.6679180984,7.3939657234,-0.3691387676,0.3742720068,-50.3677248327,-74.0586821033,-90.1456624428,-0.5410892894,-23.3645643757,3.8956259671,42.407962682,-36.9146370267,-0.5284743693,-6.3634427208,-51.5012777201,112.1123808799,-0.2114107637,-51.5370144358,30.8280825753,-7.9752458799,-7.8399639059,-0.4927855144,20.207599858,0.1288414821,0.8875900627,-13.7365901092,-2.814327766,-0.2249332336,0.1935164256,0.7509453168,0.9872906111,-68.2147546246,0.5162848768,0.6254285432,0.4102704207,-0.1019839646,-0.9992426783,-0.5806474457,23.2960763802,-28.9674387259,29.5880312681,-27.947288947,0.5727409068,31.4804064823,1.3298000968,-129.1995109945,0.1925635902,-5.3414326719,-0.1114618731,-21.1404447782,-5.6808872399,0.316987292,0.0964533359,46.9909126145,-78.7851954813,-9.8447424407,1.1273402124,17.8883218632,-1.4118750774,-4.7776902834,21.3844063497,-0.0455784456,-14.3915096559,12.4672313425,-396.8688371353,-0.6072141515,-51.3991308563,20.1536287913,-1.1515975175,-1.1047186638,-0.0404039485,40.2768881039,0.260010969,0.9816545956,19.319855047,0.5945961556,-0.7580965037,-0.1439295839,-0.0890897903,0.0992569015,-13.0673480513,-0.7101521864,-0.5374251042,-0.0635929723,0.1256975802,0.1540863066,0.9630156673,22.3439214638,78.274702599,-13.8214477258,-23.5793013933,0.9975971566,14.2459830959,1.2242858965,-2.8481742341,-0.5536766754,-4.7892770745,-0.5359889866,7.5101718392,-6.1719306804,-0.8151305332,0.3573520094,45.5858173361,-22.4746310363,74.5118121855,-0.1867450593,17.8862272331,-1.3813501111,-45.9738193732,17.4320795702,0.8793024112,-10.1339029782,18.6971108326,-345.6341746373,0.1087242946,-42.5341621966,4.2102761363,-34.0249056013,-37.81513794,-0.7381408104,-15.0578263059,-0.278338815,0.9365450761,-35.0311314661,14.9710031047,0.201684981,-0.7744971798,-0.5635279253,0.9446446588,0.5521631816,-0.4251947875,0.8755841172,-0.5035326044,-0.7450023332,0.9884645263,0.8895583785,18.02474578,-36.1607746839,15.4457698682,4.1394737918,-0.2496742328,-8.0288321388,-3.3199454221,-101.4291002617,-0.144675226,3.7335700818,0.1824656487,-40.6976088821,0.7283149797,0.8187110662,0.6365525766,55.5984670318,-67.4311878699,-24.5193057979,0.5578051194,8.4683381006,-14.5904691116,8.0718157955,16.2735286791,0.0057942963,-15.261308283,45.1893250566,-461.2047402148,-0.2614389444,-17.254410993,-14.8642735438,-24.2580023197,-4.4940136769,0.7428987967,-24.9413664228,0.6792564532,0.8444631032,6.8469819089,14.2471770151,0.0185586364,0.7216313434,0.6306910228,0.6929361383,3.4408245938,-0.8027138922,-0.3800541089,-0.6769581802,-0.8888823091,-0.9520114552,0.5667706076,16.6194329684,-17.6370069495,-28.4580777627,21.8150503314,0.9035381577,-51.9472512074,-5.0180991,-12.8864360887,-0.6569613562,-1.0543180856,0.3408663815,-39.7498693174,-3.0882531429,0.3263308068,-0.2157792617,-41.7363279627,31.0029087887,-62.0424500542,0.078848887,-6.7159036603,1.7981642241,-8.1996899137,3.7292163604,-0.6759246064,-38.2683740833,-48.3076949047,258.5539860524,0.7972024118,-50.9248054439,-26.1211637647,-10.3058092276,-15.4005407846,0.679030088,-18.5739251655,-0.6061327356,0.9875792858,16.8180038472,-13.9616177289,-0.3514301349,0.5117967986,-0.2763420421,-0.653023945,-72.0559839463,0.165027944,0.5420114,0.4043669174,0.3679949962,0.7028500903,0.0841159393,21.3529103621,-73.6266166726,-3.2426483867,-39.1993021984,-0.9165463481,-36.4895218536,-0.0146149225,-90.9843635593,-0.0150606392,-3.520434242,-0.7619934024,14.3425592231,-6.9315517737,0.7266758819,0.5784370173,-52.212715189,-15.817700054,-80.5365173037,0.2370984438,11.4800565681,-1.0376278685,-22.0296380653,23.8257010606,-0.614534816,11.6018306232,-67.8836595298,284.9639173026,-0.8329171115,15.9302500603,-37.7294529895,38.1719677099,26.0224507715,-0.3218452019,-1.0698703031,0.2898311264,0.1582044082,12.5938904087,9.3674875782,0.7290056337,-0.5929278602,-0.496764778,0.2755263534,17.7525075471,0.2883923759,0.7179846769,0.548158787,-0.4315154069,-0.778594794,0.8250567928,-27.3614153545,31.5049951276,-37.2895352103,1.8286402215,0.6052392763,-42.7407246657,-1.4402183928,120.7699725592,0.713256817,-0.1057889521,0.7056392443,21.3706105624,5.9793604409,0.8927342566,-0.7935885038,-45.3816725318,35.5859598516,26.5642082235,-0.4232462259,-7.6013529474,-11.2527426678,-6.2733458095,-18.3065440002,-0.4755439218,-2.2740592653,-19.730864964,439.714287897,-0.6523543019,-36.3459630687,-25.4599244843,5.3682957795,-31.059127483,-0.8468716625,-14.4474977304,0.8865719813,0.8112804923,-19.2473749946,0.017289204,0.6198614399,-0.2346182795,-0.5096070242,-0.5728342838,-90.5149213788,-0.3445256473,0.7201331304,-0.4371629671,-0.8520249191,-0.3449201284,0.5107347827,18.734218516,68.0961586332,2.3390722235,-15.0124221445,-0.1762103517,101.3688896977,-2.7900985869,71.2595948972,0.4397296455,4.5724733164,-0.5895505988,10.1222411057,6.8106893737,0.800417853,0.7050364624,55.191817657,-3.2258748976,-8.2431189292,-0.4337921162,-5.651280003,-1.7487046309,-9.0799999214,-5.9870673166,-0.6168965831,-33.6208574722,8.6934781687,314.3817843672,0.5487210609,-53.4961950714,-25.4625459256,11.3221021246,19.0884166578,0.5960796431,-11.646746425,0.2585172685,-0.5660728545,-3.8059322741,-16.3982463308,0.9201331539,0.4401595893,-0.4692290113,-0.3153377265,-12.3281386159,0.5565999221,0.0236297623,0.1954288371,-0.8221212501,0.0678750426,0.9219355703,22.0460544073,-4.4089314031,-12.2806620459,-42.4947230267,-0.0972911173,-42.3264868146,2.2169202029,10.5108996967,-0.7259749013,-5.2297831093,-0.1186726413,14.7091037926,-7.0867726499,0.3875808999,-0.0280821869,-52.038087694,-16.8456501265,-21.0299787398,-0.9039990273,11.9048454751,-2.5732467143,-18.9274677041,18.2520732103,0.7647463439,36.4754138462,-30.3200990595,95.7344749162,0.9615314878,-51.8793922158,-24.7299194381,-0.7287353277,-0.6180702285,-0.0040775762,9.4392276054,0.9466660441,-0.2481644487,22.8545663148,-22.3596031778,0.4756830743,-0.1225080762,0.0215319644,-0.4591713642,-76.4064951069,0.2315665364,-0.5988976789,0.3556426684,-0.2275792414,-0.8118129069,0.5920620741,21.8983466643,64.6790707753,1.0152307982,-32.8935183169,-0.5065068159,-26.8605795197,1.1583700566,97.0460775817,0.6956255369,-4.4008481045,0.5677313121,24.012554166,-6.9984161352,0.0407189365,-0.7558942859,46.7940653812,41.4750406612,20.8727098175,-0.1232906886,13.3475024297,-0.7380621336,-50.0474732856,17.4891309564,0.7189506957,27.8457562133,-36.7784758942,44.9487423091,0.5660355115,-52.0583005445,20.6201467317,-37.5053706235,34.8333722672,-0.0088924159,14.9229495157,-0.4217603168,0.9572413715,45.2673731986,-4.9384476276,0.4372620932,0.5707571965,-0.820293689,0.6170095138,-18.8488930331,0.1384059365,-0.5216553975,0.8898190156,0.6403176738,-0.859300405,0.6318063208,20.6261598261,-30.6251020626,-41.0215752586,-15.8695141675,0.6201162413,17.747017582,1.057233759,-116.3113966686,0.7920426438,-3.8868520799,0.0794497542,-13.2101511856,-6.4864956432,-0.4101084837,-0.0423872097,45.6736476567,-5.4714297165,5.8890711459,-0.5410660556,12.026330422,-1.2514685054,-3.0788223468,18.351612946,-0.2881695545,11.4996264046,23.4911832455,-385.7781106946,0.770901809,-50.7612289663,-26.6407176158,-32.8108644913,4.5757208232,-0.0943368215,-18.7274685494,0.6992821815,-0.7507556495,41.7533497565,-16.7314117514,0.358418122,-0.2960888692,-0.8296985367,0.3781348348,-66.1536693356,0.9317376772,0.5192931462,0.0781956344,-0.1318846373,-0.6326741356,0.6634514334,22.4340081347,51.8993746146,-8.6450223954,-46.3689216427,0.8620819826,-25.2627108276,2.0649190213,65.2888958838,0.375393334,-4.2773450327,-0.173017856,38.3887755619,-5.7375781639,0.7753879013,-0.0018639348,-52.4294729135,54.2518859003,-49.2165426744,-0.6608144687,13.2003545841,-0.9652417991,-18.7414108305,25.4457268099,-0.1658589085,-2.5606313002,-91.1065242123,342.5044508787,0.1539197685,18.5110027598,-18.9937490105,-7.6333066361,38.198687267,-0.1833294117,5.4200161338,0.5875916964,-0.6040102921,22.620987142,16.0155375487,-0.7441628996,0.1536959356,0.3699419781,-0.0650976767,84.9459325915,-0.9612052639,0.0257098691,0.9620136468,0.6553368081,-0.9825908012,-0.0930585511,-29.1039377578,-30.8345285049,-52.09986585,10.4355455458,-0.0676424747,41.7913333838,-3.7489295126,-0.3167899903,-0.2726628107,2.9833302064,-0.0560792318,-19.3352852072,-1.671949265,-0.2923823855,0.7084624066,-7.9914096624,23.456653542,37.5022021881,-0.4415545862,-9.5485113418,-5.4448157685,22.7090580642,-15.3873300077,-0.4158391435,-3.5648089968,-58.192283265,240.6511275283,0.8007795681,-49.1700617929,-9.5472159952,-15.7030278175,-55.0764315126,-0.6579110576,-27.4696943784,0.5720707001,0.1106033394,7.5852147145,-0.9411088577,0.2299275892,-0.6308046887,0.5764598569,0.0834393327,-34.8621234274,0.3008026274,0.9394332848,0.8442302364,0.479640286,0.9534679751,-0.2988921396,21.3021212729,-42.6694103315,8.1071740779,-8.6471944115,0.6272854625,-38.4188439106,2.442944172,-124.4895488614,-0.0154141489,-3.6793367368,0.7163960776,12.8750830727,-7.4578816338,0.1491710651,-0.0372850084,-52.5846262281,38.0753720441,2.6611297626,0.7705611623,11.6611863113,0.0378978615,-11.3803720192,15.6505138495,0.2174888856,11.5113720229,-10.0899076056,64.7172919777,0.9088143279,12.4880171573,9.5665720464,5.8835744237,-4.6349099658,0.8006406325,-1.1188932924,-0.5979532173,0.4860213806,-29.4895640627,-14.9885191976,0.4555007465,0.1010441568,-0.4484406912,0.6022320501,0.3582778842,-0.8010922993,0.0801322941,0.6345514254,-0.7919032369,0.3817575025,-0.4451547709,-32.3014999306,39.7556468204,57.6017269075,-16.5548985269,0.6520639492,42.5050605774,-1.8521354642,101.3341886505,-0.9425052466,4.9696514795,-0.1460220606,-24.6289698234,5.088589645,-0.1373888055,0.3897289246,52.9579651716,-25.239411559,-22.0669082643,-0.7802373996,-6.9388780318,-17.7059080348,-43.7861061575,-3.8464196433,0.9954187995,-3.2212335596,-17.2568833889,-4.3295359027,-0.608372338,-51.5934106792,-2.6878016747,-44.3281498617,-0.3593703944,-0.4505942578,-7.7228534014,-0.9996273601,-0.1403812504,20.4228388084,-19.6194041954,0.5691600091,0.2482544838,-0.5050502164,0.1984605943,-87.5493595046,-0.6574550124,0.7794185461,-0.318216436,-0.7462746115,-0.5840585699,-0.4460059352,21.9279855455,-10.9133779901,-29.8687970215,-42.826904003,-0.2434003996,15.8840183061,1.357781829,7.517413349,0.3527234541,-3.820843349,0.7146474816,35.2640516721,-6.9806262494,0.1059510089,0.2924547071,-52.4166133241,2.5172374498,-44.2283519125,0.0672727983,11.8457894006,-1.3500467819,-17.6644393905,24.6872885597,-0.9155969056,30.6285635127,-90.377246087,296.7008166468,-0.4599001627,26.8055726925,-29.097961538,-0.7731472417,20.9843018491,-0.9010815308,-15.8355549092,0.5892591483,0.0275764593,11.7973276932,7.3923107541,-0.8537940629,-0.5740405077,0.8690232957,-0.7840016886,-30.4263700273,0.8750020113,0.8563823227,0.442546719,0.9683471344,-0.2830624154,-0.9261155722,-27.5351888483,-76.9245865714,-47.6483298666,1.5065955184,0.8833101709,-42.5708237238,-4.2268528435,14.8783785744,-0.252203633,3.2117219689,0.5962448268,-8.9075829303,-0.6253664229,0.3412866445,-0.4612958989,-44.3257248603,30.6635613787,19.5913737351,0.0990511926,-10.6979233449,-1.1954661869,39.4103069263,-9.8077361911,-0.5267480671,-11.2470254711,-41.3445631354,386.2733851232,0.2086363254,-29.5272674171,17.7127101927,-13.1794920731,30.6720458356,-0.4169374723,18.2792529403,-0.7497549641,0.2507513244,39.39900838,-12.6246444817,-0.3349165692,0.3851185125,-0.8597389829,0.4988844409,-38.2278613797,0.6116272168,0.3585797051,-0.9859468512,-0.0607494622,0.1705301788,-0.374164495,21.4561889824,-34.3625928411,-14.0641492507,-29.6332695968,0.5808312974,-16.5878867381,0.8712258023,-99.4764844269,0.825426949,-3.774487446,-0.4156011641,15.3714690139,-6.8133208464,0.9599755273,-0.6317153565,-51.5121048478,59.1179782519,11.7567470056,0.2731951629,11.7825395127,-0.4776264472,-13.473396546,18.577077655,-0.7448864813,18.2485714615,-34.8069653894,-1.7090329019,0.222353253,-57.7733147141,19.7873902575,-30.1999183928,-18.2617565661,-0.3505537797,-36.4437398942,0.0279616872,0.7370834322,8.2470500915,18.0214702917,0.9174068629,0.9241236081,0.2075724345,0.048322005,-100.2997443895,0.1405429582,0.5956597424,-0.1828845958,-0.9983071382,0.2755838172,-0.6987212146,23.3709691866,-63.9734860826,-60.0374853873,-20.0112194167,0.0323911137,10.9546812588,-4.4363994718,-38.6006083944,0.2370445554,-0.637629602,0.3464900353,-16.99057552,5.5754747393,0.2355966055,-0.9634215567,-45.1160871183,-7.7009377377,10.105688753,-0.1158871636,2.1730200947,-7.3866900302,52.9797969796,7.6012239833,-0.7406924486,-10.7743596164,-49.8028778918,224.2121936849,-0.3261603944,-50.126147254,9.612779234,-44.4081517412,16.4065468493,0.7709339995,22.4861266281,0.5147731354,0.1019839263,50.2493571095,-25.5011340933,0.0752841259,-0.4867805855,0.2770151938,-0.2901096513,-41.9105748123,0.0612666444,0.9819414496,0.1576916353,0.1879362027,0.3015271941,-0.943025181,21.9368327095,-37.8067675026,-6.9336991494,-24.1121227882,-0.0142541563,120.8397671005,0.7630858156,-94.4460977746,0.5872853327,-3.6595739389,0.7048657218,47.2605524028,-6.8296804667,0.3592211303,0.3356831892,45.9139940229,47.7587090453,-2.6638325675,0.4389387608,12.3716602225,-1.0572686294,-5.9274819533,22.14898761,0.2328181555,20.4678339974,-41.470752814,-30.6419342029,-0.871160726,27.0692453046,38.6478650645,4.4383920995,-12.7520394355,0.7999983196,2.6322559871,0.212878221,-0.1152523597,-27.9367717043,28.3753149838,-0.3217990634,-0.0732878753,0.0912876685,-0.4910486182,72.9955411194,0.7146850639,-0.6786666186,-0.4674605478,0.4792938323,-0.5827074223,0.4359513991,-22.281548558,-53.263367806,26.9649159881,18.8421135904,0.5745937438,42.5995111678,-0.848956807,-99.3550497566,-0.7777747048,4.2270374753,-0.9533942232,-52.9290619117,6.9380273971,0.3326812407,-0.4345732588,51.9819810084,-59.1947649985,32.4605381817,-0.984124806,-13.1055007739,-6.4755933311,37.9532615105,-22.157098431,0.5673830862,-11.4770990529,64.9427644578,-385.9722469442,-0.3267501255,-0.9290050036,-0.5703628334,0.0968003326,-0.5240552184,0.9605978099,-0.4745476585,0.763551539,0.9464797384,-1.538375871,-3.3420620571,38.4471893514,34.0961310843,-81.8152295126,-145.9097689145,-58.1034709032,-136.2442936911,-40.4934105693,28.8409572875,14.584312053,45.4123360235,-98.1529670975,-282.4326756755,-854.2185931017,-506.0316699674,-443.8488379866,-366.9916400425,24.505578123,8.346225488,38.1177898941,-42.9119991057,45.5761099242,-379.2331184037,-446.3630200198,54.0426478844,-43.8884062636,-14.911334322,0.6751228247,-11.8630617556,-27.5412572402,84.7460079761,48.5959302485,-9.5998782659,-72.2074267,23.6413824773,-0.1530834447,-0.1080240674,-0.0161564359,-0.9205527348,-0.9966366398,-0.0980251759,-0.5759706998,0.3923170449,-0.2136551826,3.8836549355,13.8209800954,208.0233732034,-123.7803460767,-1206.5936402004,-149.873771956,-561.2211436825,110.5908450932,-136.6517885598,-0.0429040841,-0.9007734236,-0.4394653817,-0.3345343487,0.9873755199,0.9199730714,0.731064149,0.1378883699,0.9966005506,-0.6011852404,-0.2750396729,-0.1584551853,0.5981200551,-0.9580123397,0.1037046717,-0.075583077,0.3138244492,0.8926102148,-7.3840868925,-11.218145119,53.2277400985,157.0053247579,213.1283099143,175.4661259889,148.3212847015,320.5940857241,141.1343830066,23.6160726917,19.8190631771,-368.3823693166,192.1157997344,332.6267847237,-693.048345112,-672.0643800815,-667.8441542256,-224.7591396669,-0.3853727969,-0.1134669472,0.902388355,0.9054746825,0.634458889,0.9100078079,-0.4624642842,-0.5799696251,-0.112532668,-0.1878072987,-0.2401756635,-0.6492729646,-0.6939486478,-0.5289972762,-0.2345428284,-0.8543020367,-0.7470854455,-0.7020675817,-0.4501776222,-0.3624236402,0.8864580406,0.2458211999,0.7293682912,0.6255988144,-0.0857313838,-0.5214589889,-0.7415813611,-0.4793963139,-0.153827967,0.959341521,-0.7514930233,0.0832718845,0.2034901186,0.5997275292,-0.1618755421,-0.3991988317,14.1555268292,24.9802629215,-39.8291231757,-234.0380004118,305.868227308,-1193.5938927848,12.1069707223,-459.2539855807,-186.8313152345,0.0426313474,-0.5525637873,0.8482004885,0.5234209818,0.6097596931,-0.1528769165,-0.9800344088,0.8630700196,-0.2004035115,0.1047485953,-1.0201130419,0.0357823598,1.0829184151,0.3025243593,0.3866784529,0.7073413236,0.3515489868,0.3710242602,-1.270684029,0.086618857,1.2933130394,-0.7759618539,0.0106869059,-0.5277352553,-0.5322734472,-0.1734438119,-1.4073030249,0.0260678271,-0.8382783321,-0.2042822043,0.2906185355,0.4825565959,-0.0779850627,-0.1419296732,-0.9041127357,0.3653322063,-0.4383787433,-0.6384112221,0.4922653186,0.3741821958,0.0789615442,-0.7720331504,-0.6895724318,0.4070674223,0.2364959876,-0.0955001711,-0.4377126132,0.665928558,0.0027851593,-0.3565980455,0.9145950851,-0.5856117916,-0.7235754125,-0.7567787294,-1.2511894085,-4.5608061928,19.1749976861,59.3927796046,-177.5366463916,-81.4136097381,-109.4269649849,-26.5536159758,-19.5672880178,14.6259684576,28.4892007522,172.3106542497,-190.1455194704,-227.1630287714,-773.8887921712,-208.1810832894,-179.3224775167,-206.448973758,32.9338540074,3.605499087,148.4606556461,-204.9156532176,-1384.6344146896,-648.6138957474,-387.0267023517,208.1690961831,-207.4636946835,0.2311537651,-26.7333765594,-126.8087235612,308.5535391542,-630.879459036,52.8763771036,-166.8532402302,120.1076158073,156.9401254561,-0.7296892232,-0.2260449683,-0.1030654978,-0.9738200312,0.0418461626,0.4311719887,0.5792527439,-0.7144584167,0.0744977231,-2.9362461692,-9.4842833111,-13.0112780278,93.0907773833,567.2684310212,197.9876940564,166.1491231228,324.5853978964,78.8825541833,-7.687233787,-1.0452511466,32.3504766729,54.9704592956,3.5613595425,-88.9757558705,-8.3068274064,-46.8161948974,-33.6087516228,10.7593440661,22.3822685182,182.6879958138,-373.27017033,270.3853883091,-349.6550078808,-401.1647266277,-142.2122047366,-30.9481400353,-0.9352933045,-0.9210509212,0.8564521229,-0.3382835014,-0.7067592007,0.0380947118,-0.0726397786,0.0826455565,-0.7873511182,-3.3143373012,-0.0144098759,-3.8886874558,-9.9397864523,4.1230095746,-20.9104267269,-26.9046213548,-0.7581405397,-0.6767544869,-0.0749660315,-0.3606979963,0.2796855581,0.7556721645,-0.1559800156,-0.8818891706,0.2722657613,0.251493745,-0.2146770736,-8.2254576664,10.9012782689,407.8984296854,-303.1088754313,-107.225002056,-227.0240378098,-338.9804880724,-110.6763476322,-43.974865951,-1.9706157122,-0.4047430487,-2.3664918126,-10.4377740925,2.811603418,-12.6661400084,-7.2782152615,-0.7069560922,0.4957242964,-0.5553035366,-0.534547509,-0.3426906568,0.1141738214,-0.4137018702,0.8582821935,-0.0067243442,-0.0725281584,0.4955880269,-0.5097272572,-0.098554413,-1.5371542492,1.2972561722,-0.3687317011,0.0364742567,0.2876296163,-1.3192663511,0.5399139001,-4.4300821104,-3.8079336757,58.800725344,-43.3092836506,-23.7123850488,28.7087348463,-147.6259361133,-204.9822243226,-36.8046495104,29.0024167293,11.8986479327,-216.0387636407,282.238489168,-313.0475470109,-247.1976156669,516.3327404391,594.6636711009,188.0733433911,1.1406269872,-33.8411481268,115.6169046852,30.8641253674,-208.8688697309,-252.2924963779,423.2912715043,141.8766719795,28.6010533231,-0.0020699118,-0.8085043261,-0.0993829168,0.3556030534,0.767898873,0.1752944054,0.1215403843,-0.6536280268,-0.7514455792,-2.6673535589,-3.1806869101,23.4782189552,57.2569945361,-277.0646414104,-75.091892438,-162.8672592256,-75.4968940128,-63.3875484172,-5.7906082751,-1.7922942704,-36.9459293937,-6.7764207186,-178.7322690558,-287.1403806622,-101.5636522774,-19.2958655787,-91.6495299028,-13.6152205746,-5.5621858416,165.9572334633,93.643754643,-268.4429659076,-197.5385323515,-132.5351350352,-456.5754643469,-36.4258971442,-3.2960279999,-5.0536909824,6.9572911154,55.3197731034,258.878707407,148.7020191203,116.7995436364,127.6542850047,82.8579734016,-0.7801884283,-0.7104426625,0.751300331,-0.9766927771,0.5060184994,-0.3768877387,-0.8317472904,-0.3299242675,0.6536021081,2.3875120831,-35.4174220378,13.0831078665,-55.2594013953,-215.9804520776,-220.8266854044,26.6368009082,475.6189595182,149.6285261385,2.3864364425,-30.5676699051,-207.9532555011,306.2521551299,-840.7723027002,267.520024287,436.5240704815,418.963981558,79.213921341
biasActivation=0,1,1,1
[BASIC:ACTIVATION]
"org.encog.engine.network.activation.ActivationLinear"
"org.encog.engine.network.activation.ActivationReLU",0,0
"org.encog.engine.network.activation.ActivationReLU",0,0
"org.encog.engine.network.activation.ActivationLinear"
