encog,BasicNetwork,java,3.4.0,1,1524740264898
[BASIC]
[BASIC:PARAMS]
[BASIC:NETWORK]
beginTraining=0
connectionLimit=0
contextTargetOffset=0,0,0,0
contextTargetSize=0,0,0,0
endTraining=3
hasContext=f
inputCount=8
layerCounts=1,25,49,9
layerFeedCounts=1,24,48,8
layerContextCount=0,0,0,0
layerIndex=0,1,26,75
output=3929107.091243545,0,0,20407.7275922085,0,202846.7329754715,39763.0716867459,0,0,0,0,0,0,0,0,0,0,0,0,0,26675.1293242779,270215.5496269305,0,64078.2300494031,219357.3789861263,1,0,0,8204.1386930706,0,0,0,0,0,0,4361.0928844192,0,0,0,0,4149.7057784083,0,0,0,0,15941.7608950374,0,0,0,6605.1496514958,0,0,0,0,0,0,0,0,0,0,0,0,0,0,0,0,1460.8607314577,0,0,0,0,0,0,0,1,1076.4395862792,129.7575604519,-0.2605089664,0.7362796205,0,0,0,1,1
outputCount=1
weightIndex=0,25,1201,1633
weights=308.2759188233,136.8801675946,145.0341281993,9.6250639547,57.994081402,-10.1413350356,21.1470643197,48.2755599745,137.744722221,287.1374051217,46.4346881891,50.3689954575,89.5937298054,167.5570132458,129.7955910716,271.6546577952,73.1129400743,140.4215370007,21.325099934,-3.9112770519,-7.9863098971,278.7686737623,55.0828331228,-53.1123745464,-92.5154085171,5.6213983707,2.1033579129,5.6041110748,0.2749262773,0.9173563602,0.4141100034,-0.8650328309,-1.1468173639,7.6015510214,7.5967272211,-4.5815614021,-0.5795802354,1.6566818267,5.2270429797,-9.9224865327,0.3157111025,-4.6691897637,0.1962875426,0.3501111982,-3.5234567368,-0.4036914882,0.494856156,-0.8570459817,-4.2760401948,34.809079591,0.207722279,4.5299567351,-0.4441395397,-0.5466161044,0.6598241958,0.2560932446,-1.0412772698,-2.1305415918,-0.5378269458,-0.2514396393,0.6979910632,6.4970367289,-0.7008012666,0.3690303655,-0.5158621662,3.7647844565,-2.2928264363,-0.6484568944,1.6826680298,0.6008155195,-12.1035731991,0.1398732097,-0.2358124789,2.3171817859,-0.5204342857,-13.9806126208,14.6622717487,-0.546946523,0.4498143462,0.1642578444,0.5327256964,1.5662434414,-7.0769807607,-8.9617680226,4.2928171792,0.6874127491,-0.7907059017,-4.8367117409,-6.6262448989,0.9797126421,-10.1592629149,0.7567899421,-0.7377149233,-34.0171402325,-5.013514356,0.7617635757,-0.4423207197,-6.5969753932,-35.4709132112,0.5410975476,-4.8396609158,-0.7676265278,0.1861503154,-0.2265029378,-0.2491661075,1.5744911351,3.6196942939,-0.9271576202,-0.1404073416,-0.9975060718,-6.3782067799,0.4703697569,-0.9401340746,0.1138936942,-18.859506625,-5.2782002919,-0.045056753,-1.6483969836,0.0791015327,-9.5369907924,0.0855135883,0.3145791976,-58.8892869612,-0.5987591657,-1.134428684,-6.5144232533,-0.9712938366,-0.7969861767,0.1246282276,-0.391692806,1.455586196,-5.1996193599,-8.7780229326,5.0768342007,-0.5281378116,-1.1129773265,-4.5324019709,0.1415405278,-0.625950891,-0.2542972707,0.6256187709,0.8626619171,6.4397358871,0.7633767392,-0.4548744217,-0.6883067054,3.9296875895,-35.1493808054,0.3763544781,-5.307444614,-0.6443811807,-0.1684087991,-0.6456832692,0.5287772034,1.1303004569,3.3397328052,-0.8361442654,0.632000773,-0.6215275023,-1.0077047526,-0.2540248613,-1.010790207,-0.0720507639,-11.3260230178,3.0045881649,0.2896585152,-0.6130562759,-0.5784210556,4.9535602077,-0.1800352,0.0927134105,-9.5318594078,4.9674384913,-11.2146812027,16.7697399495,0.6659734838,-0.5690740208,0.1486966904,-0.1014111438,2.5486610056,-4.0359242847,-9.4899351001,4.0121033645,-0.8609398233,1.2634108947,0.2266362643,2.5101661719,-0.717969567,-5.0110734345,0.1554953383,0.6543693885,-40.8345958721,-4.8374179403,-0.4240687565,0.7665110925,-4.4744927108,-34.9245788007,0.9700110488,-5.2142103891,0.503050231,0.6690726041,0.8716230141,0.4930968311,1.9626889843,2.1898753825,0.9854729026,0.3054181211,-0.6469495195,-3.7409879045,-0.4161172428,0.7167828115,0.4208254163,-11.0965212467,-3.6221834089,-0.9543077526,-0.8490299722,-0.4122036459,-9.4381049921,-0.0453817974,0.0258158464,-68.7765403892,6.7161833939,1.2265156134,32.4224969851,-0.2900382106,0.1575137936,0.4505042078,0.6696804492,-1.7860843195,7.3896555001,3.5340607764,-5.2951958959,-0.9001405489,3.1156558777,5.8732021906,-16.2770495746,-0.8952283978,6.5413857571,-0.9437995575,0.522049912,0.9934426653,0.0762205113,-0.4932275449,0.8806095309,-2.5749508885,-31.9285328289,-0.314263057,4.9618755579,-0.5737308872,-1.0030859806,0.6778067425,0.6156024932,-0.9391084545,-3.3532908489,-0.5931840926,0.3403498168,-0.9641529434,5.6320166827,-0.4122425347,-0.1851724925,0.4380135874,-6.3235441751,-2.7313948441,-0.5026076488,0.1037674444,-0.2460053598,-2.5332264235,-0.6678792556,0.0182398346,-96.5528452724,7.4714321902,1.4272621145,12.26435244,0.6902444389,-0.6794469765,-0.6373083509,-0.2646265299,-2.3471111674,5.8120160221,8.1947261296,-5.4303039054,-0.9420534108,2.8323643595,4.6874687367,-23.5914236533,-0.3413908437,7.245010503,0.7722844492,0.6159581641,1.9182974833,-0.3376715737,-0.9251073531,-0.5164576937,-6.1374177867,35.9330921996,-0.9772314315,4.2281695646,-0.7301407371,0.4708338017,0.1294834958,0.2736452104,-0.7407073134,-1.7784540303,-0.4792013698,0.7712454106,-0.9943777465,7.0286293928,-0.7505549858,-0.8949541964,0.1491385748,7.3535411644,-2.7610095538,-0.5606048458,0.7684818515,-0.3786934999,-1.775097464,-0.177229881,-0.0524024133,4.9032058654,-9.628598569,1.9318649834,16.1316086265,0.6718813229,-0.7594645255,-0.1914482786,-0.5950667054,2.32592099,-6.9812497147,-9.32170222,4.9975859842,0.3381184792,-6.5828495586,-4.0637242413,-3.9796592005,0.4914971918,7.2936133357,0.9982561423,0.6329642535,-33.8527941454,-4.7169255112,-0.9822372486,0.5189493259,-1.220716523,-33.8544189008,-0.2606015661,-5.6621136743,0.530775083,-0.2582368928,0.875440374,-0.1984690841,1.8250960441,3.6173403568,0.5011827505,0.737290268,0.4123909322,-1.3346966665,-0.4572522004,-0.3847714965,0.6655129699,-13.5028711581,-5.5192553898,0.2206076078,-1.1878710005,0.1838899885,-1.2709684919,0.5653596679,-0.580163433,-91.0827626153,-4.1460407592,0.8510097143,16.4574448557,0.1503694203,-0.9052436682,-0.2409109325,-0.7725019075,0.8188848392,-7.3584310313,-9.4544720558,5.0703255801,0.8294821222,-5.612627855,-7.1148957783,-7.0710937074,-0.5408187139,8.4408724651,-0.7404708818,0.659057631,-16.3915881334,-3.7088878649,0.0525177097,-0.257702942,-0.0266956802,-35.5564864782,0.6915672036,-6.3284072348,0.2751198924,0.5164215166,0.6320551693,0.113282164,1.6346971687,3.1676925784,-0.2722932196,0.6821063909,-0.6886274689,-2.1332398405,-0.4517359504,-0.7628449145,0.7557809093,-14.550401458,-2.466475956,-0.1340655484,-1.5153041144,0.9023419093,-1.1989732761,-0.1522887529,-0.5829704375,-68.1694975819,3.0453430903,-13.5283452811,5.0603315955,0.8263318524,-0.1944046643,-0.9793861444,-0.112502525,2.0519606558,0.2228113068,-8.8114664238,4.7393541088,-0.4503396901,2.1144636594,-0.9536144841,-7.4825753996,-0.0021645751,-5.5852562751,0.3930741968,-0.564504384,-26.9463410663,-0.6821042995,-0.5307966527,-0.9192254688,-0.7992698609,-35.1672746352,1.3727163022,-6.4254146217,0.1249945202,0.6685249181,0.3357132586,-0.8650382086,1.4226672981,3.1224869191,0.2461675179,0.6287627835,-0.0343302965,-2.3088827712,0.8893117131,-0.0976947742,-0.2518799402,-8.2621940211,1.9642303274,0.0177215607,0.1127887598,-0.8899382611,-0.3530451263,0.5673056334,-0.2772219775,-50.3318578149,9.2806023489,-6.4758367885,17.9669776024,-0.0638496951,0.4736765968,-0.8812645464,0.7974368684,4.8585245225,6.5962755374,-6.019046027,5.6668531634,-0.2762843906,2.657894967,4.1665163071,-23.6230855391,-0.043550655,-6.912925476,-0.9331621955,0.9564879972,-30.3344504887,-4.0875038674,-0.2126624546,-0.1392603385,-25.0129404829,-32.5945154803,-1.2733167895,5.3039429318,-0.4670462583,0.6997040348,-0.9373164229,-1.1592128509,1.2292076662,3.5896965729,-0.5860589159,-0.5768646241,0.6558284938,4.2043044876,-0.1063353574,-0.7460210575,0.2449883733,-11.5652145721,-1.6274064345,0.52866481,1.1765696091,0.6495601624,-2.9540401076,0.693912636,0.800903873,-41.9494949951,9.7951183578,-4.8715325691,29.2233462122,-0.5708079207,-0.0313443443,0.0703634343,-0.7515834385,2.9699410477,6.30011748,-6.3631874454,4.0440554571,-0.5293336226,2.0175544428,4.147434918,-28.9244637531,0.6182903758,-9.363242835,-0.8052146057,-0.9618907728,-30.2288043104,-4.6488086062,0.8007313752,0.8607098691,-25.6952816045,-32.5917421149,-0.5076239114,4.6505803297,0.226251538,0.226485619,-0.3475847166,-1.0481467299,0.9123073399,3.2133270104,0.5272234549,0.8735807283,0.2942774395,2.0518496885,0.8214484821,0.4223744724,0.0739219221,-11.7249263325,-2.1067660182,-0.8035073882,0.9766052878,0.6755877563,-2.0201033483,0.966406501,-0.9951634346,-63.7965695154,-1.524000565,-0.2609039462,-7.7286146429,0.6846525139,0.7608894343,-0.7972220151,0.1006506532,1.23874914,-5.5833047194,-8.0995366567,4.9504241312,0.9405103711,-0.7682151546,-2.7435792378,-2.9359516649,0.364934113,-0.1221169104,-0.7003166354,-0.2357716181,4.5923101576,0.9444118433,-0.2852023031,0.0855569994,4.5672984734,-35.0939907582,0.1142195935,-4.8742464467,-0.4110693624,-0.6221015105,-0.7088226451,-0.5193558123,2.4074546913,3.3730842483,0.5212069376,-0.1063018744,-0.4879655123,-0.213170848,-0.1202690599,-0.1670694556,-0.2390212104,-10.395069743,2.7967696001,0.888390306,-0.4264924626,0.7887222903,5.3264974617,-0.8849976715,-0.1389304534,-7.6440364981,6.2374738631,-14.4759271031,29.005085704,-0.74148038,0.7745428061,0.9221390536,-0.7234450218,4.1250444636,5.6704703614,-5.1935698141,6.0529416092,-0.7996508906,1.2010738964,3.965988799,-20.879298612,0.2132666305,-10.2924041045,0.0378030055,-0.1073202823,-36.0302530536,-3.2680181311,0.7018393321,0.7840135396,-25.2599595388,-32.6475995736,-1.2599403071,4.2748404223,0.0168060923,0.1291747481,0.8797529801,0.8044675839,1.8010877221,3.5600598696,-0.393655055,0.8088761854,-0.9406713511,2.2948685482,0.5872274646,0.6235774026,0.5759208264,-12.550475108,-2.7464474487,-0.5586338214,0.8072775879,-0.9639702837,-6.6129408328,-0.8771223249,-0.6934406301,-66.5865195497,5.7424574368,-13.6388968895,-14.1905559356,0.9191758638,-0.2816776091,0.3752749838,-0.5941699762,1.6412790211,-0.4881978514,3.5844559135,4.900067207,0.2010066685,5.8773396212,1.0106341419,2.0168297613,0.7194397503,-6.9679252622,-0.96684753,-0.8855361492,-1.9442877685,3.3747622587,0.7275629319,0.637165729,-2.1489605636,-34.1427735568,1.1371802991,-6.8719291553,0.843666975,0.5527209109,-0.4649598218,-0.3807332247,2.4939079077,3.2584498349,-0.6724502877,-0.1652434094,-0.5166610593,-2.899940276,-0.1089050624,-0.6081112803,0.3113576684,1.7776382876,1.0373822878,0.3237445055,-1.2274560986,0.8851207704,0.3717579169,-0.06608899,0.821643276,-19.0656857825,11.284585743,-5.0361024378,30.2721320668,0.7287107022,-0.6381540883,-0.6915872618,-0.5689835956,5.281855001,6.2411934252,-4.6972639895,4.2518085214,-0.6249200412,3.1072938217,4.288169236,-28.2124982105,0.5605582027,-9.3183054554,0.3100556959,0.490788063,-30.3520553102,-5.1250601955,-0.81425956,-0.5942426293,-25.7636069893,-32.124459858,-1.1810042049,3.8712577907,0.1026218844,-0.6020081243,0.9248465517,0.363453747,2.2094355196,1.7769939734,-0.2001293083,0.5514022474,0.7231320658,2.8435415933,-0.6521171605,-0.8547201818,-0.0828487724,-9.9833433222,-1.9055249831,0.7266252325,1.1999043732,0.2671311972,-2.0408215463,-0.2043487319,0.2393641476,-58.8879495792,7.3646009034,-8.7029742755,23.9946885194,0.1287423849,0.6146899801,0.3321258379,-0.6072647765,4.6507915185,6.4181231963,-5.626558429,5.0183401472,0.6081831272,2.4749722834,3.8856642938,-26.4533632936,-0.2838072801,-9.5106683248,0.3589708903,0.3548165199,-35.2454115973,-3.8718172827,-0.5506578154,-0.0912701865,-24.6928061171,-32.156963219,0.3615328528,4.3176286715,-0.972488693,0.5374653186,-0.341310182,-0.4567085883,2.0568808479,2.3676399902,0.5410649327,0.3654527702,0.3591856388,4.0370084929,-0.7835323234,0.677690411,-0.2107278094,-11.3214047005,-1.6108356211,-0.6457816275,-0.3658250971,0.1231841649,-4.6914829583,0.4378315466,0.3410180081,-42.6178805872,0.6906110811,2.3003212403,15.2925157119,0.0738183425,-0.8131192561,0.0991189509,0.2339684238,2.4748123118,-9.9044267401,-8.7519998411,4.2098044324,-0.6843841744,-1.8524809393,-4.6382409086,-9.1444473733,0.8541360394,8.3071642025,0.724821853,0.649584719,-24.8809271891,-3.6020768408,-0.6129512925,-0.7012572736,-3.737663362,-34.2893898025,0.5444393638,-7.6530278082,0.7026474701,-0.4253716169,0.3916801629,-0.6825847713,2.0995797034,2.0802257868,-0.2268907878,0.4419472073,-0.3245487683,-3.1073289181,-0.8541599546,-0.2410876287,-0.4249792553,-16.6655771155,-3.5593786376,-0.1729968983,-2.0010601743,-0.7334809441,-0.7083396122,0.1125086951,0.1916625593,-84.9414614163,2.9650814341,-0.8536532087,-1.12643174,0.1418401943,-0.491816827,0.504303581,-0.8404989519,2.1040500913,-2.6746669271,-10.1287224417,5.1300669866,-0.4375893062,3.0028291049,-2.6431189128,-9.2213178717,-0.6262769175,1.006742185,-0.2364607769,-0.8389607078,-19.0021397486,1.586083915,0.7773236674,-0.5773002472,-2.6707256891,-35.3046938655,1.1723572384,-7.2851195538,0.2125062295,-0.7753465846,-0.1640409063,-0.6267482947,1.0886817402,2.2357531531,-0.2305153426,0.9833414715,0.0952327556,-0.8197589348,0.2700693785,0.3412870675,0.3503215913,-11.1534658096,2.7082041575,-0.8188561655,-1.7325852426,-0.1119526842,5.8353874284,-0.1788042728,-0.8544988036,-29.2038492979,-1.551907827,-14.7443560149,-9.9776149736,-0.6613831237,-0.6850389653,0.8433046482,-0.9502576294,-5.0030587581,-6.2875580382,3.4094324704,-5.0760605125,0.4514393183,0.8337115603,0.4774138734,14.4240557357,-0.585289645,-7.9914757275,-0.0536489604,0.7058786598,-9.3552381122,-0.5820395737,0.6285794706,-0.8573863262,17.3903121143,-33.7523109344,-0.0774728822,-6.1809528645,-0.4871576173,0.0073200454,0.6025373288,-0.7390194637,-1.9004032802,-1.7236666022,0.9938760208,0.9964139486,-0.3911149241,-1.1803676964,0.41273723,-0.6718626448,0.4137733223,4.5190940829,-4.8003797271,-0.0980524484,-1.8296232424,0.847194161,-4.6973809577,-0.0610033449,0.5816355234,-27.5575761753,7.0610779678,13.6677990384,14.123404645,0.3924439182,-0.964631381,-0.0972404704,0.710892884,-1.9514587057,7.4863289384,8.3776852698,-4.9632218325,-0.0773861503,1.7252211207,5.1214710463,-24.7129271584,-0.3137918945,6.5549139905,-0.5356257328,0.409420622,-0.059722449,-1.454675703,0.844525907,0.1962035381,-4.5882166826,33.7855274735,-1.1758825647,5.7296712815,-0.4318991674,-0.6711788307,-0.3651668185,-0.5568443062,-1.6181675999,-3.1190192974,0.9203488584,-0.6902386874,-0.471034975,5.2708618981,0.6303913041,0.6933187789,-0.2835392245,5.1833826161,-1.2940356203,0.4409339985,0.0630585785,-0.0783660969,-2.882229305,-0.8730313622,0.1532598181,-8.2384352686,-10.8066513701,-1.7098623113,-5.5390690333,-0.4925421913,0.3779941973,0.4654997711,0.0306524252,-4.6674449131,-7.0091184417,4.5880539328,-3.9151384529,0.0771172342,-6.3805043604,-6.5255221503,8.4843843244,0.8065449335,1.7670707473,-0.1934576395,-0.5811071148,7.4365073585,-0.4644902637,0.6228352602,-0.8071818397,19.5545176877,33.2784377952,-0.1456963935,-5.6785272729,-0.6535013626,-0.7564426069,0.9392804921,-0.1252935441,-0.2961158936,-2.9574327054,-0.8513689426,0.8640572668,-0.6831734061,-4.2838932441,-0.6483044007,-0.2036340399,-0.6835424314,8.3446734012,-2.1267427194,-0.4870841889,-0.6422048813,0.5825007901,-5.1613897773,-0.8784472258,0.5777217813,26.0196567349,6.2202325564,-7.9461311841,25.3052180144,0.933158915,0.2077920134,0.2102578281,-0.9537228064,4.3803777467,6.6866888035,-4.5875956035,5.4775928117,0.6597063739,1.2982497732,5.3068588785,-25.0939657391,0.486845699,-7.5918779011,-0.3473914614,0.6286696855,-34.5922820316,-4.322537259,0.9250735886,0.1677079475,-24.2211406532,-33.3338528289,-1.2401911076,5.614265017,0.5360267287,-0.4763361389,0.597654406,-0.9590199716,0.6859162189,2.5212651826,0.7065894692,0.96881083,0.3722956917,4.4806072022,0.1807025387,0.8977399394,-0.2822521614,-11.7338992453,-2.3496503853,1.0167901617,0.5125266882,0.3201520858,-8.2872634226,0.5420482961,0.8370434894,-41.7581604989,7.1020129137,0.4554675477,14.6622738076,0.223765046,-0.6405462854,0.0037145038,0.4897535807,-2.0124700239,7.6973926813,8.0608017488,-4.3663006314,0.2964496086,3.0448778394,4.891198576,-23.9804301209,-0.4885598022,7.073565156,-0.0425115976,-0.7531404296,2.2012893336,-0.6448139331,0.7034228965,-0.0893425609,-5.1604510082,-31.7286082015,-0.0618379858,4.6487503911,-0.9514097616,0.1177510222,-0.304484446,-0.7519173344,-0.7978344655,-3.2686346801,0.1796582943,-0.0043323123,-0.611371259,6.1009467466,0.0812083697,1.0768624975,-0.8630637992,5.2740024603,-1.8499184278,-0.7498760963,0.1469735034,-0.9593634316,-1.0537265685,0.2372192662,0.9103933967,-52.4847130026,-1.3263137459,13.0794298657,0.7663731023,-0.0029877613,0.7656321789,0.1425332071,-0.4928648145,-5.1185286675,-4.9872962509,4.1527048106,-4.6856339437,-0.8371868579,-3.5561159097,-3.4594171068,-7.201540407,-0.1670232503,6.902470308,0.513219392,-0.6057687871,6.4207189416,1.0598685064,0.0646302362,0.3618228204,16.8587617956,32.6000952298,0.9890349821,-6.2202003907,-0.5615649101,-0.3837549853,-0.6474295492,-0.1632981524,-0.86778003,-1.7070863369,-0.8782982339,-0.6653199603,-0.1129636099,3.2130706679,-0.1075918436,0.7450280246,0.5318209677,7.2471897674,-4.234655117,-0.7748244269,-1.523866529,0.4594320672,-1.5180956029,0.1466710395,-0.3571702919,30.2955679653,-12.0101729045,-0.9883909486,-15.9714114039,-102.9424934655,14.4936849566,36.4076177464,19.9279737157,76.1480116101,-5.7359838058,0.98086677,-2.2374841144,-25.5640040134,54.4857754004,-713.8054606964,-683.4969146684,128.5964399287,-1118.3390569126,-139.0055190891,6.5462870884,9.9042154494,24.8498130852,122.12433312,-274.2848309795,-292.84962273,-220.834491729,-204.6531439738,-99.7537532628,-0.3039202961,-0.5315064979,-0.8314009457,-0.8288908756,0.0546645783,0.9965439123,-0.3600573909,-0.3405627518,-0.0015024514,-0.8448649628,0.1395062663,0.4815236157,0.0336315362,0.0733554189,-0.7860182214,-0.4191177579,0.7383225979,-0.8166259867,-0.152768853,-0.8098305243,0.3501127503,-0.1772653688,0.275623252,0.2985766588,-0.1861812244,-0.8707262355,-0.2406995835,-0.7036945476,-0.1325256176,0.5349835582,-0.0448219161,-0.4714251318,-0.4954962443,0.1746080175,-0.4759353273,-0.5733459771,-0.5847327163,-0.6238379873,1.3315456681,-9.506731513,-13.2170926303,-19.1702111066,15.9127312712,16.9011220947,-3.912289416,-7.4113037668,-5.6852651922,-35.545487935,-130.1058583858,-37.4069032847,-39.2484874183,-8.786323734,-148.0861283621,-17.2356437855,3.4207219334,5.485120576,-18.5576888316,-39.8905399671,63.6763744792,121.8244337708,209.0434518153,27.9796303707,56.9851655463,0.0843334405,-2.1273892287,1.250103584,6.8144637509,-208.6688416713,-60.0715608873,-26.963147967,-45.1979125624,-34.4885602559,-0.0655027268,-0.0192805197,-0.0940538384,-0.6400035371,-0.9840161864,0.7743606311,0.8306175921,-0.9239844326,0.1345639652,-2.4912944666,-5.5787028519,-17.533178401,-84.5452109448,54.6708881769,39.6261208385,7.3482970584,49.2257531029,-2.5130019846,-2.0098507719,-4.232944743,-19.7232445371,-54.1018463351,15.5336353557,-40.8228108439,-26.6402717502,-16.4852945456,-14.7024061511,2.6369678873,6.8481011843,25.2393095446,148.8536574975,214.2209784944,390.9074785553,307.9529376055,265.3396774061,147.6554451303,-0.3175597829,-0.1013307815,-0.5983126385,-0.1905630666,-0.1419941676,-1.1471525881,-1.2369676361,0.3946354849,-0.6294523775,-21.2043776114,-0.8890034305,-44.2003616298,11.518138926,-47.5716551668,-61.1651087849,-40.2001707323,-18.4487907134,-14.2316887008,-0.0003064153,-0.6522942929,-0.6626099944,0.5866814711,-0.8449764565,-0.6837433315,-0.5226323353,-0.4311169652,-0.922589688,-0.9816703046,-0.3407618364,0.8610145072,0.5672320966,-0.7674102639,-0.0084850154,-0.844497913,-0.7104106698,-0.511600968,12.9152222045,15.7414395419,-44.4970317288,-76.0565521356,158.8036819894,224.2045889834,283.3511447892,46.553370287,87.8594306389,-4.9406950921,-4.0047184111,-19.2933902702,-97.2924308186,19.6814292577,18.8131917059,19.6420026242,-9.5633059335,4.3137348974,-0.0987293495,-0.8089004252,-0.26135954,0.7094551538,0.9778308324,0.4020039392,-0.0647273803,0.3468717797,-0.9306096842,-0.8150006609,-0.5806916891,0.9638590262,-0.7955573226,0.1684399405,-0.4963571913,-0.2640307336,-0.5708378846,0.8388622895,3.1229132057,24.5873722122,114.8715891792,-8.786321412,263.3233532711,297.341008348,215.3569417862,95.6866309423,87.1045853644,0.0191411354,-2.7486185855,6.2629513609,9.9487204005,-36.8769508949,-54.3614688617,-10.7956897176,-65.9519848632,-18.3078605399,-0.9529670489,0.0149971209,0.2979367438,-2.7168488332,-1.0313649614,2.0424508594,-0.5237107188,-3.220025231,-0.6574648401,-1.6544758051,-1.1221110476,0.9904139462,-25.5170126633,-7.5330195137,-3.5679939343,-11.2077211003,-87.0291972177,-1.620163303,-0.8646954801,-0.5958755628,0.9822720719,-0.2632525401,0.829275946,0.0589108527,-0.4461204321,0.2324678954,0.2615225489,-0.8154063878,0.0841423629,0.242559692,-0.4427907405,-0.4531081218,0.67724525,0.4319834267,0.2594108664,-1.0639506204,-0.5338000414,-0.9068319058,0.5582393604,0.9702905315,-0.113708449,-0.8893719452,-0.4616506762,0.5536750579,0.0317993026,-0.4746741104,0.0364990023,-0.2824799583,-0.7748237649,-0.4568343546,0.5525564115,-0.8138409901,-0.5493225718,-0.311376342,-0.2655312917,-0.6054844276,-1.854706495,1.9553802775,-4.8420912546,-5.7885406076,0.6329666286,7.6036312892,0.0009769562,0.1964413312,-2.6847984964,2.1961554052,9.5413775997,-135.6315790537,-66.5049367927,-40.6477357375,-62.5090801234,-41.7490009425,-0.4111423308,-0.8823743041,-0.6583582235,0.0690020285,0.8012229831,-0.1588622165,0.1832259984,0.9360435108,0.0333294103,-0.9634950663,-0.3895257803,-0.5228415579,0.6016889594,0.2004534592,0.5598721036,0.8685142612,-0.1438568193,0.8162144843,-0.2802382098,-0.2140260074,0.7420652399,-0.2649573516,-0.8294823782,-0.7695482326,-0.8038051696,0.9433025008,-0.5825668525,-10.6624639708,-0.7981570168,-6.3377589716,-95.0460361285,57.4184429719,26.4423140759,-10.7352367626,-54.6373986437,-20.4205684767,-0.2716602135,-0.2227478592,-0.8856905015,0.2464940765,0.3340780915,0.348362307,-0.2314565833,-0.1244388037,-0.586133994,-1.0263859731,0.1181166858,0.1011522167,-0.8238315806,-0.2474868492,-0.8205631278,-0.5568433944,-0.0882764836,-0.7769519542,-0.085031238,-0.4842959809,0.7813055087,-0.9229190717,-0.0159010839,-0.0706339154,-0.9746643704,0.600164541,-0.8829558777,1.8365382727,-3.2983728125,-40.9106851037,-55.6179451242,42.1529008926,-335.9599974994,-216.169584571,26.0889281759,-113.9253310892,-2.2673540859,-3.1767526866,-18.246174007,-46.14665537,-2.2186104564,13.9560982931,-1.0104537683,-1.8777791904,-12.6843137865,-0.2011599384,-0.015459821,0.7299762846,0.5317661724,0.9554173774,-0.1478562135,-0.7964766825,-0.6220797918,0.0983858197,-1.6450717463,-0.4716050282,10.2897901014,-8.5630734452,-84.2860413668,-42.0522219528,11.8231439244,9.2058956917,-3.9597359368,-0.2582240644,-0.2540063949,-0.8160286844,-0.3175064112,-0.5273988404,0.3006178069,0.9738225403,0.5149663142,-0.0481384359,-4.9435752324,-4.6894389748,-31.1724053805,-79.5887006167,23.3882874051,19.2637613977,20.2346859542,34.7843804277,4.6786665146,-0.1224954222,-0.8038639678,0.4015122956,0.4810207048,-0.5291780757,0.8123828201,0.0059879063,0.7712377117,-0.2992193829,-0.7711508649,-0.0988951903,-0.9823697675,-0.1968629077,-0.4089179186,0.7405615166,-0.2537796943,0.2876325864,0.9069426975
biasActivation=0,1,1,1
[BASIC:ACTIVATION]
"org.encog.engine.network.activation.ActivationLinear"
"org.encog.engine.network.activation.ActivationReLU",0,0
"org.encog.engine.network.activation.ActivationReLU",0,0
"org.encog.engine.network.activation.ActivationLinear"
