encog,BasicNetwork,java,3.4.0,1,1524780867963
[BASIC]
[BASIC:PARAMS]
[BASIC:NETWORK]
beginTraining=0
connectionLimit=0
contextTargetOffset=0,0,0,0,0
contextTargetSize=0,0,0,0,0
endTraining=4
hasContext=f
inputCount=8
layerCounts=1,25,25,49,9
layerFeedCounts=1,24,24,48,8
layerContextCount=0,0,0,0,0
layerIndex=0,1,26,51,100
output=7.9266470523,0,0,2.7870341632,0,0,2.1589741658,0,0,0,0,0,0,0,0,0,0,0,0,0,0,0,0,0,0,1,0,0,0,0,0,0,0,0,0,0,0,0,0,0,0,0,0,0,0,0,0,0,0,0,1,0,0,0,0,0,0,0,0,0,0,0,0,0,0,0,0,0,0,0,0,0,0,0,0,0,0,0,0,0,0,0,0,0,0,0,0,0,0,0,0,0,0,0,0,0,0,0,0,1,1107.987825231,183.6672041106,-0.619315946,0.3127388544,0,0,0,1,1
outputCount=1
weightIndex=0,25,625,1801,2233
weights=##0
##double#2233
   -0.0857968295,-0.0813985313,2.6794843274,-0.0842013503,-0.1748055685,2.1906439229,-0.2498934504,-0.0188736085,0.024750051,0.0057392143,-0.019993088,0.0301734556,-0.0956750906,-0.0346708811,-0.0628512335,-0.0469783803,0.016548449,-0.0796272501,-0.0063421708,-0.0403711959,-0.1074467094,-0.0423984328,-0.0753521638,0.0534776496,-4.2707109441,-0.8784621438,0.1224123473,-1.1887821293,-0.081082334,-0.2054286908,0.3895254278,-0.11689023,0.5156833788,-1.3356651295,0.0057352481,0.6472842969,0.0849948889,0.361550315,0.0354705339,-1.1269838829,0.6000656345,0.3939191645,-0.5769495056,0.4356702159,0.0842669667,0.3783587954,-0.5493426146,0.7279368193,0.5537134806,-1.0874611632,0.9894366199,0.0681003052,0.1125594841,-1.1792355171,0.2166931379,-0.4783272436,1.107383847,0.4073855745,-0.2454335166,0.1695556949,-0.7832944652,-0.9264279465,-0.0532274697,-0.4508320627,-0.1782552828,0.2049025747,-0.6503278255,0.1094164548,1.5107812422,0.1054249342,0.2731665696,-0.0156039799,0.7204680918,0.250017452,-3.8741191987,-0.5509626873,-0.0540017901,-0.2571921172,-0.4519810163,-0.5841945229,0.259069382,-0.5640834514,-1.4835347137,-0.5962738293,-0.5994279966,-0.2483372855,-1.1309006634,0.272446457,0.1705758774,-0.0681988562,-0.8054275927,0.7382428643,0.513769505,-1.0446597835,-1.4931360868,-0.4733528486,-1.4118932554,0.0944311009,0.6109194256,2.7870341632,-0.5803772257,0.1215656814,-0.731899895,0.1502772859,-0.0837549814,-0.488587876,0.1570955123,-0.651886515,0.4364806484,0.5875560839,-0.8557818172,-0.3755716943,-0.2484575961,-0.4867063783,0.8193225803,-0.4556552243,-0.7434259856,0.2578790394,-0.6160668626,-2.1394213018,-0.0387735423,-0.0433890331,0.15592498,-0.0753989258,-1.0005713924,-0.2517353042,-0.8175595282,-0.1434470078,-0.7363689915,-0.0385136496,1.2181811571,0.5979115964,0.6997019291,-0.9817459324,0.4460275281,0.1754596217,0.5003048977,0.4393621759,-0.0156595543,0.0601378557,0.2622214316,-1.1185770074,-0.1532397337,-1.1044116834,-0.1476278483,1.0129398247,0.07966016,0.746459827,-0.1940447081,-6.4540650405,0.2073489792,0.367707204,-0.3525168191,-1.0419755407,-0.2826784304,0.6387094674,-0.2752645764,0.1225965418,0.2873410966,0.6706874475,-0.645300976,-1.4382428413,0.2263728666,1.0919696285,-0.4748974309,-0.3727614313,-0.9217092893,-0.7860558177,-1.023338541,-1.6566742246,-0.3929221786,0.2679779947,0.4987391579,-0.0393426246,2.1589741658,1.134142615,0.2110019189,-1.523690319,0.3837622918,0.0219225601,0.4763810812,0.2936440723,-0.096870797,-1.4167716325,0.290720876,0.5458256702,0.3483540382,-0.4360314447,0.6431051747,0.4675647995,1.3795287547,-0.695845199,-0.3315984061,1.2871972545,0.2276606135,0.8165321598,-0.6344089515,0.1230264854,-0.5270224611,-5.1414404805,-0.5998285716,-0.57338697,0.0186850931,0.1771238458,-0.9262183067,1.6544330782,-0.9090589875,0.0845089455,0.9411954509,-0.5705677673,-1.5474600789,-1.4091246656,1.1015957766,-0.1997236412,-2.6359148074,0.6289418031,0.3193420468,-0.1967002087,-0.3306536507,-0.2471349523,0.774655498,-0.3881860992,-0.0928327681,-0.082438462,-2.9938111784,-0.7037706171,-0.6973729668,0.8818382665,-1.1198980814,-1.6717249035,-0.1859830181,1.0664887414,-1.9004767199,0.104625313,-0.1273948311,-1.1049763577,-0.9840565405,0.6947737027,0.6560061318,-0.2922944734,-1.0909163993,0.7425444755,-1.2893538545,-1.4317515985,-1.7503450533,0.4784900742,-0.3049737433,-0.4201297119,0.6284032388,-6.1573826712,-0.6805198498,-0.9038210684,-0.5582298857,-1.0313590695,-1.3672859587,0.1472709766,0.3263719415,-0.7619870687,-1.3042912809,-1.1182350381,2.5133446623,0.3191557293,-0.6273760094,0.7757074568,-0.4179605549,-1.8999378048,-0.8547199844,0.4114321949,-0.7317820829,-0.1989379661,-1.0044524764,-0.1783446066,0.4382621751,0.2102446332,-6.4634708885,-0.1930983311,-0.8870794915,-1.3268895024,0.1532140835,0.7043694793,0.2608924698,0.6327983148,-1.4522218823,-0.5899248725,-0.2335962581,-2.0474552667,-2.0554348506,0.8823468335,0.0148218138,0.3739749043,1.0704645183,-0.4648280443,0.8892976107,-1.3252711791,-0.074630706,0.5458808885,-0.5297117789,-0.2685918858,0.4036702159,-9.2467343589,-0.1983238538,-0.9526390815,0.0406271139,-0.4386670368,-0.1259414655,-1.5340660035,0.1750488526,-0.7249015155,0.8488561631,-0.5406318871,-1.9810361821,-2.1140794239,-0.077735806,-1.0210116135,-0.9598919741,-0.0035959262,-0.9878054008,-0.674323117,1.9006218942,0.0374087964,0.9302600019,-1.0445590533,-1.7062067144,-1.2094344783,-3.6969850195,0.0674639409,-0.1553378745,-1.6133332915,0.5411120416,-1.2666981149,0.3999953243,-0.261698415,0.0419092425,-1.7244546903,0.1966600989,-2.4599380552,-3.9327430597,0.9394719753,-1.5818285297,-1.2945609865,-1.7277026973,-0.6242655503,-0.2237367183,-0.0282436139,0.7638371747,-1.7421086702,-0.362747644,-0.435127989,0.3179311861,-2.7812017102,-0.202620212,-1.211297869,-1.0785755174,-1.1858931315,1.0057667249,0.449508129,0.6563784958,-0.4850144684,0.5841648958,-0.0757761128,-2.2322145141,-2.0227089541,-1.4653285012,-0.0494581854,-0.0583079067,0.0660712056,-0.3122186168,-0.9765144562,-1.5482936318,-0.4480710923,0.4029711208,-0.5073301021,-0.2013041544,-0.5631014093,-0.8476306263,-0.029513624,0.1171761432,-0.9538933235,-0.0142088995,-0.3061257317,-1.7521913347,-1.0006735175,0.6545042393,-0.6073533727,0.3406515307,-1.9295904351,-0.9356349854,-0.5800377448,0.5977507211,-1.7380635355,0.3851483359,-0.7431342574,-0.9847037453,1.623075669,1.1734790327,-0.4768418744,-1.0681047475,-0.3450586444,-1.3194861787,-3.6412306381,0.7885814423,0.0099768129,-0.7157389235,0.1809801102,1.2413184504,-0.7576521715,-1.2101567168,0.8875321495,1.1877307459,0.3229533833,-1.7595386426,-1.7085250518,0.3902023753,-1.2485034048,-0.123377951,-0.8286866801,-0.1111876679,-1.2717797155,1.0342159578,-0.6242697153,0.1266766079,-0.9647391234,0.6377881476,-1.007158506,-3.645010515,-1.1161162099,-1.1781205929,-0.0407034956,0.1388755049,0.0073679118,-1.1111138709,-1.0170095382,-0.7389138052,1.1291258314,0.4654444567,-2.3860886183,-2.327066714,0.3569665544,-1.1183345294,-1.1344648408,-1.6440869122,-1.1983814132,-0.1351714415,-0.1963624051,-1.3200262897,-0.4604093521,-0.8041804743,-1.5088695295,0.9257184161,-3.117655052,0.5522883084,-0.2427144369,-1.003530604,-0.278371621,-1.3292816808,1.2471520081,0.3593472444,-0.6567403001,-0.1724903976,0.5341170163,0.3511430656,0.2644119056,0.1860413715,-0.1000549026,0.79277125,-0.346106893,-0.0400871465,-1.2760022242,1.4937599062,-0.0040268764,1.0631585998,-0.8848627359,0.5544958706,-0.117515021,-3.8787612741,0.2736379131,0.5197520191,0.4782374798,-0.573779546,-0.3404523823,0.2370612838,0.3608649837,-0.1254854608,0.5238453105,0.2363988317,-0.6128830466,0.479672267,0.2092704088,0.4587758823,-0.0209583439,0.2115314227,-0.1921293619,0.1531077511,1.1590600082,0.0490396271,0.9726673955,-0.6944180336,-0.083199763,0.082800478,-1.568323689,0.2879127469,-0.8861520479,-0.3705722763,-0.6455587256,0.4579131295,-0.2093521544,-0.3987600573,-0.4243403584,-0.2163697195,-0.2063516461,-0.5012951124,-2.9911514305,0.6251771718,-0.4828318809,0.0126472832,-0.9103680453,-0.1866043827,-1.2003036795,0.8520171939,0.0329989098,-1.2074313768,-1.2482641551,0.0495079302,-0.6624115313,-0.7258631106,0.0839853227,1.0982757854,-0.8978611213,-0.7768589061,0.0714270604,1.1642845989,0.699789984,0.6393588801,-0.8888051815,-0.1614775398,-2.0270038065,-0.8789438641,-0.2070070513,-0.2868168784,-1.469828768,-0.1604223826,0.5350262589,0.3124474716,0.3675454095,0.1183247598,0.7031221694,-0.6611769882,-0.2375490428,0.3088848691,-4.0272882616,-0.2760089847,0.7050286576,0.4200500587,-1.0453531238,-0.7965013422,-0.7104799696,-0.0304436321,0.5140795145,0.0551557932,-0.3631518863,0.9429560926,1.3496874837,1.0707150492,0.4970554235,1.2226869554,-0.0924249959,0.0198627118,0.1520797495,0.416257653,-0.4165050028,-0.090086002,-0.9646294626,0.3552128335,0.3706685796,-4.0578828037,-0.0947569159,-0.0010062104,-1.6887148318,-0.0150264347,-0.8320507418,-0.4709210322,-0.4124406875,0.231312203,-0.5166624397,0.7237637992,0.8113874188,1.2937826875,-0.6483580368,-0.087809363,1.971569534,-0.8295583543,-0.6182711563,0.3499623247,1.0948464863,-0.2449792699,-0.4852690355,-0.0626151419,-0.8979883518,-0.6603137576,-1.1110199446,-0.2955645003,-1.4982766252,-1.5952286161,-0.1613221841,-1.2988263595,-1.0716138979,-0.3359863142,-1.52075594,0.709267875,-0.430918967,-1.8943041054,-2.8375089464,-0.5652601895,0.4764294899,-1.9138959081,-1.5707902102,-0.8394590749,0.1471052118,-0.3015751827,0.1782226467,0.257796993,-1.0091328304,0.1700783703,-0.4766183651,-2.8255882379,0.3488388938,0.435122006,0.1304068421,0.574344314,-0.0636423615,-0.7636873555,-0.3585285534,0.3599139804,0.4288271007,-0.2231899729,0.1793823781,-0.2817391364,-0.1511903379,-0.0830773325,0.3336532437,0.1082022558,0.3559956009,-0.382355819,-0.306325512,-0.9303212561,-0.0254245425,0.6813657366,0.2900248346,0.7770076168,0.4292557815,-0.3293457035,-0.2617515983,0.5924522935,-0.2950137211,-0.1819267932,0.8645601847,0.4247430283,0.5791884063,0.4074919383,0.5046687411,0.5862279805,0.7293559554,-0.0353464468,-0.8612209392,-0.247236842,-0.0547181812,0.6120501123,-0.7597664558,-0.830215757,0.5349079167,0.2542137343,-0.9916582518,-0.1323953639,-1.8255948375,-0.8845621839,-0.3118762934,0.677176767,0.4156540472,-0.9322745568,-0.1145017568,-0.8111079965,-0.0481662911,-0.33496857,-0.5014571226,-0.8665740198,-0.6372197391,-0.8293649702,-0.5967829162,0.3907043545,0.3403839342,-0.773715279,1.0732154871,-0.1872115716,-0.7802404561,-0.9406825178,-0.9704022047,0.63090761,0.6308688097,-0.8186019171,-0.1064701323,-0.5330230241,-0.5224062645,0.9632467063,0.5784500694,0.9644718126,-0.6258765993,-0.2081871609,0.142274889,-0.7309678162,0.4048545189,0.6947451652,0.5295902238,-0.8747887502,0.4622147194,-0.0828078248,-0.2032578169,-0.4759248467,0.5782640289,-0.7263803576,-0.0566553749,-0.1551813544,-0.8292358654,-1.2755620705,-0.5381869577,0.3219592229,-0.3432798057,0.3696385756,-0.7762731584,0.3596580295,0.0541180682,0.1280569963,1.5119614753,-0.6416828437,-0.1659421201,0.1566153443,-0.2676309432,0.4012893525,0.1546055359,0.362960696,-0.8897696724,-0.2014773181,0.4011349244,-0.1205536241,-0.2879533607,0.6673470681,1.2247958721,0.8470099164,-0.1374968904,0.0173627553,0.3527487654,0.8326917366,0.6490356456,-1.1633329005,0.4923802254,-0.5458295583,0.3257623984,0.0353824896,-0.6629148473,-0.5864999972,-0.2876080195,0.1184704412,0.4857768804,-0.0425587858,-0.1408397823,0.8891027893,0.0393635281,0.9168687268,-0.7570383653,1.196231102,0.9363757769,-0.4531125814,-2.2568677096,0.0499489845,0.8999849275,-0.8592297391,0.4323462412,-0.7741126056,-0.6387577362,0.6107535564,-0.6628017574,-0.8072676453,-0.8567920511,-0.4007931901,0.2029959416,1.199280377,-0.5366518497,-0.5062768827,0.3761883331,-0.2436124437,1.0093171286,0.6271533446,-0.3540542171,-0.9538604119,0.012757838,0.0743880637,0.0911655637,-0.6432961205,-0.4450884692,0.5866073279,-0.1866211331,0.1641017645,-0.1396314161,0.7897720063,0.3751790581,0.1778649005,0.6885101318,-0.7111441899,-0.9231685002,-0.591976323,-0.3176045466,-0.7025872148,0.811427085,-0.8463312852,0.7519313764,-0.054559131,-0.9992463448,0.876598562,0.3136317418,-0.8555387752,0.3709464948,-0.227704699,0.3282591795,0.43122637,0.0946548928,0.667959184,-0.5071700998,-0.0686284852,-0.1237671453,0.2612096286,-0.9968096106,-0.1535617241,0.3620268103,0.6673643967,0.0466247954,-0.0759937676,0.0551448923,0.017431083,-0.6137517684,-0.8426893947,-0.8747988914,-0.0820458496,0.3467201063,-0.9733317664,0.7876890804,0.9572945971,0.5634084475,-0.8039607059,0.5622664388,-0.5340243491,-0.544042112,-0.2230308442,0.7699992129,-0.6463393965,0.405428782,-0.8370787754,0.8415923131,0.979419258,0.106928663,0.5501566194,-0.1577938397,-0.8680045701,0.656459567,-0.471869108,-0.5790988157,-0.0913666164,0.037980422,-0.7150104722,-0.8783723449,0.3682405923,-1.9537571524,0.7109316835,0.0067286622,0.9743508386,0.8951374162,-0.0858906501,-0.9542210442,0.3694947464,-0.7633148431,-0.667690169,-0.4708468012,0.3300260363,0.8290199469,-0.9185256521,-0.8985876121,-0.0622130633,-0.1966124004,0.3159457097,-0.8987100974,-0.2819818605,-0.0235911503,-0.0735226524,-0.3415272867,-0.6827121832,0.5266260861,-0.1828693539,0.4766660044,-0.5853698554,-0.2342220107,0.231645739,-0.8697875022,0.098417234,0.7168208104,0.7486842371,-0.7030947426,-0.45083808,-0.5893012108,-0.3902055635,0.9328336567,-0.7638370099,-0.022002741,0.3325085118,-0.5170398646,-0.3955449471,-0.6169206286,-0.0998163363,-0.857257255,-0.9954337363,0.1235855701,-1.3736743128,-0.9114108029,-0.6358540324,-0.4011912363,0.257672713,-0.0551179065,0.3499659241,-0.2339880535,-0.6949788326,0.166327761,0.2309917623,0.5792027788,0.2275051019,-0.1868981565,-0.0847644301,-0.1605774714,-0.1979039635,0.2825281979,-0.026528118,0.8497019147,-1.0826589894,0.0069611758,0.4905508419,-0.7253860468,-0.2587101683,-0.6217329355,-0.622086202,-0.6476749611,0.3810018332,0.2459654656,-0.9296394838,-0.8031232467,-0.2596269143,0.007213412,0.1609635339,-0.578983754,-0.8616465554,0.0802508925,-0.5024943957,-0.093218403,-0.875593158,-0.6842542245,0.863731595,0.5848250313,0.9761366675,-0.7197730039,0.885692401,-0.171245024,0.2551320273,-2.3538832621,0.1513138272,-0.0675315322,-0.0122632057,0.2145169187,-0.0699412183,0.1289324868,0.9449667921,0.7682957188,-0.4960806403,0.8979809969,0.969226694,0.5350466164,-0.2632949637,0.6626690647,-0.8565148423,-0.7235783281,0.3703823718,0.0177756716,0.5381940384,-0.0867013466,0.5066433217,-0.1393040889,-0.541999268,-0.3921638964,-0.2924390441,-0.0224513368,-0.2432554504,0.0894517493,-0.3619939617,0.5264661308,-0.4256646137,-0.9359736165,-0.4703247032,0.5649542692,-0.7193824584,-0.3682367673,-0.0923335899,-0.3781293847,-0.232865169,0.1524170115,0.9725833498,-0.2713493633,-0.6447510913,-0.6750579492,0.6108966083,-0.7805034006,-0.0601932678,0.6054485111,-1.8141755066,-0.0996017449,-0.0171130839,-0.7485447225,0.6256074803,0.6237255604,-0.1053806402,0.5244859222,0.1033123381,0.2259877962,-0.0433233793,0.104696943,0.9083325679,-0.6822034633,-1.1144080024,0.204676285,0.4276569137,-0.0283703534,-0.674129894,-0.8175086578,-0.3820188924,-0.5253750041,-1.0672624291,0.2473035348,0.5029631827,0.1091560467,-0.0089668161,-1.089198397,-0.8288058969,-0.8817743151,-0.9885194976,-0.5650098101,-0.9724970322,-0.4775607675,-0.9569719157,-0.3606785419,-0.8996180163,-0.8318238725,0.0483042783,0.4208849748,-0.9155154273,0.6177468863,0.4879689928,-0.1157818188,0.2261333802,0.6963022022,-0.5443557596,-0.0777612661,-0.6988324475,-2.246745479,0.9151440422,-0.892310929,0.8781062956,-0.3276456484,0.088222225,-0.2162848874,-0.7735916244,-0.1466270939,-0.3576580606,0.777177111,0.1445543068,-0.8835769231,0.0347623513,-0.0974184195,0.0328603202,-0.2821106048,0.9495407863,0.6259701293,-0.8595812552,-0.8133095473,0.1858841667,-0.6917140419,0.6343879623,-0.4462147974,0.6270902322,-0.3226603163,-0.9088188607,-0.0959173963,-0.5325622106,0.7204497252,0.1771668329,-0.4757125782,0.0170991781,0.5197580248,-0.4406928732,0.8607099155,0.4496240244,0.4981567453,0.7385946988,-0.3578601569,-0.6692604636,-0.1591470068,0.1946586357,-0.5580198196,0.5059996304,0.1976219087,-0.6789691641,0.727822672,-2.2154333939,-0.670337719,-0.466629586,0.6471711055,0.4356560395,-0.6909009119,-0.3163156733,0.8216998564,0.4007513337,0.2209320272,0.357564213,0.032978109,-0.5170545177,-0.1107815032,-0.3532002084,-0.8752041051,-0.9845339282,0.2505323019,-0.6803327573,-0.5718690708,-0.7114405892,0.6902316977,-0.2153418549,0.5960536801,-0.4678593213,0.661937122,-0.4371564869,0.5676978585,0.5265018653,-0.526920598,-0.6665271526,0.2383941875,-0.0631924943,-0.0473728184,0.0356866445,0.6361185424,-0.503236608,0.4046750316,-0.9859708613,-0.5867910946,0.1655657859,0.9287614075,-0.0899856286,-0.4037391001,-0.5935521149,-0.0760441761,-0.0838525855,-0.4136766552,0.5122218977,-0.06544459,0.9220555746,0.2680927459,-0.5632611575,0.7796457888,-0.7168942073,0.0546168097,-0.9998085387,-0.4010449971,0.4142957209,0.1349283798,0.9965063626,0.1781142962,0.7741928669,-0.2932755822,-0.7988968862,0.138698624,-0.6312472272,-0.1861767033,0.571374215,-0.7265514053,0.4333208747,-0.5022322638,-0.5068827213,0.1074035771,0.659153842,-0.427368509,0.2344891445,0.7305167905,0.8455027497,-0.5449537309,0.5218148908,-0.3964077832,0.4609836509,-0.04234023,-0.2050145011,0.0671969475,-0.778898824,-0.490509115,-0.4462207421,0.1850278795,0.5018769597,-0.6114038483,0.5709108008,0.1981171872,-0.260983695,0.0016022036,-0.5305858993,-0.5278311361,-0.2946352707,0.9543970821,-0.0053458974,-0.8872432203,-0.109050032,-0.7296539521,-0.8934215977,-0.8745681614,-0.1955234311,-0.6799214542,-0.8851799774,-0.5548465244,0.8469290587,-0.8562055491,-0.2074689049,0.1264317335,-0.8887796283,0.7390216878,-0.1356171044,0.9997720608,-0.724089946,0.88093673,0.4596743936,-0.9932974273,0.2541318329,-0.3483138595,-0.9626142783,-0.2297969419,0.4528254814,-0.9739350538,0.0808004063,0.4900852033,0.5204503682,-0.4096892177,-0.3521233621,0.4592593659,-0.1331318104,-0.0181661205,0.781379702,-0.7102574312,-0.5408910184,-0.1829281195,0.7461468728,-0.6782955457,-0.4276101184,0.9103238653,0.0885765393,-0.0470089787,0.7311336519,-1.7083112935,0.3228103272,0.502675579,-0.255665348,-0.406946444,-0.8876538462,0.3548547566,-0.0065636008,-0.0420805814,-0.5183556113,-0.6524497237,0.1472804962,-0.5680374287,-0.2651240152,-0.9404584354,-0.596306387,0.9033470771,0.7352769353,-0.6504537404,0.3919599783,-0.6240816621,0.6545638037,-0.7930542358,-0.563769355,-0.8597171074,0.9769842465,-0.0590294876,-0.7134859114,0.9962029795,-0.2426855689,0.0389636166,-0.8768800141,0.2452117648,-0.5784940311,-1.0745967949,0.3001287023,0.2137403863,-0.1804799693,0.6667222894,-0.78128098,-0.6676257547,-0.2659462757,-0.0754873237,-0.2397580422,-0.8142464411,0.6964927595,0.6871125106,-0.0343938868,-0.6278645658,-2.0426236433,0.8059116317,0.2755697999,-0.9829463538,0.3585763868,0.0025396302,-0.5343775696,-0.7919819992,0.6515854359,-0.6043419301,-0.6055032037,0.8467409849,0.202878889,-0.0857726852,0.9544649451,0.7183320588,0.1220513063,0.8520469328,0.3321014783,-0.0116476839,-0.2973109931,-0.1591034952,0.0315267679,-0.4234228067,0.710088658,-0.2402500711,-0.7068274893,0.1649808552,0.3811153418,0.1384686282,-1.0477601159,0.2463161951,0.4124807934,0.1642138561,0.179815227,0.1637129645,0.674673111,-0.1902959704,-0.1755085238,0.4680372407,0.2309825696,-0.6097938344,0.1334233496,0.1832639151,0.8976852374,0.3411079449,-0.4622600523,-0.501703452,0.22934591,-0.6953873808,0.3439925745,-0.4650128236,0.8058518611,0.4855860916,-0.2366922949,0.4373979636,-0.9967609677,-0.9838677565,0.7386762955,0.7096022008,-0.6785867747,-0.133780977,-0.8149065329,-0.5449643546,-0.9132904859,-0.5745491737,0.6518457724,-0.4348798365,0.9692140475,-0.1016477642,-0.2696530714,0.2710717895,-0.6961721417,0.65027783,-0.6860320904,-0.5715677423,0.0608648903,-0.9582137961,0.9589766983,0.403834546,-0.7426087495,-0.8173594382,0.4112339926,-0.8241741175,0.8832937704,-0.7528296526,-0.5271413592,-0.2893931192,-0.3902216244,-0.1555066231,-1.081347927,0.1915306618,-0.7508029989,-0.3257242282,0.979590232,0.0556867232,0.2163585979,-0.0407718792,-3.1179796052,-0.9923249373,0.5242415913,0.654259946,0.9301795171,0.5719114017,-0.1471424015,-0.7215199022,0.2225081936,-0.9106769406,0.1879216437,-0.3531697947,0.085344495,0.795668889,-1.0871118734,-0.1821550143,-1.0194262449,0.3577312361,0.762258317,0.4520836108,-0.4588278951,0.6821800818,-0.392711914,0.0772490579,0.9516536597,-0.180565325,-0.2376621524,-0.2371625189,-0.5686163843,-0.9538443683,0.545227236,0.5895591981,0.0132191566,-0.4057815454,0.1693932864,0.5812080377,-0.8819014543,0.3813790467,-0.9150722806,-0.9226183253,0.0735302331,0.3423342169,-0.1436699941,-0.8251156691,-0.4348807462,0.6130655719,0.6864721868,-1.0512431789,0.5676845829,-0.6254858524,0.3402416989,-1.1257757119,-0.8919702908,0.9298753886,-0.0113106037,-0.5140047103,-0.702985911,-0.0017622273,-0.1744268787,-0.6877306858,-0.1083401866,0.9797419416,-0.7021300987,0.5291494336,-0.7588605952,-0.3860305336,-0.4466164646,-0.8595769116,-0.6904531099,-0.5048689509,0.2481305184,-0.2056368959,0.2020871388,-0.9376313078,0.5882114797,-0.0350700125,-0.453051291,0.4488749293,-0.7661965724,0.2957148302,0.0031425551,-0.9998239882,0.1247771876,-0.4693251247,-0.8804789476,-0.9988810407,0.5515123449,0.1610374604,-0.1960237494,0.0120262338,0.7179331067,-0.6422824079,0.2948204703,-0.9887324212,0.7736945435,-0.5771050642,-0.0033974595,-1.0810775344,-2.1117759177,-0.0382311149,0.0061441153,0.622104945,0.1512987732,-0.2945046419,-0.2094132672,-0.8932563797,0.2128069688,0.6675523039,0.6349967278,-0.1411711773,-0.1142667681,0.9008264618,-0.4821697751,-1.142717671,-1.1070611223,0.4437276592,0.5614499646,-0.7230212981,-0.094275162,-0.4166913549,0.4020002458,0.7460615229,0.160929101,-0.8471614157,-0.2817661176,0.0106775724,-0.9400222431,0.7385195598,-0.0266313653,-0.8493518274,-0.8488980863,-0.9064961515,-0.3008244742,0.0039757489,-0.8403960116,-0.4982220274,-0.0212417994,0.4820773753,-0.5187703229,-0.0488594598,-0.6754947161,0.1744982389,-0.4294851215,-0.979057246,0.1394213285,-0.8810270282,0.2999080041,-1.4753885587,0.4568453763,0.2316097131,0.3484504176,0.8571018763,-1.0486214459,0.0121173104,0.7819490251,0.7398020795,-0.592787905,0.3547630051,-0.5599232654,0.2543774878,0.2259593338,-0.283377705,0.3406906093,-0.6808144544,-0.246259642,0.0624096191,-0.0310287501,0.0005524197,0.0130276903,-0.3465331226,-0.7339288361,0.5551792517,0.9187394452,-0.0970630221,-0.2341241383,-0.63252181,0.3616943579,-1.0196039774,-0.6316498457,-0.2301230895,-0.0154287029,-1.2593251749,0.475028863,0.756996454,-0.3749674379,0.5252606924,-0.9809014366,0.2921191071,-0.6447971838,-0.7169022014,-0.0999202907,-0.0592794616,0.5993452954,0.3983367775,-0.0092315731,-0.2908837007,-4.0793161434,0.7315321565,0.8472783623,0.8374274015,-0.3786759515,0.4368575418,0.3010377206,-0.718256024,0.334531101,0.9616903688,-0.7725790683,0.7454147971,-0.4280026042,-0.0233776645,-0.974495451,-0.7373395495,0.7925168599,-0.1402093641,-0.4289117268,-0.3864193992,-0.1376304868,0.5941592964,0.5734791759,-0.9970200842,-0.5467537041,-0.3516821394,-0.8052048503,-0.6981626146,-0.9345348338,-0.5060165696,-0.6737688193,0.4117274669,-0.2273866239,-0.8225201784,0.4437495992,-0.9347975054,0.9676093853,0.4565591589,0.8429278763,0.1473022773,-0.8161184214,-0.795352669,0.8288997254,-0.8660896535,-0.5016998613,0.8591678608,0.8785062242,-0.2371969079,0.7009131694,-0.3696581122,-0.6823186279,0.2727425588,-0.8375617026,-0.2613407805,0.0869377404,-0.6055195734,0.4595952815,-0.0099036005,0.1902880189,0.5236887802,0.8151981156,0.8141734599,0.0838546024,0.0148161768,0.4353585398,0.5282180129,-0.9679344049,-0.6415266527,0.9664389762,0.1458785391,0.7761846003,0.6674385772,-0.9718525826,0.9031919759,0.1916105472,-1.0327528099,-0.9507665698,0.2992279728,-0.6477015739,0.2899683331,0.8634498307,0.753399436,-0.2396029568,0.8918648436,0.2151777633,-0.586467759,-0.8601135487,-0.6104185494,0.9735458939,0.1542071456,0.4296380109,-0.1033802076,-0.8668551591,-0.3945848045,-0.3312044601,0.7499302632,0.4713208443,0.4818358729,-1.8028454401,0.0724799803,-0.0733314075,-0.9556421587,0.0159797833,0.0111008152,-0.7891369596,-0.2498786286,0.7260936783,-0.7508155684,-0.7473723886,-0.7962627164,0.0099196938,-0.0204709319,-0.8312292491,0.5057550653,-0.743702596,0.6426834901,-0.5556357058,-0.2450036197,-0.7690342812,0.8295572483,-0.9247467698,-0.5389193887,0.1682322716,-0.5458045717,-0.0267633667,-0.2181134157,0.3892960745,0.8031986131,-0.1272245488,-0.0745513102,-0.8577633906,0.8175461647,-0.9267783812,0.1639609035,-0.8531845361,0.9522088322,0.6595253819,0.2477997813,-0.6596898924,-0.0793723771,-0.3719538833,-0.7924571927,0.889928961,-0.0702310228,-0.5694636661,-0.6952597259,-0.787965219,-1.7197730034,-0.1353793065,0.7001404062,-0.4291361071,0.4969296138,-0.8267205369,-0.093249258,-0.4985732426,0.3253277081,-0.7759378334,-0.2516331875,0.6547152045,0.7210280553,-0.2089792876,-0.173503634,0.0873876449,-0.1109008397,-0.4867328519,-0.0368009454,0.1979653722,-0.9773609151,0.6574823187,-0.1650875576,0.0505779905,-0.4004729189,0.1282709016,-0.4326162813,0.2925668912,-0.879205146,0.117544386,-0.0363847314,0.3936127178,-0.55556296,-0.0243694221,0.3765576034,0.3345474416,-0.7524765436,-0.4693093918,0.8831656216,0.726514525,0.3741129191,0.8980006528,0.7881071019,-0.3874947115,0.5025115122,-0.593522067,-0.5698349594,-0.2489639168,-0.1761169469,-3.0877650866,-0.3139978685,-0.2879685145,0.0110306968,-0.8103739681,-0.7696954049,0.0577427316,-0.8405570466,-0.3538031756,0.0251275384,0.0034562307,-1.5080505111,-0.5826553685,-0.3199313797,-0.260143858,-0.5256984419,-0.0849964886,-0.3419443381,-1.7531909908,-0.8382859861,-0.5428496577,0.8368545096,-0.2320969432,0.3025476051,0.8638484001,-0.4619353482,-0.1909644708,0.909889257,-0.2074503896,-0.3455835733,-0.4632156168,-0.2487690019,0.5764476361,-0.1370988222,-0.7096683619,0.6323128764,0.5378309578,-0.3555226827,-0.0082886436,-0.7963372744,0.6647443433,-1.2448156765,0.3928089798,0.6418025717,-0.3956808412,-1.2087728596,0.0765356609,-1.2285126157,-0.3616247792,1.1321026688,-0.6923233823,-0.6523515697,-0.9551559186,0.4641095763,-0.1831793074,-0.0332483475,-0.8972978721,-0.4555040954,0.4590338352,-0.6884326288,0.4167252541,0.1370341162,0.7711599352,0.4610662547,-0.5001841415,-0.0227614942,-0.5604542461,-0.1053906787,0.440114734,-0.9664504627,0.1363197681,-0.5689990579,0.2779294649,-0.0158336641,-0.5804661879,2.6997278933,2.0980461234,-1.165686818,0.1401295446,-0.0900285925,-0.8906615474,-1.401234812,-0.3558075426,-0.0887945041,0.4677373138,-0.5414782455,0.443451949,0.2886122797,-0.0241928686,-0.6773638741,-0.3803717759,-0.4754000594,-0.7308844044,0.2650935927,-0.8536209822,-0.6914830793,-0.8768586621,-0.1411893414,0.0457232179,0.5471175464,-0.6927947062,-0.3730606079,0.0014974678,-0.997872646,-0.91204009,0.8378593298,0.5293230923,-0.6412085553,0.2075983608,-1.0613460344,-0.0278940739,-0.6034575652,-0.3380746573,-1.1836480642,-0.7800955277,-0.5184102074,-0.7082947007,-0.9668044256,-0.2401053617,-0.0201525537,0.1263568651,1.7298349766,0.3864012108,0.2684652721,0.3983848604,-0.6207915069,-0.3283757401,-0.0383849036,-0.7946571597,-0.7581095207,0.0393656737,-0.7602036106,-0.9687125299,0.0456647337,0.290598398,-0.0503699317,-0.0316730186,-0.9578855916,-1.75757774,0.2370382178,-0.0268311483,-0.6695695688,-0.5499233593,-1.1425982895,-1.307520402,-0.076849376,-0.0509922769,0.5735474175,-0.3810082212,-1.0356773126,0.0413296718,0.0555518659,0.0532428597,-0.7910731258,-1.3449606379,-0.0364805412,0.3964587336,0.141317498,0.1804779319,0.2948256409,-0.284343776,0.5132032611,-0.1549454876,-0.5116558161,-0.917838535,-0.0417981328,-0.0189668234,-0.2824833199,-0.9282675007,-0.2582276747,0.6411866825,0.1500292594,-0.0352413622,-1.0772489529,2.393028465,1.8218065497,0.3573595614,-0.5575534459,-0.071751187,0.6363601282,-1.0654386604,-0.0700440003,-0.0703664768,0.6679974346,0.4377358516,0.3194440883,-0.5360767274,-0.115447462,-0.077736107,0.0216429196,-0.0570367875,-0.2385206903,0.3688932017,0.5561693671,0.1153997809,0.1364748,0.0830665688,0.3769352546,-1.4275881683,-0.1255079951,-0.0874925788,0.401021795,-0.0797814903,0.6659221015,-0.0052469265,0.5296454785,0.3167494979,0.5848796881,-0.789310828,-0.4836808119,0.9555648106,-0.3023659875,-0.3194593024,-0.7254541507,-0.5230636936,-0.8805529017,-0.6302194117,-0.6154851041,-0.4811357072,0.0355964065,0.0216788164,-0.4660454372,-0.7761549933,-0.770442173,0.372880513,-0.7675542371,-0.4093810185,-0.1342183289,-1.2110025184,0.9226968213,-1.3868363992,0.4698395958,-0.1442840922,-0.3333101772,-1.618251171,-0.0328689685,-0.1593870024,-0.3385629434,1.1443039984,-1.0427539746,-0.6097030809,-0.3518636404,-0.0681797326,-0.6123122651,-0.860594321,-0.0399335957,-0.5691285602,-1.958157953
   0.1390089133,0.1667034269,-0.3041850335,-0.7870381301,-1.061297811,0.0179749801,-0.939474794,0.4741977454,0.5092110462,-0.4201317971,-0.5504084014,0.0463568331,-0.5242461145,-0.9675116718,-1.1425838993,-0.0722408895,11.3937670245,6.8450183686,-0.5492173171,-0.5246532725,-0.6169649164,-1.1826131835,-0.2192497072,-0.0313727158,-0.8702878552,0.6986323538,-0.3207427632,-0.1085931995,-0.2958145826,-0.2558004902,-0.3834620107,-0.0284698242,-0.5944474152,-0.8952662148,0.192162857,-0.2842817111,-0.395155559,-0.412432138,0.863912135,0.3567923535,0.6202917468,-1.265713937,-0.0146371568,10.3799752021,8.343923167,-0.4651220389,-0.4930659389,-0.4483406799,-0.9226168893,-0.0897736249,-0.0135821448,-0.1940353173,-0.3383919703,0.9243640077,0.2388128768,-0.1279685929,-1.043894967,0.0641264749,-1.5926013146,-0.7273462617,-0.1819525587,-0.9992640887,0.3005425842,0.4598477116,0.7238728453,-0.7645247703,0.8620299617,-0.7166320305,0.0262650946,-0.9729541746,-0.7648152658,-0.65101866,-0.7169977384,0.9266118974,-0.9362742852,0.6505102646,-0.5155325541,-0.4585552616,-0.0163243417,0.0233288441,-0.5532389684,-0.1568841246,0.9844600614,-0.3101457386,0.3548690477,0.8374795396,-0.6094626261,-0.0216905004,0.2943274565,-0.0451413817,-0.6193274397,0.0530191449,0.4817018998,-0.4236375188,-0.7772549026,-0.2555892308,-0.4464260949,-0.7932565926,-0.8698823032,0.0989964577,0.6621340346,0.0225704533,0.8039368615,-0.8417330573,-0.108405456,-0.1118349037,-0.6004594389,-0.3551224092,-0.4575516416,0.190998313,0.8950341649,-0.3539886627,-0.126544549,0.0261262469,-0.8717890584,0.7714813574,-0.068362363,0.0778468558,-0.3266271096,-0.6146392732,0.3010686155,-1.5013237571,-0.2367507577,-0.6926175858,0.1628233312,-0.0251139472,-0.7294534006,-0.2424879014,0.5437494418,0.4638738381,0.0215827263,-0.181844191,-0.076312852,-1.083643763,1.3986379396,-1.085938522,-0.6158762416,0.3606246857,0.7816768812,-0.6618376784,-0.1447108093,-0.9886455246,0.2009414116,0.6345309901,0.246688611,0.2696897059,-0.0064607135,-0.2695611533,-0.569226117,-0.0248394866,-0.3011914526,-0.4608028762,-0.3474220509,-0.6568835118,0.0839338093,0.390930138,-0.00676516,0.7205320464,-0.5007503174,-0.0064070238,-0.1302511414,0.6862502384,-0.1290122702,0.7784089997,0.1464725345,-0.0135501231,-0.6219105135,-0.0405278601,-0.4413597967,0.7950496435,2.1691421866,-1.0154863376,0.4363644353,-0.10737313,0.9101602867,0.5298417024,-0.3108344633,-0.0969488809,-0.8774436067,-0.3754865356,-0.656373776,0.1772209404,0.1484667398,-0.6106158889,0.4419756018
##end
biasActivation=0,1,1,1,1
[BASIC:ACTIVATION]
"org.encog.engine.network.activation.ActivationLinear"
"org.encog.engine.network.activation.ActivationReLU",0,0
"org.encog.engine.network.activation.ActivationReLU",0,0
"org.encog.engine.network.activation.ActivationReLU",0,0
"org.encog.engine.network.activation.ActivationLinear"
