encog,BasicNetwork,java,3.4.0,1,1524797567315
[BASIC]
[BASIC:PARAMS]
[BASIC:NETWORK]
beginTraining=0
connectionLimit=0
contextTargetOffset=0,0,0,0,0
contextTargetSize=0,0,0,0,0
endTraining=4
hasContext=f
inputCount=8
layerCounts=1,25,25,49,9
layerFeedCounts=1,24,24,48,8
layerContextCount=0,0,0,0,0
layerIndex=0,1,26,51,100
output=4.2128469072,0,0,0,0,0,0,0,0,0,0,0,0,3.1191219208,0,0,0,0,0,0,7.961653439,0,0,0,0,1,0,0,0,0,0,0,0,0,0,0,0,0,0,0,0,0,0,0,0,0,0,0,0,0,1,0,0,2256993.201022455,0,0,0,0,0,0,0,0,0,0,0,20.679944858,0,0,0,0,12229.605838733,0,0,0,1576948.8356049706,12929.8626263675,0,0,0,108.9512643673,12752.909241498,0,0,13374.2300144556,0,0,1794.629864742,0,0,0,0,3880.2608343094,12828.375619545,1577349.3398335667,0,0,126.0002832523,0,0,1,736.3847608912,433.366823749,3.055581505,-1.6156185176,0,0,0,1,1
outputCount=1
weightIndex=0,25,625,1801,2233
weights=##0
##double#2233
   -0.0951432027,-0.0891778198,-0.0623058689,-0.0215157958,-0.0712718214,-0.0715452606,-0.090550712,-0.0604922278,0.0241383841,-0.0288736888,-0.044857176,-0.0527713741,2.6299710752,-0.0064028242,-0.0865607236,-0.0088579048,-0.0191964082,-0.0153491639,-0.0224486231,2.7921334362,-0.0525901163,-0.0238926435,-0.0127406683,-0.0366170463,-26.2203522991,0.5109111074,-1337.0271794486,-1335.9837872982,-0.0210644884,-0.5431830046,-1337.5223161608,-0.0177171107,-1231.5353277249,-1347.4289262214,3.5766323413,-1344.66819359,-1.9043825876,-0.4387759165,-0.6160288476,-1340.2603378986,-1337.7016864279,-0.380522682,-1345.2894607531,-1344.8474841671,3.0775552692,0.1482269663,-1336.45732738,0.4637759086,-1345.2296491164,-124.9833669842,-0.3748638297,-1335.6989168763,-1335.6690674362,-2.6224501783,0.9155350453,-1337.3528700938,-0.0807849538,-1230.5520748915,-1343.9797574196,2.9555291608,-1342.7023329875,-0.7941878223,-0.179666938,0.2546438159,-1336.6268121538,-1336.0130133259,-0.0781442377,-1343.0384306655,-1342.3227713742,3.2600784194,1.6042033721,-1335.4160802361,-0.0295847536,-1343.8262644515,-121.8120106791,-0.5285587789,-1336.6569160479,-1336.3447356737,-0.9476456423,0.278962523,-1337.7929650141,-0.327106862,-1232.7796727464,-1344.3132166206,4.8885347088,-1342.1914469647,1.148270231,0.8560626486,0.3196154108,-1337.2599735396,-1336.3698380491,1.1555765723,-1341.9033082866,-1341.0633437855,2.0789679359,1.3399781102,-1335.9346377669,1.7314595927,-1342.923303876,-121.7693251077,-0.425934997,-1334.3864274234,-1335.514992193,-0.46590251,0.6945363471,-1334.6103964767,0.0278891561,-1231.741971871,-1342.8942622792,4.6514769914,-1342.7021406536,-0.1809168279,-0.8375424911,0.9038929636,-1337.1315528536,-1334.9146065293,-1.5983816552,-1341.5741196615,-1342.0349760429,2.6127822432,2.1899292752,-1335.4291903064,-0.2854134142,-1342.6077288827,-121.5807480313,-0.2386638605,-1334.8125409042,-1334.7501045875,-4.0942904576,-0.2253061984,-1334.7376690738,-0.8966958611,-1231.6660244418,-1342.2690646277,5.9366102454,-1343.6187165654,-0.8340115719,-0.816438867,-0.2555252241,-1334.7006911379,-1334.7404483331,0.0301170544,-1342.5358850437,-1342.5832246083,4.1357704368,3.3452846083,-1334.5167431984,-0.5320910315,-1342.0564302072,-121.4710808726,-0.2267826319,-1333.7226462226,-1332.619660007,-4.9544505667,0.3884369384,-1332.2182034815,-0.2646885774,-1230.6895505002,-1343.7635593074,6.5947537541,-1343.4155244303,-2.4176268454,0.1598544159,0.5095583772,-1332.9592028965,-1333.3179032582,-0.1187929463,-1342.5015159118,-1341.3795187513,4.3465885028,0.4055679044,-1331.7949476501,-0.9221681959,-1342.658933456,-121.7401529533,1.1270909893,-993.7443842761,-992.4631619671,-271.2481641601,0.1814082127,-991.8434884526,0.6587980526,-888.0725224479,-1277.6291440029,3.1903991077,-1273.3851028626,-275.5101806345,-0.3047636647,0.2847653942,-994.8325379972,-993.7286152777,-1.9024783071,-1274.088864709,-1273.7792555087,3.218467518,3.5499754993,-993.4049809087,-273.5607484301,-1274.6322652419,-54.3776123048,-0.4286753223,-1332.7411468396,-1334.3195153462,-0.0436253176,1.5488182775,-1331.1705617459,0.5271396376,-1230.9399995544,-1344.5368082199,5.5146321639,-1342.1649304162,-1.8780333512,1.0044392702,0.0373255148,-1335.6827204076,-1333.9087753363,-2.8813762793,-1342.5884655432,-1341.0038900922,1.6786684176,0.3578668712,-1332.8239850667,-2.2477129521,-1343.5337982263,-120.6547270385,-0.3336796921,-959.9352870692,-960.4840709207,-4.7724669728,-0.2157784814,-959.1310276528,-0.6900521523,-505.9194465491,-955.8890906822,7.5460169273,-959.9512871934,-2.3013019421,0.8672237115,0.5991088444,-958.4244679548,-960.2615294863,0.8485987608,-957.9232312514,-958.2981092986,3.6708485397,0.6498512276,-960.1775656218,-2.5930956046,-956.5962481622,-281.574648949,0.1531543343,-1333.3513473432,-1334.9710462403,-3.5859378906,0.2899350235,-1334.2265824557,0.8263577833,-1231.0872756153,-1343.2737461438,6.2677791072,-1343.8679975792,-1.4025827854,-0.7314227662,-0.4783483466,-1334.5105269135,-1335.9762581055,-0.3534638973,-1341.9848076616,-1342.3378299605,3.4989651537,2.6331926658,-1334.5571910784,-0.8448291428,-1342.8617466494,-122.7472419354,0.580332226,-1334.0619734614,-1335.8076585514,-3.5412001275,-0.3198033191,-1335.1093030882,0.6456395456,-1231.1457691685,-1343.1374237125,4.2933229877,-1343.8009123306,-1.4474611231,-0.1853164219,0.1830578036,-1333.9573728968,-1336.9876969447,0.9696238733,-1342.1904346014,-1342.2834308352,2.8240031783,1.636659039,-1334.3258679088,0.6272492936,-1342.904048592,-121.9901120774,0.3606131174,-1337.6145610194,-1336.8937173117,1.4083933886,0.6294621083,-1335.7398157596,-0.1099115779,-1230.7450934258,-1348.5915928335,3.5493853759,-1344.8090341731,-1.3967095193,-0.8246888336,0.7076880407,-1340.0190585162,-1336.6201341515,-0.7252750292,-1344.2278726341,-1342.6549853354,1.5573406848,1.4817433446,-1337.2831104289,0.4501446547,-1345.1632005638,-125.9444626954,1.0369793239,-1169.0934601244,-1168.0244978382,-40.4547276088,0.5586237738,-1168.0508818588,-0.1259487526,-1063.0211487872,-1217.989194003,3.5706600708,-1216.5386741128,-0.2039976888,-0.3594854134,-0.1427318513,-1172.1237706643,-1169.1462799872,-1.8961483666,-1215.0909887966,-1214.1729115681,4.2442907968,2.8720875542,-1167.2568250546,1.1842554929,-1216.65220573,3.1191219208,0.7656037407,-1292.3827623587,-1294.2331013792,-55.1280282518,-0.0650286159,-1292.6606155798,1.0217541064,-1232.1722675604,-1353.7832508947,9.018967104,-1354.2878459206,-50.7260984474,0.5852600218,0.0871394959,-1292.6614207052,-1294.130433598,-0.0510064763,-1353.4297576443,-1352.4100614241,4.1853168337,-1.2434990146,-1292.4428854352,-49.2827134025,-1351.9377608995,-132.9334767501,-0.7822463476,-1335.3262548743,-1335.1404605619,-4.7105122604,-0.1058781981,-1333.5752523329,-0.3170226237,-1231.8437365586,-1344.7042308116,6.1055192629,-1342.7431126415,-0.9869434177,0.1619352414,-0.2446871144,-1333.7302526733,-1336.2860374974,1.4096544986,-1343.1688312881,-1342.1280377821,2.4625606582,0.1421803956,-1334.7257308196,-0.8895310343,-1343.6629461222,-122.3699567725,0.3222987097,-1592.6608776382,-1593.1761102179,0.7853427273,1.2986829503,-1592.1327186836,0.8361277155,-1486.4908073049,-1603.8763418862,2.7807711054,-1600.4240737149,-2.072606945,0.9099305391,-1.3222075224,-1595.1529855966,-1592.7948306157,-1.9898640494,-1599.409421505,-1600.1187451698,3.6670644628,-0.0693788217,-1592.7162732099,0.3505268973,-1601.7000523547,-381.242605115,-0.5828796243,-1333.0363746921,-1333.1197960016,2.0712363266,-1.0323978219,-1334.5821987662,0.7652260307,-1233.0123976042,-1339.3590577638,7.6604618394,-1343.1741400946,-0.5940446028,0.0782898206,1.3407019439,-1336.5002671346,-1333.3583920873,-2.9132042645,-1342.0207942554,-1340.8583348059,0.0206491803,3.3207446216,-1334.080899537,-2.071777832,-1342.0519987194,-121.2659055295,0.9654099384,-1264.6933666355,-1263.2313456455,-95.0765408998,-0.0129072102,-1263.8423567883,-0.80685102,-1232.2890885142,-1351.3596258028,6.5565271269,-1349.7654133505,-78.3675608478,-0.6238948061,0.5167544397,-1278.3292095142,-1264.4389588883,-14.9749980264,-1351.0377637681,-1351.3670458749,18.0412711711,23.1090219808,-1263.4150991537,-77.412755876,-1351.0051784644,-130.8072843805,-0.5233002415,-1336.5063673505,-1337.0178829141,-2.983946507,-0.1369096316,-1337.7122920203,0.2223487473,-1231.6026540577,-1343.8054843623,3.6371614625,-1345.8190305962,-1.7689582826,-0.376488941,-0.1634727461,-1336.0874972841,-1336.9960624825,1.270347749,-1343.6242844285,-1345.17456131,2.5151452647,1.8234310247,-1336.5854974975,-0.1095781092,-1344.745896168,-124.5686444371,0.8058904778,-1167.7045946195,-1168.7912189342,-40.6050432023,0.5831737357,-1168.9976241491,0.3699360056,-1063.2234677757,-1217.8888997197,3.8302887078,-1216.2979810152,1.1989856696,0.9997545352,-1.2518719868,-1171.4530635074,-1168.0857029664,-1.9758664559,-1214.8592632265,-1214.5189914342,2.683339954,3.6519892487,-1167.2167152929,2.2578550451,-1216.9466431568,7.961653439,0.6974530416,-1333.6450054138,-1334.0654803378,-4.0134486792,-0.2034004771,-1336.0929013644,-0.1425830055,-1232.0394928266,-1341.8753875475,6.2138636052,-1343.0025965201,-0.6542550195,0.4458394577,0.235447667,-1334.6440765017,-1334.7836814918,0.7898522327,-1342.5949859573,-1342.8840306022,3.0544372361,2.6779294976,-1334.5878087605,-1.8092083228,-1342.759998949,-121.4605222811,0.5155147835,-1336.0939974485,-1335.9227516709,1.9857704137,0.3462759696,-1336.864751131,0.5047570916,-1230.3762504683,-1344.9251457891,2.3384134879,-1344.502556339,-1.2277449872,-1.261352065,-1.6253340932,-1340.0468243285,-1337.5366677878,-2.8287712604,-1343.3174319357,-1343.1650027221,2.5183353556,4.1853057071,-1338.8962384506,0.5906615208,-1343.8726896246,-122.2766029212,0.1370952206,-1334.5553949347,-1335.8158249194,-1.5163864562,0.1124180366,-1334.735733899,0.0489827709,-1230.8075868143,-1343.2982712507,5.0125678907,-1344.4279270421,-0.2979467952,0.7614584244,-0.1852568696,-1332.5004396105,-1335.0737610159,1.5947931399,-1343.1737530403,-1342.6108637649,3.1176131444,2.1217165599,-1334.2668085582,1.4744006787,-1340.5834932701,-123.297127552,0.2285787574,-1336.192799504,-1337.0790456156,-2.0384790549,0.6579471663,-1337.3240957754,-0.5071996346,-1230.8894949853,-1344.7557716431,2.9181753882,-1342.7262223203,-1.2048906887,-0.5733051567,-1.129454149,-1336.796783603,-1335.8997555157,-0.1598977898,-1343.0473222588,-1342.2947611421,2.0946290837,1.9679549949,-1336.1625294864,1.5265228102,-1344.0344733579,-123.5470627609,0.4511443482,0.8476551509,-0.4193803303,0.2999752591,-0.9022510918,0.723338716,-0.896243062,-0.3325695308,-0.9656551253,0.497176177,0.5206518798,0.2874009794,-0.4536392928,0.9431097556,0.8878110536,-0.4467989374,0.9538335931,0.3030827275,0.0035022357,-0.9843880293,-0.050211379,-0.3640988353,-0.5242606275,-0.0755532984,-0.9182600998,0.1054284998,-0.3646289553,-0.3825883378,0.0702915683,-0.2185857152,-0.3634685196,0.5830478897,0.162166007,0.8696382754,0.3255373908,0.5068863656,-0.034793983,0.3418724092,-0.8758902298,0.3097412511,-0.7163006066,-0.0766558515,-0.5585051738,-0.9486391359,-0.5631886084,0.7163890368,-0.8696817256,-0.6143208032,-1.2520679909,-0.2799475566,-0.2397786259,-1919.6797771322,0.040954949,0.1773361859,0.529612467,0.6291883306,0.8794529736,-0.3547649747,0.0531437504,0.7222459388,0.5981806599,-0.1821292582,-0.123954719,-0.615056964,-0.0795274736,-0.1485478198,0.3047930061,-0.1998272497,-10.6502871131,-0.0530888605,0.3724341048,-0.1718322001,1336.5404774143,-10.6544690226,0.1140963792,-0.7679718853,-0.916514963,-0.4277999694,-11.8619393091,0.2365776355,0.0709685846,-11.7001922863,-0.8626619496,0.2732058677,-2.1176656002,-0.9603491636,0.9601693612,-0.804183034,-0.239183218,-5.4105194764,-11.3587935863,1337.0873969582,0.5010357892,-0.8704210895,-0.6390054663,-0.4299841062,0.1706453712,1335.0545692255,-0.1585438598,0.8176854833,-1919.6407071462,-0.1076733884,-0.1759467675,-0.6638588261,-0.9547664324,0.8249587838,0.046102537,0.558238983,-0.3399800122,-0.0999063717,0.6573177598,-0.9497329738,0.8495451247,0.8546443637,-0.3771999792,0.1836996416,0.0361716365,-11.332670162,0.309914361,0.1275171081,0.2334049583,1336.046739051,-11.2812557673,-0.6899301502,-0.4521589195,-0.3671782363,0.1669963242,-11.5103993429,0.1852675742,0.0085406314,-11.4027850352,-0.354649009,-0.4952430972,-2.2749818111,-0.2029036811,-0.8314726838,0.3401318806,0.5925447094,-5.4746253717,-10.3470164166,1337.5140146594,0.3458154614,0.3776603958,0.6907999735,0.5395422122,-0.0163931693,1335.9297190203,0.5300683732,0.7622370171,-0.7848820307,0.6869110532,-0.1807881021,-1.6632480858,0.4086447316,-0.4408758729,-0.819877822,0.5843275375,0.7466515594,-0.456167208,0.6806623584,0.6307142654,0.8184954362,-0.5646438099,0.33271771,0.2696573395,-0.2121806178,-0.7714386601,-0.6848610333,0.4714094112,0.8841181542,-0.0183488976,0.0650975229,0.8573671352,0.8625580997,0.4334084213,0.8782830744,-0.3943775852,-0.6244252881,0.3712410257,0.0700022212,-0.6748970565,0.8436204196,-1.1028887525,0.7160140905,-0.619187902,0.2500477641,0.3216696404,2.2281770942,0.0195185421,-0.8948712584,-0.8342266694,-2.5278842716,-0.3552943317,-2.2540710968,-1.1182602936,-1.3362157032,-0.1207823698,0.4466197868,0.0878290916,-1.0797217798,-0.447223034,-0.1212149238,0.472982485,-0.4572340156,0.2547026365,-0.4171148839,0.4573195575,0.2341216651,-0.9167641334,-0.1561012483,0.9916837678,0.1230594427,-0.5125898763,0.541718135,0.2713504311,-0.218617961,-0.9245114776,-0.695307951,0.67383546,-0.7484368474,0.2807844847,-0.7109417075,0.0222983129,-0.8568119791,-0.6457751053,-0.3406204711,-0.254972472,-0.0764965484,0.5208241131,-0.7369873412,0.6842935865,-0.9473299591,-0.3138555724,-0.1571774458,-0.8467920605,0.1919499834,-0.1389362619,-0.0466189937,0.4526433143,0.8187668622,-0.6845373569,-0.4355038697,-0.5342269507,-0.7760325356,-0.2151324979,-0.3226386921,-0.4606520139,-1919.9636937436,-0.7381279255,-0.7681839268,-0.9421633855,0.5406951462,0.2252016404,-0.7027583574,0.2545695735,0.3813706698,-0.2054299641,0.4365150451,-0.8334541817,0.5347441638,-0.8752744271,0.0405587284,0.4610262108,-0.8292843486,-9.5145933129,0.1077860719,0.6943729612,-0.4437242152,1337.3533564586,-11.0456452529,-0.1819690793,-0.0166239602,-0.1820861934,-0.4490585719,-11.384150413,-0.6487641746,-0.6753829345,-10.5358291358,0.5807843532,0.1012953576,-2.6629725707,-0.4303250894,-0.6338917218,0.1996475147,0.032725928,-6.0882746143,-10.240535252,1336.6674823743,0.8352155761,-0.7297014356,0.0441518618,0.0322024819,-0.3253123412,1338.2492944998,0.8017064622,-0.7766455541,0.8087853185,-0.4640463767,-0.5545657087,-0.6274171404,-0.0184368469,-0.8676685882,-0.408986808,0.4178059848,0.5587398903,0.3981022052,0.0127838875,-0.9518224025,-0.3988973391,-0.8924392382,-0.1442365502,-0.4121467383,-0.8828568127,0.6508311516,0.7255571631,-0.4372222283,-0.2978272357,-0.8618832367,0.8610757834,0.6842743107,-0.5987426807,-0.5974602557,-0.5663089404,-0.2495039545,0.5078357193,0.5712320235,0.7342216302,-0.8914624051,-0.4873494109,-0.6203434365,0.9408682051,-0.097389911,0.1841158141,-0.9016347792,-0.6414326121,0.7266201378,-0.8656244612,0.3936678273,-0.5655599047,0.6215436562,0.514878669,-0.966005661,-0.6690907186,0.4524045968,-0.9996883093,-1909.2349921701,0.6230197279,-0.0489085138,-0.5306016517,-0.6533530751,-0.1541085046,0.2708057167,0.5878576751,0.7565135915,-0.0279462091,-0.2473319614,-1.0505684862,-0.8132440494,-0.6518179245,0.3612111514,-0.4635074358,0.1886151316,0.8102956113,-0.8432300635,129.0592399342,-0.8172615168,1299.2917117849,0.1233193061,-0.2962967026,0.7576583931,-0.7270794173,-0.9668614282,-0.1458926902,-0.6718632591,0.0371846014,-0.1839773914,0.1651679245,0.9440683295,0.501743357,-0.6179364082,-0.9281896627,0.1345364716,0.4007982506,-0.247654197,-0.2217125243,1299.1951173727,0.1974389425,-0.0476625078,-0.5836469554,-0.957864677,0.2364873674,1298.7261621352,0.1025664432,-0.5915725207,-1913.0367932212,-0.345384307,-0.6173257609,-0.7211275932,0.4325312672,-0.5108309486,0.8043639979,-0.4759060172,-0.2031565611,0.2625834027,0.5971640182,0.3535071547,0.3837739418,0.1273086595,-0.8118960101,0.5571505246,-0.2878000676,-3.8740698689,0.2488714892,-11.639785208,-1.0452088612,1332.229363647,-3.7536086474,-1.6256921309,0.9452130687,-0.648313522,-0.7426771759,-3.9079883177,-0.7942218665,0.3299904016,-3.6361531639,-0.2796196407,-0.7650450426,-3.3392147836,0.4177851973,0.625331651,-0.6889572468,0.9555227408,-2.2900447687,-3.6371078242,1332.0971810173,0.2860622221,-0.7329276665,0.0657420119,0.3079268941,0.6171539043,1329.4331907384,-0.2974675907,0.4711030608,-0.7191068469,0.2232975881,-0.3055598483,0.9867099749,0.5346970559,-0.7548329036,-0.6052985417,-0.3978930867,0.2015409213,-0.9215435037,-0.6068545812,-1.2411508165,-0.8531920329,-0.6818724033,0.1937517787,0.6264305341,0.9538290822,-0.2777336051,-0.4248131109,0.527589001,-0.468138695,0.2394034599,0.0697653268,0.3200278309,0.2802907003,-0.5760618215,-0.4408995779,-1.3001774224,-0.349632082,-0.4552192554,0.8509000682,-0.0519976538,-0.7260069882,0.0911359371,0.5796356125,-0.2600779291,-0.0888944901,0.0949272578,-0.690128252,-0.4273409997,-1.0180087416,0.7844898915,-0.7285116738,0.7838323678,-0.1079637911,-0.5144327922,-1.4260374775,0.2889418108,0.15047949,-1914.2054685507,-0.5829989061,0.6386786286,-0.3045511738,-0.7658664449,-0.8823140785,-0.5075534159,-0.306224857,-0.8773071374,0.5187699765,-0.3368084701,0.2338762143,-0.8960907941,-0.9366578292,-0.6660317857,0.6299185587,0.1045881712,-5.1446515871,0.5230192518,-9.8104594288,0.6847976357,1333.6000099023,-6.1541674137,0.3401681729,-0.5115934748,0.9894212129,-0.0967167605,-3.7541392707,-0.6483387873,0.9519286636,-5.1209257061,-0.3593461009,0.8127281344,-1.8948328268,0.7463043999,0.579428909,0.3880010245,-0.2140602534,-2.4067957077,-5.4381403388,1332.1217010758,0.049291877,-1.2407148116,0.6653727256,1.0354881086,0.8893111452,1331.0695077622,-0.2803016434,-0.387755928,0.4631484841,-0.8258311964,0.9628198692,-0.0988118357,-0.9527513581,0.1300780095,0.7378920317,-0.2498957181,0.3002658242,-0.4390110078,0.4945354823,-0.7342470106,-0.6383411448,-0.189933692,-0.353567665,0.5090071864,0.3276595287,-0.3190124165,-0.2964949526,-0.3336496132,0.7151568323,0.147684719,0.2442881338,0.8873893398,-0.7817412863,1.0740995917,-0.6768445427,-0.7891146636,-0.4881420743,0.3886992805,0.2617271853,-0.5783351962,0.5402600653,0.6177569275,0.4257544881,0.4159358778,0.4444044832,-0.4406022461,2.0762012947,-0.3072602105,-0.9130487996,0.8064864218,-1.8726420965,0.7553030431,0.2329825439,0.1371301265,-2.5830378245,0.2888051369,0.1028489284,0.6590366639,0.7350003377,-0.420138123,0.2867767425,-0.058495713,-0.518043563,0.8379347913,0.8623478348,-0.4971684551,-0.0425807086,-0.1006532483,-0.9559258536,-0.8546109692,-0.5181850409,-0.8531542388,-0.9602284635,0.9680439464,-0.6459753181,0.3349392274,-0.0218239121,-0.8746337351,-0.2773059632,-0.4122182352,-0.7458539774,0.341015804,0.0803573055,0.8224101568,-0.6279273889,-0.5358901166,0.049266643,0.3876122707,-0.1172670782,-0.3690158758,-0.8310701263,-0.656743447,-0.5106511135,-0.1327297996,0.9730086292,-0.1220212069,-0.6579294873,-0.842295102,0.2592644404,1.0164996892,-0.0967705333,0.0440923016,0.2193456937,-1.0066494399,0.2274754014,0.9605436586,-0.257581212,-1.0816272425,-0.3776825976,0.4224083943,0.4489931058,-0.790883145,-0.2678688224,0.620840144,-0.4440891227,-1.0780710726,-1.0013893604,0.1893456053,-0.2942063146,-0.6331400452,0.0014803306,0.1226036311,0.7847897177,0.0802680352,-0.0996557503,-0.0247895418,0.6650265309,0.3751267881,-1.0974654966,0.0526074164,0.8050457664,-0.1854047612,-1.3327990612,-0.8791630167,0.2826641725,-0.8400007911,0.6115968168,0.1322218933,-0.9417071177,-0.1384009449,0.5675866511,-0.0024370362,-0.5156564164,0.2627428196,-0.3856657362,0.2684178588,-0.8274910767,-0.5137361838,-0.0073349009,-0.3139057314,-0.5039485181,0.1972549449,-1.0252104997,0.6991069974,0.2528133222,-1919.986117455,0.4768525255,0.1143881862,-1.783725614,0.2477308695,-0.8398819535,-0.3702499791,0.3019381212,-0.4765437987,-0.5973715552,0.3642103836,-0.2885955926,-0.2625752776,0.5906970666,0.7632842714,-0.0566543784,-0.9307493718,-10.1151343742,0.2195971463,0.3590826917,-0.212496257,1337.267991359,-11.4200983404,-8.1299528884,0.4361438225,-0.8146456642,0.2227491335,-11.5658417167,-0.3872164879,-0.7655971943,-9.8810900581,-0.3998176414,-0.5853447417,-3.5104794534,-0.9233330677,0.5266131541,-0.9535252197,-0.2597595861,-5.0564537356,-11.0764978181,1337.2280164548,0.096743813,-2.5000771386,-0.2554134335,-0.6505073534,0.6503272269,1335.9084813349,-0.618828049,-0.4866368933,-1919.7519828128,-0.1823640943,0.5983700555,0.1724635206,-1.0159267454,-0.6717947702,0.0789424676,-0.3697711588,-0.0203379262,-0.0953767797,-0.7743708864,-0.3622844091,-0.8806565787,0.1842933594,-0.2020561937,0.8355231858,0.7588135812,-11.3256250253,0.3503109068,0.6694998594,0.5501614968,1336.4305001666,-9.9331712862,0.2305062876,-0.3662104478,-0.73558468,0.8834916468,-10.3807449758,0.1173279477,0.962573577,-10.0575912795,-0.3521737471,-0.7647836086,-1.7072815837,-0.0421755999,-0.7967016529,0.0970469514,-0.7801365008,-4.9619624248,-9.599512587,1337.5370187976,0.7783626632,-0.263749814,0.895457842,-0.8763626384,-0.7712962838,1335.9868805485,0.3204478638,-0.7142940048,-0.5368981962,-1.2670328025,-0.3913301484,-0.8570794138,0.4822462418,0.6608739336,0.9011788377,-1.011801988,0.361342498,0.8775481549,-0.4787457646,0.4150433741,-0.594347129,-0.2136659217,0.7783392045,-0.0138772549,-0.8902489051,0.5708329421,-0.8430936173,-0.0173473039,-0.2665820802,-0.1807870448,-0.7481297149,-8.8866725616,-0.6459452141,-0.0111340673,0.7937162265,-1.1898520272,0.3602173626,0.6795484263,0.8311755762,-0.8803467294,-0.4772824894,-0.9924406634,-0.3396642301,0.5543764284,0.0596926207,-0.2188823261,0.2609065876,-0.2287153308,0.0830242897,-0.1342099421,-1.0543276708,0.3651237026,-0.6039587751,0.2310110462,-1.1453644697,-0.1941377144,-0.8616668538,-1914.1205607703,0.4540806551,0.7263132649,-1.2760822006,-0.1223522743,0.3158056518,-0.812372149,0.3621209751,-0.9101786728,0.4564716099,-1.1103220152,0.552485974,-0.1986532573,-0.509731307,0.6777302477,-0.3312572223,0.2737750137,-4.1047941358,-0.2206077833,-10.245501598,-0.6092579165,1333.6581466661,-4.6783935018,-0.2212477543,0.0061826779,0.1625534513,0.5221980679,-3.938414432,-0.4886791031,-0.4874395765,-5.2561839464,0.3452945415,-0.5812189191,-2.7549829561,-0.0740670341,-0.8654060113,0.157941824,0.7145712076,-1.7801336271,-4.9952432496,1331.8909566994,0.4641059124,-2.7449050932,-0.4313968066,-0.3969020817,0.7341534982,1331.6981468602,0.2594665793,-0.7689858198,-1913.0595362452,-1.0070267704,0.7353190486,-1.3422071184,-0.5848600177,-0.7915078829,0.769321822,0.1483028039,-0.3061753078,0.7276500269,0.0626187382,-1.0287834485,-0.3673458611,0.2287625049,-0.750914865,-1.0362064298,0.7985332457,-4.7435382554,-0.8428738123,-10.9944411485,-0.6949103948,1333.0465387419,-4.5629166214,-0.4490622146,-0.6927134978,-0.6073772204,-0.2999534458,-3.9412415315,0.9646774501,-0.3690298046,-5.727278101,-0.6608925656,0.0081962419,-2.4532524842,-0.3768227283,-0.2033567979,-0.500552452,0.944831006,-2.2113532815,-6.0743221812,1331.424236957,-0.4493689124,-2.1394133809,0.6210400431,0.7517424584,-0.6750977925,1330.8596585998,-0.3084591817,-0.8142598251,-0.2925859318,-0.9615650256,0.6284854557,-0.4115161523,0.7915350631,0.0450015428,-0.4663238987,-0.9415038018,-0.1847429403,-0.8626622358,-0.3019124833,-0.1134711101,-0.2684399755,0.0119346586,-0.1536950113,0.0626821691,-0.0928267644,-0.2376639972,0.3352088616,-0.7269254051,-0.2507000029,-1.4166258782,0.6690242485,0.5351094219,-0.5196545457,-0.3188930603,0.3735385346,0.6831916747,-0.2055782008,0.3342857366,0.6542989264,0.2780791536,0.5136705552,-0.2221911572,0.1177092645,-0.6100613251,0.4537842239,0.5491960289,-0.3624618274,0.575600959,0.0051519017,0.9285422033,-0.117608419,-0.0119373783,-0.7355225169,1.0563184271,0.5499889588,0.4626841018,-0.2515579923,0.2877176633,0.6259015831,0.9835797538,-0.7606251523,0.7041231767,-0.0110097049,0.2722313283,-0.2047631353,-0.3795241077,0.325527931,0.0883498358,0.4229850108,-0.578143489,0.0671276023,-0.8348914772,-0.4584656567,-0.522207488,-0.1707318085,-0.5616307546,-0.4745415348,-0.2860736859,-1.0540929951,-0.4234039515,-0.1156361121,0.5623142839,-0.1025744412,0.0787775279,-2.1974708997,-0.9194889344,0.873484964,-0.0705713309,-0.0849623407,-0.2801545773,0.0259502065,-0.1300759094,-0.0042042556,0.9789898325,0.9698191508,-0.9897795275,0.1242936292,-0.8567262342,-0.2819632812,0.5039493688,0.8828919584,-1.5082705926,0.6306788119,-1.6900221596,0.5188298724,0.4873152751,-1919.8371039123,0.025493228,-0.1608134626,-0.6988502445,0.5289790514,-0.0788640389,0.2084894728,-0.7406029744,0.1234080621,0.1750679082,-0.0328400336,0.2685486374,-0.2323258454,-0.3290727746,-1.0131809865,0.5651738127,0.0412357982,-11.5483842363,0.1612039083,0.6163738251,0.6793797932,1336.9800615513,-10.5399253371,-0.4876163817,-0.6512754813,-0.7194618131,0.498975301,-11.3907361095,-0.7575529707,0.2971032059,-10.9796596597,0.7823681358,-0.9885416658,-2.829679934,-0.0076571335,0.2218847595,0.4746596279,-0.3481864479,-6.3651213278,-10.1600704871,1336.8376656391,-0.6669509161,-0.7369596194,-1.1301432688,-0.4545646872,-0.3338092424,1335.8655488261,0.4252017787,1.089417033,-0.3076490901,-0.1165133617,-0.2700935268,-0.6776708424,-1.126373891,0.4972016191,-0.5249687029,-0.2369693397,-0.8562083709,-0.6859380226,1.064769076,-0.5559230971,-0.2299878195,-0.3726209946,-0.3445579234,-0.4739793209,-0.4511955874,0.8087279418,0.0947335796,-0.0498424255,0.4870592853,-0.0328626422,0.5461233142,0.7551952582,-0.7690392765,0.8567367727,0.1600561833,-0.828855513,0.8509995966,-0.4442072144,0.7109040385,0.9544207377,0.1752732807,0.4726442279,-0.072265552,-0.7365727321,-0.7253526876,-0.5793620892,2.6168372176,-1.1465009067,-0.1041235095,0.0377132238,-0.8917395673,0.5008931846,-0.0909614576,-0.5803396741,-1.9961995173,-0.7330936448,-0.3778399211,-1913.7115979992,-0.6837736644,-0.10103567,-1.0611717843,0.4843476189,0.7023480272,0.8323427988,0.327005205,0.8121628846,0.3866248884,-0.8234452791,0.8427544363,-0.3036801953,0.7376618766,-0.6010825885,0.4571780744,0.9879044999,-4.8411196019,0.431012609,-10.0385787081,0.5914326505,1333.6038612861,-4.3414808242,-0.5357314829,-0.698042291,-0.8122071971,0.1146609669,-3.3189191245,0.9319363873,0.2882644154,-3.9824438943,0.9193599171,-0.0592862655,-2.1515691621,-0.2864568746,-0.5716986818,0.3544517699,0.1128961133,-1.9499712177,-4.8997354377,1331.6928939803,0.0177339654,-0.7715364605,0.5729924369,-0.0401129576,-0.9689189586,1331.4750340521,-0.7969602754,-0.042534075,0.6465694016,0.1217936474,-0.1605392012,-0.1390763259,1.0174180584,-2.1447844492,-0.4589537897,-0.8487540195,0.017921819,0.9754061441,-0.6172442646,-0.1678157148,-0.2639376412,-0.8118737859,-0.50837567,-0.8974732759,1920.7301467542,1918.8462013495,1898.8643776416,-1915.962054109,559.031012013,1146.3810937121,0.4619206458,215.4984287302,1919.4105514183,-0.0702046581,-0.2927001541,-0.4521261782,0.53803818,0.4862941749,-1.0395117479,-0.5416889696,0.0650117047,-1.2819814956,-0.6481818431,-0.5083097503,-0.9867629178,-0.9549706343,0.2261849191,-0.5959779973,-0.5030607129,0.7784878738,0.3469862169,-1.5914126285,-0.8166092555,-13.717843943,-2.7485487865,0.3395500769,1.660620888,-5.7256288547,3.1865221213,-1.8123162604,-0.3459487538,0.0041513786,-1.0837559282,-0.1527994152,0.3216880705,-0.7744895082,-0.9547135228,0.390362454,-0.2095977796,-0.642811548,-0.0866900218,0.9933624878,-0.1667874565,0.0039703696,0.2693754667,0.0807366531,-0.5648843199,-0.6110830456,-0.9529658578,0.0218762958,-0.7407423857,0.6107945826,-0.626513666,-0.2948143701,-0.8770077198,-0.3096343482,-0.5327235512,-1.2421508246,0.0083639795,-0.3965412821,-1.2991398171,-1.3061724175,0.2154460311,-0.1064059401,-0.3521567975,-1.8208843741,0.3467201713,-0.9392116015,0.5246400804,-0.4004227197,-0.7037874463,0.4980803304,-0.3878606245,-0.1473379464,-0.6025513659,0.426640576,-1.0390962182,-0.8438302669,0.6008536018,-0.2740199816,0.5008473605,0.6377414777,-0.0238537294,0.2729867687,-1.1401547142,0.0837500801,-0.4474357786,-0.5741510256,0.5667483427,0.4806315085,-1.1920586567,0.2722320079,0.3482403045,0.017706049,-0.3407444865,-0.0802989832,0.6708996949,-0.792857761,-1.3965165959,-0.3857500422,0.4813067733,-0.1190335416,0.3089874554,-0.4842529223,0.553046998,-0.6694482668,-0.591864399,0.311594462,-0.0735697448,-0.6778862085,0.9118752011,-0.0079551383,-0.1342176731,-1.1900598073,-0.2646695789,0.5538163348,-1.5622913623,0.3314224452,0.1516582377,-1.5351525063,0.2931553283,-0.7633509706,-0.7877035633,-0.8414209835,-0.2367772368,-0.889463049,-0.8944629774,-0.8549577729,0.9178997879,-1.62269255,0.0503410987,1.3768266149,-1.5767440159,0.0085122461,0.2123024827,-0.1808163642,-0.8509157752,-1.4779033652,-0.0689749237,-0.9935426863,0.2046759747,0.9311849354,-0.8618640231,0.872778339,-0.5431281837,0.6397489176,-0.6216611051,10.6026626737,10.1977445993,-9.8501428144,-7.4213797692,0.2457205027,-0.2786488071,0.7444375023,10.2828893931,10.427340753,-0.1619908134,-0.5949627161,0.1041615631,0.2233467426,-0.8812954287,0.2313153612,-0.3638867886,0.7631815822,0.0545552742,-0.7053205431,-0.8921018231,-1.7472421569,0.7196926442,-18.8531451871,-2.1353369231,16.8948739943,1.9718578004,-2.3750617608,-1.0389512184,0.0786223875,0.4778715731,-0.3860149558,0.5032386511,0.6941570925,0.8165022403,0.9745516697,0.1453673336,1336.5007864092,1337.0130300771,1114.9166880377,-1369.8916813588,-834.3890888758,-2933.7563031689,-1293.2733361044,6396.9253402404,1336.0668992102,11.5073013272,10.2798648624,-10.5620821667,-7.7365581197,-0.5021929973,-0.9123432571,-0.5541425711,10.74871239,10.1341700057,-1.3894829977,-0.2517530578,36.2899384471,39.3371381295,29.897178161,-5.0878989428,-19.6380753969,-6.2680057959,-0.8781847695,-0.7956454811,-0.4992335053,-0.1465737399,0.2261360995,-0.3312977363,-0.7940919252,0.0241121375,-0.6035909861,0.6035088019,-0.271651374,-0.0433514984,-0.5884228405,-0.0346384421
   0.7757430527,-0.6804184017,-0.1194611125,-0.6995761898,-1.637504532,0.6195530795,-0.7934960507,-0.8600731802,-0.6322895591,-0.6371954264,0.4565371286,0.9747329822,-0.7953505103,-1.0014833424,11.2396998569,12.0362467017,-252.8125798305,-36.1635235275,128.2348175017,-49.4885984057,-30.3978180653,-37.6171401989,11.7356719795,-0.3237293422,-0.8186850611,0.7912381837,0.3926271202,-0.157505159,-0.2741049727,-0.2979677951,0.0759389535,-0.4176034384,-0.7262458164,-0.6924813545,0.5757562854,0.732622182,-0.9978655897,-0.3061147756,0.2016315122,-0.596518729,-0.2994693267,11.810466471,10.7793751427,-9.2496816502,-6.8670690537,-0.1589102889,-0.7257506907,0.3468039293,11.3575418763,11.569968982,-0.421757822,-0.9353630967,-0.8516698282,-0.0261348627,-0.0263859626,-0.1976684235,-0.6320099888,-0.9500067071,-0.4036330355,-0.9546454312,-0.2799238046,0.2253611476,0.7163305282,0.5946209315,-0.2955750972,-0.4153590477,0.6700002065,0.8667114552,1.0280658971,2.5380553971,-23.5986187283,-1.6508912092,1.3160484961,1.9027201397,-6.4695668443,5.0895695394,2.0195219936,-0.6063684531,-0.2615887007,-0.6966348643,0.1332311764,0.6360850725,0.5429521027,0.5017516373,0.994950104,-0.2173855434,-0.4096218327,-0.2758810678,0.4779653528,0.2145384971,-0.9381501886,0.0233678777,0.4853159842,0.5573768526,-0.5312085251,-1.1850590723,0.0537393225,-0.6639575739,-1.1244567182,0.7462047858,0.1929332072,-0.5636202827,0.1778671831,-0.4851310211,-0.4742389081,-0.7978740464,-0.6305456319,0.5867847884,0.1737956588,0.5417087787,-0.2824172015,-0.5728744847,0.3602336111,3.2895702507,4.3255535788,-163.7914658408,-41.4982533607,-34.7819629675,3.6498606314,23.7966804065,13.5258469883,3.2269965093,11.2093625905,10.5574520033,-10.3227095638,-5.4677623689,-1.2585945167,-0.5681509847,0.0555347033,10.621833966,10.8086153574,1336.8788915391,1335.6007162381,1357.3617128711,-1339.9763966003,-944.5757336203,-2894.7026036722,-1260.1606156725,6437.6538689324,1336.9828600894,-0.7620862228,-0.6264753957,-0.4826681782,-0.5154335393,0.5406167591,-0.5649220617,0.4232532354,-0.7930233625,0.1110236521,-1.9591205521,-1.6022762907,-40.21296508,-3.1422363564,3.2455189223,-5.5410847291,-5.0976925455,4.7714052044,-1.4451704721,0.5610261101,-0.665701459,0.7334811628,0.5742140714,0.4268675089,-0.3178699675,0.2701047459,-0.0894434217,0.1380750323,-1.1537455505,-0.1369637213,-0.8101487475,-0.4662444699,-10.110400056,1.3089933879,6.8632391353,1.0295785977,-0.2816107278,-0.5734251601,-0.0120273239,-0.9726290079,0.3569894312,0.0446831214,-0.4957511123,-0.0664319146,0.3697601865,-0.0137674787
##end
biasActivation=0,1,1,1,1
[BASIC:ACTIVATION]
"org.encog.engine.network.activation.ActivationLinear"
"org.encog.engine.network.activation.ActivationReLU",0,0
"org.encog.engine.network.activation.ActivationReLU",0,0
"org.encog.engine.network.activation.ActivationReLU",0,0
"org.encog.engine.network.activation.ActivationLinear"
