encog,BasicNetwork,java,3.4.0,1,1524764167408
[BASIC]
[BASIC:PARAMS]
[BASIC:NETWORK]
beginTraining=0
connectionLimit=0
contextTargetOffset=0,0,0,0
contextTargetSize=0,0,0,0
endTraining=3
hasContext=f
inputCount=8
layerCounts=1,25,49,9
layerFeedCounts=1,24,48,8
layerContextCount=0,0,0,0
layerIndex=0,1,26,75
output=2338728.075379264,27204.6268072064,0,28721.3850300561,31668.7324336068,11897.4551806966,30150.6273458236,29323.7521247401,28816.4076891664,0,0,27598.6381296227,30989.3735045589,31590.8130417748,0,0,0,36415.3375731351,29976.3643931068,28407.4558602295,27544.2947275459,28234.6242127841,0,0,0,1,0,0,2028.9191332344,0,0,638.5219345598,1763.4841128391,1030.5537740952,754.1081488958,0,0,0,271.901152934,0,0,0,1044.6289404098,0,0,0,0,0,0,2456.0857928573,727.4202597872,0,0,784.8441964843,0,0,0,0,0,0,0,0,0,0,475.8337784556,0,0,372.6607740932,1014.1167331951,0,552.8214534079,855.2118652053,691.47814047,0,1,514.2187286834,226.8469204416,0.2419278364,-0.0000010961,0,0,0,1,1
outputCount=1
weightIndex=0,25,1201,1633
weights=3.3127036547,39.5510936164,5.6253900545,5.8961824764,6.9832075251,5.5135562024,6.4596688584,5.6660247747,5.7421149511,-27.608301501,6.3608327209,5.7281245007,6.2867658043,-50.194422175,-38.0463543448,-57.0051597993,6.0380599603,5.0362550831,3.7474717136,3.9997606611,5.5421582438,17.8661242022,15.7833476553,-33.4212916822,-139.1974730322,1.2574444893,-0.5776379865,-2.608615719,-0.5119482407,1.3914480897,11.7690093564,-3.506387378,-1.8170084127,7.2767044053,0.7380698508,0.0750879921,0.8719089944,-8.101485065,-0.1612209177,-0.2062453971,0.7861068756,-1.8832286005,1.6526650563,-16.846901327,-0.4424580434,4.5892653823,0.5234454259,-0.8033211947,-1.6595258542,3.9896474096,0.6090243381,-2.0583168448,3.1991824262,-6.4708579548,-0.6525511491,9.2696168779,5.3446386553,-0.273118692,-4.4291285899,-0.3872499823,-26.8322764191,-0.7723514361,-0.2504862396,2.033875839,0.9271719096,0.40789957,6.9702289583,4.6037897398,7.5877532603,-7.1462161854,27.4295003957,3.9560644582,-5.2429603824,-138.5934230135,0.8677507562,0.514877268,-12.3193207851,0.1419324335,-1.6774144852,-12.2387193012,2.2563750467,0.610063289,-5.1386488415,0.7702854236,3.2004523592,-0.1138795045,3.4706150529,-0.8634657846,-2.9023636276,-0.306989037,6.4311014752,-1.6711817171,11.8285597794,-0.951043757,2.612306025,0.0155768912,-0.6182046038,-8.6759367665,-0.5444222882,0.4697361962,2.7463396024,-0.202992813,4.2701476223,-0.36871506,-9.5842731846,-14.3103044264,-0.8323966279,4.6746392976,-0.9706451308,-19.8684626633,-0.1669610518,-6.6407939205,-3.0259610715,0.5083444256,0.0377728854,-7.0775433356,-2.3328459934,-2.8258263233,-3.8260260146,-20.2740506896,-1.2500362585,4.1241372636,100.0186154619,0.582663658,-0.2332864859,-3.0954282303,-0.6942480151,2.251371,11.9797229537,-3.4345384984,-1.8666744819,7.1781574111,-0.8129776171,-0.775622456,0.2354394429,-7.177977251,-0.531798714,-0.0853722983,-0.3861781292,-1.6535141019,2.1487404104,-18.5019317551,-0.8381906295,5.4255938672,-0.4823137773,-0.2825796092,-0.4845015494,2.3629319543,-0.9391593273,-3.0289018462,3.3691376057,-5.4071088542,0.0901894701,9.811827343,5.1240257853,0.5774314314,-4.3009898441,-0.7657376612,-27.1002331438,0.402624895,0.0770832503,3.4944538757,-0.8713094695,0.4959544995,5.9089994082,4.9300520482,7.0059336561,-7.2001054968,26.1123817924,4.7759658717,-6.0179583728,-138.1143444449,-0.4204854931,0.0483917009,-1.9895303377,-0.2317046144,1.4667217155,12.2143352535,-3.3292292193,-2.5794049669,6.3669098668,0.1341371301,0.8435168279,-0.7971491351,-8.068557933,-1.043837076,-0.5800300567,0.1491641044,-0.5215426753,1.7473832945,-17.2277848299,-0.7277042022,5.2477108089,-0.6971078214,-0.4248263126,-0.6228794269,3.130743077,0.9724636282,-1.5235422051,4.1152587648,-6.3295050483,-0.4519971321,9.3458657003,6.1088009301,-0.2302474699,-4.2264244645,-0.9321080419,-25.3957495848,-0.3544204204,1.2168830816,3.4528248798,-0.9028710704,-0.7263989192,5.7212465859,5.5311876823,7.0682939544,-6.2218102212,25.9428160763,3.4096893409,-6.1081286623,-139.2704456265,-1.8612502869,0.4435191015,15.9684991746,0.6576007894,1.4101136351,-16.1745216477,9.2926827255,-2.4704899461,1.3681184323,0.811123065,-6.2469018185,-0.685611074,-11.1467252116,-0.137121145,-3.7539033346,-0.2957485551,8.2301145174,0.1259395439,11.3028746732,0.3394042022,2.3890722946,-0.2029345118,0.3918419736,-5.9331644211,-1.413288583,0.3847962631,1.7858302671,1.2141272589,-7.2583477204,-0.2071701308,2.7599209656,-13.2368170166,-0.3198724693,-3.9796421213,-0.266670927,-5.792016796,-0.1589808514,7.3684633486,-1.216268295,-0.3471107041,-0.8887896369,-3.2649008953,1.168838421,-2.2776131065,4.8802493983,-21.4221379838,0.2131058372,-5.6911258491,73.8210318992,0.4027900233,-0.7752980963,-3.5311800891,0.6173682384,2.6458781725,12.3606817514,-3.0567248745,-1.5903494965,6.1990669665,-0.123754331,-0.3089439987,0.6962935575,-8.353064252,-0.5799654879,0.0614609974,0.2783393741,-2.1296365121,2.148745406,-17.9785198482,-0.2379700812,5.2062889848,0.4441431629,-0.326509343,-0.5388119379,3.5289046368,-0.3199741009,-2.2649923815,4.5463218913,-5.5322729786,-0.4474029335,9.9911783284,6.6563017783,0.3185823369,-2.9759909009,0.6732100426,-25.9870223091,-0.4089661737,-0.3972640507,2.5469523234,-0.8343985335,0.8716358547,6.1458346223,5.7478697511,7.3579211011,-7.3018200018,27.2069069667,4.3265755241,-4.2546889779,-138.3478851213,1.0811424337,0.2583588045,-3.6359912915,-0.5338705997,1.7013359674,12.5481038693,-3.3097796565,-1.5624024709,5.9852251552,-0.3513175419,-0.6160367956,0.9289222105,-8.0100420663,-0.6846602199,-1.3067525508,-0.0605573138,-1.2993163478,1.3656501834,-17.4324158183,-0.9993774909,5.4340640105,0.2748203942,0.0424979326,-0.0580918108,3.5066514766,-0.9655390857,-1.8801145101,3.7002107441,-5.0800391066,-0.8059909095,8.6714114576,6.8092083165,-0.1233093263,-3.9133849632,-0.9752032174,-25.3004243194,-0.2352796238,0.8356144309,3.2328530637,0.323542936,-0.5340897661,6.8765279464,5.0085144947,6.3443886533,-7.2879387097,26.0844746049,3.585716375,-5.5028284285,-138.9588500384,0.4019130926,0.6742687451,-3.4295506433,0.264566041,1.0313796044,12.5666481547,-2.1617081959,-2.9576922179,6.4291316987,-0.6963534896,0.1172695134,-0.1646259159,-8.6949708482,-0.1716322918,-0.2746508745,0.4827488317,-1.1486521934,2.31477603,-17.4796934841,-0.2322455786,4.830847392,-0.8038269139,0.5926677606,-0.6739963095,3.0781826739,0.844035103,-3.13678307,2.8123507239,-4.9963236054,0.2465947011,8.9685725549,5.5175436993,0.8722855335,-3.9536167274,0.6177226986,-26.1567063208,-0.4843296757,0.4076844106,2.1512943007,-0.531300828,-0.798627191,6.4830156468,5.9770648307,7.8380729219,-7.8468798748,26.503060141,4.0475818753,-4.5016417242,-137.6549157281,0.3112122643,0.9395976272,-13.9282190239,-0.4240972854,0.6822501089,-2.7790656013,-11.5950599379,3.2706593308,-1.235407683,0.5216121507,3.2648317635,-0.2869284768,6.8115664441,0.2958230576,-2.0104550729,0.9020183238,-7.9947201164,-5.9505408255,13.82185821,0.0348197429,2.9372241132,-0.5479892349,-0.0347533597,-12.5037630311,0.0808358095,0.7597731077,-1.258200154,1.2488448872,3.4300157178,0.0232474242,-1.8137638702,-18.6028427196,0.5256607657,4.1495612197,0.1119805781,-25.4186737528,-0.2101620998,-10.713378627,1.5136109205,-0.85709278,-0.5096473437,-6.596263903,0.7759837683,-1.0847770258,-5.8106327252,-22.0759979806,-0.1946202013,5.5491135615,78.74259202,1.0414636092,-0.0034503865,-15.8326656078,0.3469089906,-2.3550527501,-2.6730750396,-7.6352010897,2.3275791965,-2.8883508653,0.2581682463,-0.9284511155,0.084772383,9.6767545752,-0.800326237,2.4116999907,0.0706754125,-9.3265687486,-2.109990414,13.4946244255,0.4727900081,-2.5963466186,-0.0884154848,-0.1548074611,-14.4973190027,-1.5354597378,0.9096139886,-14.4866125997,-3.0228246002,5.880068568,-1.0735522055,-4.4742384063,-9.0432671553,0.8909457233,2.8345512046,0.0297305113,-24.5444982972,-0.1179688604,-14.3415638355,-1.332849051,0.5671015422,0.5425795789,-8.4936558538,-3.385025589,-5.2027239965,-5.4420733134,-24.7595568422,-1.981247176,5.4746256289,82.5314706135,-0.4849219589,0.1597915145,-3.2304777061,0.0529362199,1.7273768606,12.5857191687,-3.3879862553,-3.0083419686,6.1671426318,0.2018269301,0.1058062927,0.8066720105,-8.4582036581,-0.4009863695,-1.5376159012,0.1385369969,-0.9495894583,2.6731456138,-16.8748185957,0.6298532727,4.5840371581,-0.7063906657,-0.4459220129,-0.2825730655,3.949481271,-0.2184081504,-2.3461057978,3.2242740304,-5.2267373558,-0.0603842233,8.3638963191,6.8697980022,-0.044686084,-3.1007038702,-0.1348959412,-26.8074682088,0.9127940729,-0.0598471049,1.9583589444,-0.9491627119,0.3453719368,6.4185713047,4.0389422844,7.6004085612,-6.6060447136,26.173890488,4.4298384609,-5.0399529253,-137.4753067552,1.0454007102,0.7718470857,-3.1362237406,0.3296678291,1.820221632,12.7935265888,-2.8044976835,-2.9641475955,6.0100768246,0.6824246459,0.1447800442,-0.8870613601,-7.1632715816,0.385411753,-0.733421851,-0.4649092919,-0.5556757936,2.4911012335,-17.5861940375,-1.0804270019,5.6088393519,0.3235909922,-0.0048535283,-0.21386925,2.4022082093,0.9038483242,-1.7133296825,4.1794246655,-5.5530450621,-0.2080789032,9.5810079349,6.4617408632,-0.8950945828,-3.1113797145,-0.8188829958,-27.1105674528,-0.3045074349,1.4794594909,2.2072763372,-0.4929962124,-0.0722491288,6.2653799254,5.6386571399,6.9879879437,-7.0904550174,26.7090852178,3.9708263113,-4.9892782421,-139.360461274,-0.2414053521,0.9139669944,-2.1795100718,0.4213811226,2.8690113478,13.0578102069,-2.8159704879,-2.2935579284,6.3381728656,0.8680049126,0.2757771259,0.588398448,-8.2386666029,0.6721512678,-0.9808958328,-0.9027930617,-2.2029455215,1.4301095218,-18.3094998355,0.2026902274,5.2651014281,0.4774357921,0.2568071015,-0.7982732189,2.9902852532,-0.8385100266,-1.9276016731,4.3119553071,-5.2189611386,-0.0920352619,9.5490400009,6.5698001819,-0.6792512261,-4.7252551108,-0.1679085912,-26.8446448313,0.2105904991,0.805354188,2.5598627678,0.0346628621,0.4153108032,7.0562292104,5.1702987555,7.8632249663,-6.5920443579,27.2887244045,3.582030369,-4.3492498355,-139.2184658035,-1.3247993329,0.8997914,-5.4900598573,-0.7707799416,4.5092161624,-2.0797845152,-12.7946505134,0.6698320617,-0.6031590005,-0.8959021776,-0.4281951452,0.3637123428,10.0974411486,-0.5570317001,4.5390458877,0.8688320881,-11.3095852179,-3.2824652654,24.6562031685,-0.2101050924,-1.2809677432,0.2444170854,0.6716821119,-6.772242875,-0.8429872712,-0.5334251518,-3.1828155744,-0.2436723207,4.8370016612,-0.6021807598,-7.5883044728,-5.0418356869,-0.1551590312,4.1602433311,0.811957013,15.3460277961,0.5951594912,-3.3847246183,0.0679720767,-0.1906634097,0.2406142121,-9.9506687527,-2.3345969218,-2.1445406102,-4.9035763822,-17.7387538489,-1.6743823399,2.7667527802,112.4354352525,-0.4901189451,0.1646313745,-5.3674366073,0.5994791886,1.5567230058,1.2854182416,-11.0502759756,-0.7448931117,3.4547205321,-0.9588096558,-9.9568675037,0.6888272542,-2.7989937076,0.0213823625,6.1291074069,0.6464376105,-14.1167469582,0.8962174098,10.1143096374,0.1013300055,-0.8967412441,-0.5139602388,-0.9870087128,-13.4071851859,0.5607021213,-0.4315807901,-2.5107045633,0.7338941559,-3.4249119805,0.5372707503,8.5244843598,-4.4212738713,0.2939554036,-6.0957711985,-0.1019527971,-25.7921897581,-0.9711904251,-2.96639108,1.9667324033,0.8692180041,-0.1820106236,-3.8165431593,1.3239274264,6.4334848862,-6.491943936,9.3913082204,0.2285942289,-2.4005189809,49.3100436316,0.2998649825,0.0040809296,-14.9407345555,0.8034824777,-2.4573009887,-1.1464243722,-10.579955429,2.4492182722,-3.0393632739,-0.085279768,0.4740099786,0.4201938879,10.2565037967,-0.3027555449,3.0420976766,-0.461562755,-10.0185693813,-3.7493694784,14.9552604209,0.3290058868,-3.77235411,-0.035693851,-0.7272429011,-14.2115382932,-1.9356754666,0.4620428574,-3.6005996991,-2.0105820841,6.1725501041,-0.1162689935,-4.6864777354,-10.537970527,-0.5256448439,3.1111415273,0.3091970514,-25.9519885945,-0.0697892519,-15.8883646925,-1.1946612794,-0.7263513488,-0.4158762442,-8.7274700639,-3.9831501694,-4.7844171806,-4.1713311845,-26.7509208943,-2.9422705486,4.7614695977,83.360061819,-0.2051753578,-0.6824683149,-1.9135444767,-0.1958168491,2.3505447561,12.8057827011,-2.9494005209,-1.648365597,7.5738457064,-0.8659898974,0.2393067205,-0.0394620977,-7.4508472101,-0.467368723,-0.4488899109,0.491469849,-1.944309453,2.3392385689,-17.9608916063,0.0383674183,5.6189016814,0.5411215814,-0.9091116808,-0.2942892522,4.1659412262,0.2958463927,-2.3328435353,4.1080664856,-5.0013539822,0.6229947551,9.271813223,4.9403044359,0.8323562536,-4.3343211613,-0.6024059943,-27.1387094499,0.4159755753,1.2964150744,3.7068029935,0.3785772904,-0.9335996268,5.9450822916,5.9826560887,6.1930747057,-6.7140570032,26.4976193537,4.2383578137,-5.3692660192,-137.5363770606,-0.509262013,-0.222392262,-3.4442811123,0.0574405924,2.8775108885,13.4047386102,-3.0332936808,-1.6333013378,5.7159128776,-0.0991261877,-0.682181368,0.9271753601,-7.3827208452,-0.9437262835,-1.8280927159,0.2366109012,-1.3386832071,1.2915022626,-17.4045115907,0.6367041749,4.0084353383,0.6195964202,0.5047075261,-1.2085142067,3.9189819665,-0.7750030887,-2.510527151,3.1789129147,-5.6432687408,-1.2620712768,9.322973407,5.8036728043,0.5800874385,-4.5736438114,-0.3721575735,-26.5898571509,0.3686945995,1.5666954367,3.4220909544,-0.9669184853,-0.5833258081,6.3746213022,5.8688833238,6.5613552844,-6.2830862665,26.8098047463,4.1037268967,-6.1011177984,-137.9506999496,1.0813756705,-0.7629234534,-2.9384287608,0.8006596807,2.8373245641,13.369474736,-2.9138013277,-1.9639770601,6.197237173,-0.5351972532,-0.0014211783,-0.2870070008,-7.1555916301,0.3154682863,-1.8158735513,0.4952926487,-1.4111366758,1.0997954316,-17.7221232117,-1.1184700012,4.6440159272,-0.9982312589,0.5933071694,-1.7467162827,4.1012661947,-0.9543935873,-2.4148829565,3.1484925238,-4.9008013237,-1.3503557108,10.2225573613,5.4175345736,0.0724965496,-3.2910158244,-0.8867574984,-26.8176975533,0.2059175018,0.0185488404,3.6727818571,0.7239963411,-0.8893800667,6.6108955564,5.3285039277,7.5004677039,-6.6030235564,26.4511054698,3.0147783567,-5.8290464337,-139.2248939722,0.4934663285,-0.6704676295,-3.2418618356,0.4712487743,1.4837905881,12.8889421981,-2.8101364018,-2.7186908716,7.1957292887,0.5980734304,0.245061765,0.7854247257,-7.8112784627,-0.4241366908,-1.7835104199,-0.9395680165,-2.4507138592,1.1013121814,-16.9794171275,0.568453806,5.398194548,-0.9006219517,0.2369145837,-1.1049511163,2.2859398537,0.578557432,-1.959482659,4.516080824,-5.3333112909,0.3311443726,8.9902753453,6.522204985,-0.1060174885,-3.114287666,-0.8157841526,-26.2793115946,0.6364140688,0.3082610374,3.1417695238,0.6916741774,-0.6063311666,7.0152494952,4.2713015104,7.5596880488,-6.7548357651,27.0411480477,3.8666454505,-5.9355002963,-138.3585129926,0.1797358217,-0.074825649,-3.4147778081,-0.5866497503,2.4042918254,12.149323061,-2.1350097479,-2.7908019715,7.5618673945,0.5027453754,-0.3861370781,0.0972694566,-7.2157249641,0.1957334459,-0.2882146839,-0.1268213998,-1.8796237805,2.6824358224,-16.9867374474,-0.6134746557,4.1908763882,-0.3198458159,0.7887527205,-1.3385093678,3.7883753345,0.4842245144,-1.637029114,3.0091569237,-5.4710923579,0.3134320685,8.9967421926,6.6240745755,-0.8546728426,-3.1467568417,-0.1479841159,-26.5619606261,0.1746061682,1.1989596735,2.321026827,-0.5439690684,-0.4330260687,6.8607483754,5.3839958201,7.5218877857,-7.9953671489,26.4761375021,4.6106162785,-6.0063992862,-138.1050775312,-0.6075633604,0.4628337238,-2.3649543655,0.6233004889,1.0254192957,-6.3626585611,-12.2967972536,-0.4215784987,2.6835262727,-0.0086345073,-5.2155673262,-0.5530400457,-8.5047142267,-0.5366115276,-2.2146116675,-0.9546985529,-4.9899585245,-0.9889779177,11.0210516214,-0.0203406557,3.7822064003,-0.0054020608,-0.8219440498,-14.3961095938,1.300423317,-0.8553156092,-1.9281513121,1.9143145191,-4.0658400759,-1.188430804,9.2232535118,-13.6677250485,-0.9523555586,-6.1180063666,0.2112329107,-25.2622200631,0.9798506267,0.8727734002,1.0289380461,0.4959717754,-0.4119074076,-3.3207254613,3.7696861768,5.8491301671,-5.7942914685,-25.1063547856,1.3867316099,-4.174974418,46.0578620386,0.4273116319,0.6928709159,-3.0090696091,0.3746624373,1.962152059,-12.0120425925,-2.876595129,-2.9783051914,2.6889496027,0.2518505619,-10.3081878934,-0.9996597926,-10.9304535566,0.3446750269,-2.4959595859,0.7006008074,-4.851370891,-0.4291565789,18.0106858038,0.4810229508,3.0320359347,-0.9491745461,-0.5448761011,-13.6524786535,0.1939122053,0.4929585816,-2.515678344,1.9056255762,-8.1162309315,-0.3247810132,2.430294522,-18.5872741429,0.8539943836,-4.6084635991,0.0040534026,17.3033257719,0.3715582887,7.2495682573,-1.4107201454,0.2827023675,-0.0320533799,-2.285449635,1.6546717759,2.9479883305,-6.9934918401,-26.6989417955,-0.4318876622,-5.553803629,71.958315283,-0.3782695535,0.0770626586,2.5300801115,-0.4350679022,-1.5957834386,-12.0635036927,3.1006008134,2.9638011851,-6.0273472094,-0.0329975886,-0.5114650121,0.8318728214,8.0180895639,-0.0315878736,1.0012319455,-0.2351811513,1.7637920467,-1.6417090753,17.7595726433,-0.1570004831,-5.4957997094,0.9870322867,-0.700055096,0.2242883031,-2.4237923496,0.6771990799,3.1987573916,-3.9443262162,6.1304888698,-0.0322875607,-9.9513690565,-5.8698660931,-0.7039732027,2.9133657162,-0.2008764269,25.6422693417,0.9245535527,-0.872876241,-1.8338495641,-0.9919490678,-0.8619339862,-6.1162848121,-5.1788980595,-7.1008757103,7.2901585707,-25.2341786857,-4.3164381681,5.3873244502,137.0305302522,-0.2115997588,-0.9326859691,0.1947304472,-2.9134642102,-5.4794272341,21.4440122693,5.0654766597,0.0903740669,-3.2459463072,-0.8971924957,-0.4001448688,-0.6855426801,0.4662441284,0.2344165984,-0.3299925025,0.5294028504,-0.3016672262,-0.7369658539,4.7843757898,-1.8709889284,-4.1072675782,-19.2170897578,-20.3011443401,-300.694549699,-235.429717457,5.6293288543,-17.0299979396,-0.8999721726,-0.7796049378,-0.6957372503,0.7125022346,0.3189306568,0.4942481124,0.9652373019,0.1964851682,-0.2327255234,-1.6400380907,-0.2078329629,-4.0547822482,-4.077276893,6.7936835625,-45.4869714428,-23.459956286,23.4226467922,7.2806497077,1.874875335,-0.7152104057,-6.64932624,-22.7113368463,-12.8292644647,-34.5051852431,9.0367498254,-114.3412349595,-52.8878027639,2.886146242,1.3194488831,-16.1870684716,-0.0800651448,-8.7873681218,34.9362964464,10.2038393663,-16.5169753322,0.3426540256,1.2976195805,1.6845667741,5.2705205913,-14.8615075105,3.1345092411,1.7171891298,-59.1951192788,-25.0235797462,5.0543452918,3.3628693379,-3.0813123335,-2.3870920751,45.6622233258,-154.4513765734,-194.43332545,-241.3892702503,-184.1797650795,-99.2352829344,-0.5542949404,-0.8679982645,0.5724209454,-0.2896627591,0.1961008174,-0.6701919025,-0.8779242758,-0.3546248033,0.2949747498,-2.1001648802,0.4670339343,25.3787587944,43.6604870851,-48.1429949773,-429.134048995,-239.5527755981,-164.7469119171,-126.1645687052,-0.3536244042,-0.1680824648,-0.3154068836,-0.1541614881,-0.3837966258,-0.2258790119,-0.3246606674,0.6158493004,0.05170189,1.8754798508,-1.867037985,-7.04044458,50.1977271837,-147.989112541,-156.1728400456,-176.072280141,-178.5938245166,-104.6961151786,-1.1078720512,0.2448031145,0.1994476632,-0.9572084287,0.2470919749,-0.3378159197,-0.0283490349,0.926352615,-0.7969881185,-0.0478787821,-0.6005557535,-24.241409476,46.8621228206,-222.1851853294,-187.9093074308,-176.7457476646,-176.0925910541,-122.8053207763,-0.7439706248,-0.1727672303,-0.5771394144,0.1677590521,-0.2085016927,0.8946147279,-0.3119030106,-0.7236306308,-0.4404827325,2.9704958433,-0.3284557224,-132.7921626418,41.9527545895,-328.8552949387,-238.1580818821,-285.8192743181,-226.2027791144,-149.6973268824,-2.0925522791,-0.7836155962,-10.0290193925,45.5184700818,-270.2849843788,-231.1064610431,-12.141218663,-104.2319609801,-105.1351279229,-0.188737802,1.27507468,-4.9905850211,65.7404685625,-277.1472429707,-331.9019664942,-328.8021214277,-249.7826321249,-60.2816182883,-0.0154181041,-0.7562676349,-0.7151365166,0.292669336,-0.4681850518,0.4315397915,0.1499271116,-1.0665066835,-1.3830196308,1.6242317268,-4.2901656429,-25.5684011494,45.8550598973,-147.0928923846,-157.1686674731,-269.2318508748,-172.0550578966,-124.1728273534,-0.5738920308,-0.7352252823,0.6058690101,-0.6520936406,0.0169513207,-0.3662934177,0.6796232082,0.1756521529,-0.3135302729,-0.4743328456,-0.0649339866,-0.5530805935,0.5750703639,-0.9455714046,-0.4302582452,0.3316299293,0.1988606023,-0.5893586299,2.2864204044,5.5272098082,-116.5192920819,1.5772861984,-77.6963309823,-82.0562994874,-332.657347233,71.6940799632,-16.9834063928,1.8340330705,0.3733150469,-11.4017083969,47.2186103417,-190.3294002306,-189.2082588106,-173.7747143353,-179.3356158648,-117.982155763,-0.3148892696,-0.2660320785,0.4758312946,-0.9458522822,0.4149773577,-0.6590582043,0.4650255667,-0.8809714633,0.1841289494,-0.7654764776,-0.0675909957,0.4626223572,3.3625070379,-1.6507507402,-10.7012300232,4.3473458821,0.7871741549,-0.444971364,2.0070434437,0.2590914217,-11.783744269,47.6980429794,-213.4255800835,-204.3107835195,-164.2026330213,-183.7954872599,-119.0598185777,1.6524873675,-3.0476667723,-57.6207296542,48.9231500518,-135.9328062888,-239.1300012466,-335.5496683966,-45.1983625865,-101.9323056582,-1.3405923286,0.2839254891,-1.1546579523,0.6241220244,-0.4927917079,3.9285566883,-0.0669614576,-6.2846376072,-1.116627718,-1.2937714013,1.8249505306,-5.0019483694,56.0828635993,-69.0798253863,-153.7340143324,-102.3690414059,-116.9528523135,-91.7337695028,-1.6117150712,1.3427798919,-16.3720972934,-12.1920507999,-136.5758415405,-14.2630496055,-151.9178253663,-81.1820077145,-23.7198724883,-0.8224763599,0.2241395651,0.6323528026,-0.0709598787,0.7138735028,0.8545478189,-0.4751711475,-0.3555357806,0.4562343588,-0.1290165715,-3.6946225767,-11.0685965775,-4.2610746341,-4.2894930221,-21.6440469387,-5.8659295391,-110.1028168104,-1.4137479112,0.0846045166,-0.6876253002,-0.1396947366,-0.2189084192,-0.7258215628,0.1143867434,-0.829654822,0.6711021931,0.9462797726,-1.8884614626,-2.7772948559,-2.3860675644,-17.4699058453,47.4460089023,-0.3157908599,-3.4657579275,63.6134014811,39.1522519947,-0.4974923123,-0.0552007167,-0.322913001,-0.5844276763,-0.3501949261,-0.7491914988,0.9417099226,0.9657104098,0.4343131796,-4.7988979168,-0.4577085589,-19.4841005467,62.2396254251,25.2353762194,-64.9126236983,-166.2714724253,-47.8232464868,-80.2897515635,1.4419398678,0.1943913515,-16.8460388807,42.3105932685,-212.1798611242,-179.638228622,-291.6084773161,-191.2135717211,-121.8874899702,-0.5576532959,-0.9957816953,-0.5226156951,-0.0660717237,0.9694660648,-0.719248453,0.9100625358,-0.0338104088,0.456300953,0.0767303348,-0.9699003089,0.2463812142,-0.5773382093,0.0010818314,-0.3581148188,0.8407663641,-0.353221926,-0.1476757581,0.7153882028,0.6021215461,-22.5402166855,-2.1814764874,-101.0712542657,-100.5481114905,-195.3980056471,-80.7402636303,-49.4790499257,2.9282948245,-0.8659617711,-10.9236070468,48.3648726916,-211.5509510109,-180.6995139081,-211.7002541558,-170.8126584336,-121.9233121818,-0.7871901053,1.2042883349,-7.0874274717,55.9381002797,-72.7050529765,-219.1253483429,-168.9508652043,-96.7534023341,-97.6644561273,1.3108667128,-0.5983894431,1.1479307691,10.9173252979,-21.369032059,-73.3629912814,102.0753131728,5.6951383718,8.6703678005,2.0222246379,-0.7920036714,1.094485387,-16.5140553411,-1.1880897444,-34.0336150992,-2.9263135688,46.198857162,-56.9830397574,1.7586251807,0.4267828,-10.0986623225,47.5807889337,-198.5306767634,-199.7869008789,-178.7807206256,-189.0614044531,-117.866575115,0.0579684256,-3.0293699855,3.3957398921,-7.0433991421,-14.5426685973,-38.4890238125,-28.0426931837,-82.4092514126,-3.9728643676
biasActivation=0,1,1,1
[BASIC:ACTIVATION]
"org.encog.engine.network.activation.ActivationLinear"
"org.encog.engine.network.activation.ActivationReLU",0,0
"org.encog.engine.network.activation.ActivationReLU",0,0
"org.encog.engine.network.activation.ActivationLinear"
