encog,BasicNetwork,java,3.4.0,1,1524793376978
[BASIC]
[BASIC:PARAMS]
[BASIC:NETWORK]
beginTraining=0
connectionLimit=0
contextTargetOffset=0,0,0,0,0
contextTargetSize=0,0,0,0,0
endTraining=4
hasContext=f
inputCount=8
layerCounts=1,25,25,49,9
layerFeedCounts=1,24,24,48,8
layerContextCount=0,0,0,0,0
layerIndex=0,1,26,51,100
output=-6.51572055,0,0,0,0,0,0,0,0,0,0,6.0241080574,0,4.2258194652,0,0,3.2929556214,0,0,2.3687312787,0,0,0,0,4.9473812752,1,0,0,0,0,0,0,0,0,0,0,0,0,0,0,0,0,0,0,0,0,0,0,0,0,1,0,0,0,0,0,0,0,0,0,0,0,0,0,0,0,0,0,0,0,0,0,0,0,0,0,0,1998.2105746759,0,0,0,0,0,0,0,0,0,0,0,0,0,0,0,0,0,0,0,0,0,1,209.6915901992,251.9491256888,0.8293895862,-6.5155092705,0,0,0,1,1
outputCount=1
weightIndex=0,25,625,1801,2233
weights=##0
##double#2233
   -0.0226854406,0.6783319219,-0.089386812,-0.0023949122,-0.0057156856,0.254658843,0.6420857687,-0.0304472849,-0.0172633616,0.7380576733,0.3408770834,0.0003816196,0.7566515864,0.0160337926,-0.0379333853,1.0723567984,0.7016135104,-0.0985511995,1.2696141258,0.5403140948,-0.0171175458,-0.0395182871,0.036016527,1.4234134643,-25.347441096,-1.0356288544,-0.3114800515,-1.3723108561,-1.8451814194,-0.7921035675,-1.0021830395,0.0134927336,-1.7871845309,-1.6786486546,0.1681111644,-2.8881077192,-0.6083088745,-1.3756436855,-0.0457635605,-1.8119258943,-3.1826427142,-0.440642516,-1.101227875,1.1700793577,1.4644668683,-1.4952456768,-0.2679556075,-0.2721014608,0.4491057915,-1.033607277,-0.0381986786,0.9134260273,-2.747268363,-0.914788967,-1.2837670213,0.31733839,1.0636607212,-0.5829239351,-1.6414604832,-0.4130397924,-1.8927166899,-1.497218887,-0.9788360204,0.4706530835,0.3177637959,-2.1833323459,0.4432273478,-1.7755005735,-0.4485348096,-0.3620901243,-2.4043438954,0.0305265926,0.9492562152,-0.093027468,-5.8972905149,-6.7934949541,-9.8602912765,-6.1321565408,-1.1406200816,-5.047770125,-0.8437012743,0.4824536764,-7.6481331928,-7.7145819423,0.6737309626,-6.7741694066,-7.1392892911,-8.6650018061,-0.8066305976,-8.7113805508,-7.5947569631,-1.1358165964,-7.7558946369,-1.108279801,-0.4092712339,-6.3270305506,0.1425252441,0.0863270859,0.6949260286,-5.8912600868,-0.0961574553,-4.2779238741,-0.965105631,-0.4986918402,-0.1866359163,0.107793621,0.235887178,0.1002479344,-0.175511325,-0.8134583615,-0.0931545899,-0.5079508465,-0.9834507276,-0.5080442279,-0.6026425191,-0.1594438726,0.8175178448,0.0259149468,0.270372486,-0.1961689736,0.8116191125,-0.439138979,-0.8596423332,-0.3044036068,-10.6792979284,-6.9688463083,-8.4798403426,-4.7192421442,2.2889670136,-5.414870046,-0.4230306505,-2.1187959195,-6.3654362079,-5.5909742106,1.1446470811,-4.8097096176,-6.0042023785,-6.7039217746,1.9122244922,-7.3251877974,-3.008143492,-0.4395729495,-5.9693669453,-0.8146870716,0.5979802552,-6.2978875096,0.1734560849,0.3558862013,-0.5968126874,-26.017889159,0.3788420851,0.0995170775,-2.6952299565,3.0510503935,-2.0511422256,0.5629571527,1.5845757262,-2.4354276054,-1.8389995778,-0.8589782924,-1.6375595883,-1.697731489,-2.4993776008,0.6804579505,-0.6706208389,-0.741112352,-0.9253568825,-2.8489369021,0.0786444017,-0.2649881809,-1.1095444282,0.8441216342,-0.415403148,-0.7942904371,-1.3792222415,-0.7541732822,-0.0287126838,-2.4552618059,-0.2588841186,-1.8434333034,0.1270376035,0.008215503,-2.1778663943,-1.2674128442,0.8652683932,-1.2683137067,-0.1056221395,-1.6453111892,0.2246012261,0.5100737156,-2.2562562854,0.9789496443,-0.729661625,-0.2469194814,0.5436346765,-2.4295168081,-0.4824097286,0.0561778037,1.1582661538,-6.7881257749,-15.0100807011,-17.8299856564,-14.1027363942,-2.2939200682,-15.5453596416,-0.3732687527,0.1204555436,-13.8268888039,-17.6519092438,-0.6586317268,-14.6241578346,-15.5232673695,-16.4558894849,-1.2949514282,-15.8522066716,-15.392010786,-0.0362463298,-14.5972183882,-0.6358038883,-0.4992615399,-14.9252682495,-0.0511598009,-0.1995098427,0.3410355759,-24.7076347735,-6.4856692977,-8.7277704175,-4.5132251644,-2.1331799103,-6.0629877329,-0.0989626848,-1.2158321817,-6.4248696155,-5.8843882742,-0.050431259,-5.2206011616,-6.8712789391,-6.9817525851,0.9638412916,-6.8017192447,-4.9635857467,0.4581224376,-6.3156503353,0.0808750991,-0.5826673223,-6.911682874,0.4769577889,-0.3813890458,0.0709577111,-23.8821024758,-0.0813748873,-0.1034438729,-1.8036692483,-0.9506177,-0.8733065686,-0.7156664179,0.911615081,-2.2747428739,-2.0308191642,-0.4841067159,-2.4763701063,-0.1390971083,-1.749476941,-0.2579695106,0.6599204228,-2.343048917,-0.0874310242,-1.2677358751,-0.3773179091,0.5950615134,-1.6866269474,0.6696228066,-1.0317134012,0.0422943414,-6.9989329916,-3.4811356833,-1.0516041164,-4.0884719129,-0.1748560352,-2.7589656783,-1.1574041381,1.0499725653,-3.5764279471,-3.7406437328,-0.8740273776,-2.8213894448,-3.2785051573,-2.7042726026,0.0518900936,-2.7158675218,-4.5354415545,0.7437213404,-2.4634406156,-0.5635477025,-0.6037354655,-3.75808483,-0.4708220466,-0.7893904059,0.6586257493,6.0241080574,-6.8236918239,-3.8761521259,-5.5684524994,-1.0479740201,-6.8643058276,0.5912071937,1.0267703671,-4.6412565773,-5.551135323,-0.5849721752,-4.9019416814,-6.3255199308,-6.6980056599,0.5394972061,-4.0282605637,-4.4183001933,0.4642875126,-6.2789599304,1.0439691861,0.3831633432,-5.675335193,-0.5836094097,0.1218645648,-0.7532777193,-7.7382352277,-0.1336986314,0.9549675428,-3.440929865,0.77332239,-1.9596390962,0.1561264782,-0.3886236392,-2.4962611994,-1.2997431159,0.2253781627,-1.9062136392,-0.3265078154,-2.6338854426,-0.4946227983,-2.3727668839,-0.3804191257,-0.6981333202,-1.288413326,-0.1147684709,-0.3614114162,-0.6113923073,-0.0197967738,0.529518126,0.048119339,4.2258194652,-0.4320872904,0.5486105932,-2.4372609194,-0.2186125635,-2.5881852309,-0.8372880622,0.9105790294,-1.0380694702,-1.1765387542,0.02965088,-3.0302345652,-1.0467419451,-0.2382242592,-0.0472076359,0.02700257,-2.0892847718,-0.7767085922,-1.0603262025,-0.0135454867,0.2211712796,-2.1590431387,-0.8617365768,0.3172842262,0.3345528815,-0.1552542859,-7.5602727027,-8.2474829631,-5.6299760093,-1.9941860481,-6.2693906943,0.3984926121,-0.7871412994,-6.7204812447,-6.8957328839,-0.3690803382,-6.5016388657,-6.3577740942,-6.2076117846,0.1745449244,-8.1689459237,-5.7269012331,-0.1158973355,-7.3451874681,0.4255609951,0.9122918358,-6.6840152569,0.351024092,-0.7991759142,-0.1516965672,-6.4759928828,-1.1163444598,1.0648251062,-2.6639811307,-1.795936016,-0.877840551,-0.6082044026,0.3651000082,-2.5731087067,-1.8048089098,-0.4738988543,-2.636904485,-0.5854190536,-2.0115117029,-0.6485978699,-3.3897757567,-1.4682072662,0.5058790763,-1.7597577815,-1.2473900156,-0.1177886779,-1.0482391507,-0.1663964538,-0.1122097885,0.3265391379,3.2929556214,-1.1604119724,0.7529055525,-1.6265174428,-0.8615904147,-1.508071628,-0.6242880977,0.1777234941,-1.0408196157,-2.8918651821,-0.8066781971,-1.7247235947,-0.611594634,-1.6674419837,1.425858603,-0.2265489743,-1.7427034547,-0.565437505,-1.4221541013,0.4855550559,0.826134183,-2.7131340901,-0.0839736357,-0.2693718838,0.6378724596,-6.299465049,-5.4733014852,-8.8818197693,-5.834131808,2.3243256678,-6.6991356334,0.58750804,0.3727523448,-6.0819856826,-6.5673690557,-0.2803838383,-5.9357864556,-7.127247414,-7.2166311148,0.5033196414,-7.6323448643,-5.7653337909,-1.3815828762,-6.0111896388,-1.4324211065,-1.1968145994,-6.5354973782,0.0379958799,-1.0463588531,-0.6024490513,-6.9627839008,-0.4293301998,0.9640337636,-2.5525075515,0.8534641831,-2.9149679163,-1.1954928941,1.5309521246,-0.5562484633,-2.0871479288,0.468363067,-1.93780612,-0.4861641321,-1.1132263431,0.1282907221,-0.2536093481,-2.048941849,0.5263886796,-1.0842394499,-0.1173903306,-0.2629731016,-1.4094958416,-0.37674116,-0.0530352762,-0.0817247687,2.3687312787,-0.6062557901,1.1928172882,-1.679403574,-0.3202559564,-1.4243301432,-0.4820063634,-0.9577804913,-1.1276509439,-2.1499928634,0.4226783977,-3.2592725732,-1.4636280219,-1.7430532238,1.2190955628,-0.4205251817,-2.8692716047,-0.6963860581,-0.7680142341,-0.4863868442,0.4352698918,-1.5807789472,-0.4708455197,-1.0038447546,-1.058739555,-6.4668637293,-5.885363229,-8.3536681785,-3.422202867,-1.2136892814,-3.7867994665,0.1665858109,0.0533758761,-4.9932569533,-5.7290020239,1.0828305543,-5.628946686,-5.4071833924,-6.3506111564,-1.4316564966,-5.5671301807,-4.5713511338,-0.9429167606,-4.7303095006,0.6630520024,-0.2226399556,-4.709528323,-0.5999012978,0.6575312901,-0.7588061775,-26.3153741808,-7.0815623553,-8.1859466216,-4.5744243969,-1.2796042514,-5.850918337,0.5828613261,-0.8184386092,-5.5677025371,-5.7061208265,-0.413254962,-5.859028152,-6.6670779241,-7.0212051174,-0.5198755429,-7.3120808427,-5.4612680285,-0.992375631,-7.0041536536,0.4597430719,-1.3260697362,-5.2027556395,0.8298065352,0.3406522355,-0.0102805902,-6.5667333872,-6.3539236786,-3.2020025725,-5.4695247019,2.252080974,-6.3477849401,-0.7446887343,-0.0133791929,-4.8979079862,-6.4232921616,-0.0869995743,-5.1492192347,-5.3110162558,-7.289099279,-0.9928856635,-5.5964111617,-5.3224415657,1.3975087596,-5.3571217156,0.9394714275,0.6072416352,-5.6500567467,-0.2492958106,0.4148151917,0.0017514641,-7.3555614696,-0.0401716263,0.6831256944,-2.6100332312,-0.9076829998,0.7072409838,-0.7490437541,0.3278193157,0.0554712913,-0.1385031894,0.4647487312,0.5957945722,-0.0986780884,-1.6815704033,0.2824476036,-1.4813708807,0.5038809018,-0.0734855651,-0.3685194255,0.8040277832,-0.5910826904,0.7633497426,0.258541203,-0.4635908557,-0.058458,4.9473812752,-0.6926431957,-0.0056998174,0.0125499664,0.6011791821,0.5073136675,0.4729875019,0.6877017225,-0.7061481037,-0.4285894418,0.6029530063,0.7706613062,-0.3103390477,-0.077894186,0.6335208323,-0.3576802592,-0.0620298295,-0.8390024602,0.0585209929,0.7499612471,0.4838371806,-0.064984882,0.0930887023,-0.4030033853,-0.0869241671,0.8030528446,-0.4354104644,-0.1816850155,0.8926272059,-0.8280506485,-0.3346270979,0.9810601821,0.3020845085,-0.2597929782,-0.2016633448,0.2811176532,0.1864157473,0.1696503136,0.1093450004,-0.8573652953,0.7900398448,-0.5885891273,-1.0627444011,-0.4233711333,-0.3896660442,0.0389050724,-0.7460404937,0.4600920766,0.2951578608,-3.2434058639,-0.7664101029,0.0697853276,-0.4864160278,0.8354335247,0.9959368595,-0.049893286,0.9627946202,-0.395410481,-0.1807063851,-0.3438599666,-0.9963223756,-0.9068096471,-0.7298306524,0.0988552995,1.6593615354,-0.2470774852,-0.9947689326,0.9849757382,0.3106577119,0.2014947241,-0.559802521,-0.2498343517,0.3172114115,0.1669192504,-0.9166070335,-1.1237312888,-0.353385503,-0.7552519852,-0.6634607137,0.0333677878,0.2369704049,-1.1940395187,0.8530415799,-0.2047492658,-0.2815197696,-0.0821598111,-0.5201111964,-0.0669383936,0.1525108593,0.5004351127,-0.8865939737,0.0064846402,-1.0547803365,0.4129235766,-0.3875272378,-0.4623243967,-0.3129930726,0.3137845862,1.4586453356,-0.8390443662,-0.5980118291,-0.8427115873,0.8710355822,-0.680300342,-0.7426939697,0.1441725427,-0.1743846171,-0.8115823608,-0.708740664,-0.573835466,-0.0156548236,-0.7121221623,-0.4796717003,-1.6258619555,0.8303641117,-0.4904794639,0.872699727,0.7903226109,0.784081028,0.0749390283,0.3215787278,-0.465377379,0.8457230432,0.5138834079,0.192220836,-0.567954192,-0.2389019179,0.1158122852,0.2157705955,-0.7251561136,-0.2167776802,0.8442549112,-0.6443970628,0.5001614842,-0.2334374927,-0.7964127055,-0.0389799534,-0.6999209261,0.0330689034,-0.8968936631,-1.2019661561,0.1090392068,-0.4520678491,0.8495899425,0.7556789761,0.7505983103,-0.2042552974,-2.72276623,0.6386338705,-0.0312949609,0.2554316776,-0.8204655012,0.956035548,0.5009703696,-0.0219518584,0.3264796712,-0.3354511722,0.3701713484,-0.7079240093,0.7370350168,-0.5930648007,0.7611506635,-2.5260302175,0.9627519725,0.4697928165,-0.3844029861,-0.8465902706,-0.8453648625,-0.3925573584,1.0145885095,-0.1204001957,0.0055409022,0.354531278,-0.0447476659,-0.0902726021,0.1955380996,0.2616197713,0.1201333011,-0.2185574198,-0.0759943305,-0.2060900616,-0.6207535978,0.4244212981,-0.0285581532,0.8238900307,0.2851096292,-0.5713821234,0.6686044957,0.4511061458,-1.0357239536,0.7122294454,0.526486453,0.8794443514,0.3695451037,-0.0105401951,-1.0527848432,-1.445831697,-0.8601380153,-0.2457138046,-0.6596110875,0.9467634274,0.2616910769,0.4137118507,0.1038547708,0.2345618527,-0.8859169581,0.5541206432,-0.1502872654,-0.5650527557,-0.7826031211,-0.3271304651,-1.0397876375,-0.0565269079,0.7427257835,-0.7469526426,-0.4608608717,0.3134369281,0.3591809289,-0.6288884436,0.2753434857,0.8413090874,0.8075939964,-0.7161274343,-0.2081173413,0.749609528,-0.9798361183,0.3190625403,0.2736044023,0.3306616513,0.2339540662,-0.1020263404,0.3610617989,-0.4500290399,0.9168073901,0.5986686995,-0.0294517292,-0.0280508613,-1.0121382286,-0.4120960109,-0.4969024766,0.5398442541,0.4858811531,0.8424127878,-0.7213987613,-0.2651833064,-2.5672626227,0.7997424358,0.2487536864,-0.1635962481,0.0334663302,-0.7434801087,-0.6772216464,0.3816441944,0.4226827374,0.3833721515,-0.3113021195,0.5473725008,0.7864628835,-1.5652938537,-0.4171520263,-0.5877412506,0.631245477,-0.5984862502,-0.6890375151,-1.0351431915,-0.5688241262,-0.9898213221,0.2300337319,-0.9618338167,-0.6037847438,-0.901734191,-0.7242925501,-0.2944022357,-0.5851799704,-0.666203993,-0.0079892616,0.9184358885,0.0925743159,0.4537227392,0.2205526839,-0.5721629336,-1.1058653893,-0.3463338018,-0.7076272247,0.0334653236,-1.2329283031,0.1912256945,-0.0679843423,-0.1950109561,0.3364907809,0.4697835848,-0.7178984867,0.3140301736,-0.2689639296,-1.2533081942,-0.9541022028,-0.802790962,0.0074963298,-0.3237565636,-0.0456907382,0.2878337794,-0.8801162318,0.3625864214,0.5271076227,-0.6806223416,0.0312791982,-0.0274104265,-0.8750088961,-0.5669953738,-1.0075330213,0.9423975152,-0.5054916483,0.0892370097,-1.0377733556,0.0017892092,-0.9426097243,0.9087211362,-0.0576097097,-0.0530969269,-0.3634072856,-0.1881043963,-0.2040426345,-0.3769737173,-0.3141285147,0.4266448523,-0.1457153833,0.7311910082,-0.2978376173,0.9662945779,0.1657784839,-1.1589679914,-0.1954178011,0.0000863546,-0.9605890784,0.6048575068,-0.9990593766,-0.308675482,0.6646217004,-0.9123701851,-0.7684233002,0.8267130131,-0.9055701575,-0.8620714316,-0.1459281266,0.3567587786,-0.0978323609,0.7890501985,-1.0426457555,-0.9497263459,0.0265487874,-0.5268749516,0.2796764615,0.0802248039,-0.1527974796,-0.4245035923,0.9421712438,-0.0930256292,-0.0000680638,-0.3727510353,0.6508548603,-0.0620463577,-0.4993480117,-0.0813761692,0.0453673376,-0.2953889047,-0.4338725526,-0.5140033787,0.8119195227,-0.8913552014,-0.562634871,-0.0763241396,-0.0619000291,-0.3528411493,-0.4686481872,0.3342120378,-0.6217786569,0.1660127066,-0.4824015923,-0.1183225905,-0.5980545268,-0.2805462858,0.5905582035,0.3451138168,-0.2057225562,-0.4324799033,-0.386628445,-0.9163060695,-0.5264886047,-1.1817629894,0.7103478917,-0.0898567269,0.9817384922,-1.7309967453,0.8145424947,0.6938633597,0.7771829007,0.3656496255,0.5866712225,0.8079686218,0.6707944694,0.5295313153,-1.007561833,-0.0221946039,-0.2876086279,-0.4365349249,0.1224207617,0.1165304706,-1.2167473533,0.6080891736,-0.879128355,-0.6730631558,-0.0805595474,-0.3024024524,-0.5059014179,0.0014806425,0.2053790839,-0.1623984897,-0.8513326053,0.0445635059,-0.0715793615,0.9667398275,-0.3612962586,0.6613274732,-0.969772757,-0.7992710798,-0.417408744,0.9986291546,0.5995967466,-1.1321895926,0.5460983988,-0.6906662425,0.0082435684,-0.8964196153,-0.7356810997,-0.0533909084,-0.6337533172,-0.7164178468,-0.6040953107,-0.1232900523,-0.063470383,0.4919533803,-1.6658199246,0.5084416977,-1.0019681629,0.6620132882,-0.0090633915,-0.8855794708,0.3726836403,0.156200755,0.1221446722,-0.7755645817,0.5863521487,-0.0600884202,-0.6937450466,0.0279305251,0.3973970304,-0.6862169283,-0.1697726002,0.0038498393,-0.0687226347,-0.4291738207,0.8428818561,-0.503742852,-0.4635911922,-0.452916388,-0.7026974848,-0.4107760271,0.5699283463,-0.6448239312,0.110827614,0.0482958281,-0.6754452738,0.8351071354,0.3611506985,-0.3185746273,-0.2613801272,0.1874345225,-0.2146073664,-0.4603709064,-0.2464962248,0.4189854975,-0.4466513915,0.6280017898,-0.9979390989,0.6961612196,0.6794034763,-0.7330340907,-0.5997699551,-0.9995340216,-0.5498401056,-0.3395373045,0.9472403113,0.3501578525,0.2100892665,-0.2196462098,0.7064328516,-0.7917712883,-0.1226750002,0.0305987807,-1.0531058061,0.9015165855,-0.5350235764,0.6012839149,-0.8339136344,-0.7094996003,-0.0171051779,-0.0875912087,-0.0473497553,-0.7271627147,-0.090715513,-0.2521665317,0.2849260743,0.5375895142,0.1886517359,-0.095063902,-0.4313560347,-0.7081788169,-0.0795931467,-0.3479724175,-0.0452997254,-1.6146304562,-0.8483119914,-0.2105212464,-0.2936681596,0.8203142402,-0.5590565635,0.0811053326,0.9144786873,0.0969234497,0.4505604641,-0.8550445919,-1.1848075835,-0.1134256561,0.7403453059,0.5702796339,-0.3023451621,-0.436122924,-0.7436122449,-0.9378811894,-1.6042508707,0.9142639906,-1.0313071838,0.1180314464,0.308986356,-0.8815274427,0.6398190363,0.0584336176,-0.0936806721,-0.4322110548,0.8915465374,-0.5126509277,-0.6922018745,-0.0006586159,0.5016622491,-0.1276079204,0.8032085954,-0.805204534,0.296075529,0.3872161874,-0.4541097128,-0.038327346,-0.4456267781,-0.6552091542,-0.4403895666,-0.9585877218,0.525408152,-0.1173438053,0.6851803542,-0.2813253572,-1.4846224535,0.9898988493,0.8547369631,-0.6572911174,0.6463739128,-0.0620497582,0.2314711709,-0.0287479879,-1.0951189033,0.5415181694,-0.1161730599,-1.4355009629,-0.3116627264,0.414637615,-1.0404644926,-0.2888681832,0.2581646212,-0.3774233613,-0.8142622421,-3.3439505217,-0.5391390628,-0.3977844184,0.218460726,-0.3615772414,-0.1557798347,0.1753753823,0.4582320431,-0.5812847807,0.1971971913,0.8345834669,-0.8903359096,-0.4724483283,-0.6024477893,0.0665752532,-2.5639336879,-0.3489556023,0.6591871229,-0.3523653949,-0.1341629292,-0.2159976088,0.2428595008,0.4692132132,-0.7507525262,0.324353073,-0.1062706857,0.1075306774,-0.2784884421,-0.3584020301,0.0312219445,0.2245542447,-0.1072940177,-0.0860606723,0.762098548,0.09043115,-1.0596761517,-0.2755059457,0.5046922046,0.3791555125,0.2486703412,0.9059035316,0.0310215733,-0.0635364068,0.3433803511,0.3739962431,-0.5420461972,-0.6432925061,-0.7735581474,-0.2033130565,-2.8379695042,0.6749215854,-0.0697199827,0.0774341111,0.8544559182,-0.3196869182,-0.7798737114,0.6523084393,0.4278543094,-0.9034499186,-0.9465855895,0.3380553006,-0.7824195062,-0.4930675973,0.7921122903,-0.8353170721,-0.3724857194,-0.8514760507,-0.1539545432,0.4438119419,-0.7357088299,-0.5275702001,-0.8270058998,-0.9058081435,-0.5746513693,-0.7025840447,-0.3813588752,-0.7311612266,0.9979985919,0.8755363676,-0.4393320884,-0.2742215672,-0.3860358973,-0.6334541651,0.3814459414,0.3540954409,0.1694668858,0.376184832,-0.2454808335,0.4347793348,0.5372397016,-0.2955138272,-0.769685054,-0.5868252113,0.6309026868,0.6722438839,0.915792541,0.143649913,0.5462370518,-0.3992617548,0.364641979,-0.0217053764,0.2718419661,0.6368030171,0.5513717354,0.602078726,0.613388139,0.1631786967,0.6816786776,-0.6403162993,-0.3585985883,0.8164780493,0.1830725203,0.5144958308,1.1586123648,-0.945269241,-0.4783855656,0.2366214551,0.619002203,0.1766296091,0.6194811332,0.7172759399,-0.3270036711,0.1856291638,-0.8638293334,0.484710129,-0.4121491795,-0.5779579435,0.4043097075,-1.0409897957,0.6865383387,-0.353124161,-0.2244728454,0.2239337381,-0.9153649785,-0.5681145725,0.1896677245,-0.4963667537,0.4736377473,-0.3123681123,-1.1366249202,-1.1765700932,-0.6358595962,-0.3383808582,0.9596914348,-0.4531442504,0.1963735354,-0.9608555821,-3.541410851,0.3645823434,-0.5443541423,-0.4143888644,0.0598015187,-0.558944515,-0.7228205898,-0.1184940284,-0.3766022478,-0.7871431444,-0.8427637529,0.0237726905,0.3712863742,0.1230740417,0.3327770375,-1.0225684839,0.8864039227,-0.7252707065,-0.2373827541,-0.9821254903,-0.7001269577,-0.3608010681,0.1961954822,0.26972168,0.6833937526,-0.9126111613,-0.3988413882,-0.3122847521,0.4339473778,-0.1172189477,0.1684548612,-0.9239770511,0.3601367506,0.4524477602,0.7165587697,-0.2454703048,-0.1596462282,0.2292927803,0.58260174,-0.8996858966,-0.5168988299,-0.6355217336,-0.6196868549,-0.1034626313,0.6048570386,-0.922913437,0.1567419636,0.8005942198,-0.9709166877,-1.4246722657,0.7620607283,0.6519955807,-0.9041467374,-0.9933738711,0.941429539,-0.5902894101,-0.101672923,0.2904948718,0.4718431915,0.5438104201,0.1198793578,0.1772121141,0.6622468073,0.5177747353,-0.6829070133,0.6231613039,0.0201347406,-0.7715825644,-0.941233954,-0.3715926741,-0.0467716642,0.5617811867,0.1108189461,0.0548594671,0.1132543139,0.4155659938,-0.6557032334,-0.014186246,-0.2093992669,-0.1311014681,-0.3973391108,-0.8634674493,-0.2477060959,-0.8603393314,-0.2640301914,0.8011967837,0.2109650256,-0.5268431784,0.2374674064,0.1118160146,-0.0160730677,-1.2573215932,-0.9470751471,-0.3243197334,-0.7015910938,0.0852655314,0.5716464582,-0.7536758642,-0.263096135,0.9445229947,-0.2716561613,0.0143730325,-0.4664935838,0.9561100183,0.4638784359,0.6260472576,-0.7104597543,-0.3859507064,-0.6203388481,0.1709294314,0.8786400153,-0.1954881631,0.2450885742,-1.7717710588,0.9745650337,-0.9909201075,0.9185019323,-0.282886863,-0.7042779774,-0.2039226277,0.8759743909,-0.7801975214,-0.8432263064,0.7822899277,0.346713262,-0.0704324651,-0.1734064844,0.0082155782,0.4979916853,-0.1506256481,0.5559076147,-0.2500585397,-0.3548556379,-0.1027387977,0.3206912093,-0.689348211,0.5844633583,0.1461096968,0.0852280414,0.202067484,0.088852618,0.3326968645,0.9262392538,-0.5236900657,-0.1612438342,0.6799901657,-0.6809169285,-1.9145897232,-0.4251473643,-1.2529743617,0.2847166481,0.4065678909,0.0441016455,0.8817680521,0.7120735067,-0.7829486394,0.5037605489,-0.247796209,0.5118357763,-0.6459168756,0.4986670898,0.0109384647,-0.3978207614,-0.2912964994,0.5802582694,0.6007113107,0.4163523201,-0.6407696551,-0.4730761935,-0.4140278836,0.5883763732,0.841826104,0.79290704,0.6107661853,-0.4999788143,0.4700523858,0.7190655765,0.3288376038,0.6046042207,-1.0777432045,-0.2060220676,-0.534792806,-0.7488908853,-0.7368267468,-0.8542646832,-0.360140446,0.5542582185,0.2095218121,-0.0199809235,-1.173624072,-0.7889976321,-0.2184989635,-0.3972955768,0.379754503,-0.142453294,-0.6758668789,-1.2152210071,0.3552723491,0.6356512974,0.6699339208,-0.006349643,-0.2219205368,-0.5140152387,-0.4764084287,0.0508714222,-0.690491487,0.6349247496,0.4649443732,0.5226212448,-0.5668154475,0.7084872616,-0.059120376,-0.8145071966,-0.4999963074,-0.3003912555,-0.8538411884,0.7748649785,-0.4061738488,0.5571622428,0.1321354257,0.7122316697,-0.3379095297,-0.44975366,-0.5484707793,-0.7929870892,-0.6544447793,-0.2503354813,0.3523783467,0.2264115076,0.5241992297,0.718531254,-0.7843622217,-1.1942512582,-0.9897275718,0.8465980847,-0.7502327686,-1.1302366765,-1.7039882489,-0.0060090752,-0.7035632662,-0.1089650128,-0.7745960464,-0.6609763895,-0.4224005581,0.8728468655,-0.7447650601,0.8925643902,0.1178877359,-0.455679866,0.0952956181,-0.5708969604,-0.4439530464,-0.9284020591,-0.0899534363,0.1244436469,0.8610981136,-0.6630103442,-0.8681273445,0.6480611252,-0.3474177318,-0.024158607,-0.6104574816,-0.0812609716,0.1371369638,-0.942510297,0.3227256371,-0.0835069115,-0.1423893808,-0.4864109999,-0.9834810102,-0.6598133116,-0.2559499005,-0.1019779719,-0.5203295273,0.3653982161,-0.6683084406,0.2324166886,-0.3104585877,0.0876905833,-1.0533071134,-0.4983479298,0.2865140074,0.9715508367,0.1178897526,-0.0315909774,-0.8978476362,0.3043588245,-0.6085341999,0.3426603361,-1.0549080854,-0.3817336034,0.6069170163,-0.5268546056,-0.8756357193,-2.1226346692,0.5232081854,0.8785472098,0.3341617436,-0.592323465,-0.0188925181,0.9768652981,0.7388676769,0.2403053282,0.4034128127,0.7769007236,0.8834971509,0.4909898658,-1.246112498,-0.5583253268,-0.9670380471,0.6454576741,0.0301327431,0.1220284128,-0.0210549439,-0.3724290358,0.3122191068,0.6082294557,-0.5405361628,0.6488177824,-0.4301990814,-0.6573678718,-0.591263611,-0.546990149,0.8174431827,-0.0219676453,0.9256820096,-0.0354430606,0.7257046099,-0.7498338473,-0.2367425418,-0.84050374,-0.5533891445,0.186220502,-0.721694458,-0.790377182,0.3440748118,-1.2540236366,0.5262709618,0.3847699532,-0.7532963686,0.4906254393,0.564922978,-0.585957184,-1.4483428076,0.7829154328,-1.034269352,-0.2082612867,0.8751289822,0.8541951911,0.5393754816,-0.977694656,0.4979720819,-0.9617359359,0.2833371771,-0.4347062513,-0.4717609436,0.49884623,0.0100747781,-0.6667814309,0.8240858063,0.2320560086,0.7084978682,0.4957009911,-0.6819818056,-0.4158112492,-0.1267454349,-0.6104586947,0.0086600669,-0.694786077,-0.7992401553,-0.9580077879,-0.9777379997,-0.5842230169,-0.5957802479,-0.4132433991,0.7403685389,0.5363505326,0.8085049747,-1.0992985996,0.183214581,-0.0776905828,0.1656635971,-0.8015096469,0.7986745084,0.1442082617,-0.8013787977,0.1201673655,-0.8681385442,-0.8443483289,-0.5759914967,-0.153869449,-0.3316683166,-0.6984649121,0.0390294072,0.3982111817,-0.790157311,-0.9271370219,0.6516445479,-0.969684231,-0.4021803119,-0.8605950609,0.761399151,0.3172748913,-0.7002988892,0.5641060692,0.4312521028,-0.0945617145,-0.606100989,0.9212027925,-0.2430697722,0.8096062462,-0.498065029,0.0780464247,-0.0869944616,-0.205415292,-0.5794764428,0.2192939149,-0.8181223996,0.7411012793,-0.9626903606,0.0199223348,0.2745364557,0.0204692387,0.996339925,0.6506613018,0.2631626643,0.126883432,1.1079124482,-0.2849453137,0.0752757021,-0.0950856869,-0.0415168846,-0.8264331865,-0.3352059175,-0.1027117632,0.0251892232,0.7343154656,-0.9752448919,0.5950314044,0.8473947132,0.805903039,-1.5256110921,-0.0448367032,-0.8708023234,0.6767072829,0.3139711516,0.3571380137,0.2034191767,0.4825739227,-0.7110643896,-0.5696571,-1.6659853459,-0.271392809,0.2377269484,-14.8716746973,-0.2316636009,-1.6441610972,0.4268912779,-0.3411179585,-1.222119495,-0.4445665791,0.0622637568,0.3066768433,-0.1656521684,0.3458581987,-1.2374502079,0.9113267562,-1.2293118228,-0.1260195711,-0.8940330992,0.0636621952,-0.5721310331,0.6887829127,-0.9309069947,-0.1120320141,-0.6228279303,-0.2345138428,-0.5680598766,0.0496570211,-0.7782341354,-0.4355187381,0.5003818553,0.1224744749,-0.5460653592,0.7347251481,0.5229958241,0.4765633044,-0.0455000503,-0.2609091379,0.177834179,0.9902704194,0.4190516339,-0.3003703322,-0.2559202472,-0.1425711902,0.0739143743,-0.5205055356,-0.6545121997,-0.0563290844,-0.7166747191,0.6832930451,-0.7292102687,0.9070545852,0.8090167547,-0.7630791017,-0.0188637402,-0.2252441572,-0.1506377884,0.021990245,-0.2247430609,-0.811188242,-0.1805535347,-0.4517056208,-0.1149100986,-0.4649891096,0.0288592047,1.293090564,-0.0931960315,-1.1585482384,-0.7276464063,-0.8313695876,-0.5509662341,0.3392981803,-0.1949505983,-0.798654638,-0.9551063623,-0.8137660589,-0.4120110042,0.1828453037,-0.2207263417,0.8393833584,-0.4365577463,-0.1741978365,0.0125057551,-0.5863057116,-0.0214574981,0.2814314364,0.8620553463,-0.2668255873,-1.0952679078,0.0763051932,-0.7996020321,-0.8721168686,0.9544802433,0.6300093178,0.1213343822,-0.1645526306,0.7073538602,0.2312700436,-0.0198169687,-0.0347677065,-0.9119323437,-0.2631726565,-0.2858481453,-0.6021164988,0.1283401186,0.3673572062,-0.1530612587,-1.6960053816,-0.7148190574,-0.5233096082,-0.9968814933,0.4253537973,0.8037180204,-0.5674296252,0.4317969094,-0.056527187,0.4842510104,-0.8135376998,-1.441329458,3.0314254043,27.9358889873,40.2305696755,-23.2625676869,-2.9223656251,18.6099625904,-1.4268574495,-0.4607297282,-0.2672971288,-0.806557672,-0.192024463,-0.5599720865,0.8277335148,-0.1699122229,0.0280267654,0.5872270398,-0.095208944,-0.095835673,0.292721888,0.8806810766,-0.9015583321,-0.0491843722,0.4801036135,-0.575041448,0.386622059,-0.297915463,-0.7053637181,-0.4730977347,-0.9189290787,0.4178273223,0.3504238072,0.2923529248,-0.6615811555,-0.3826095733,-1.3325662597,0.1411080312,0.1551025695,-0.1508537078,-0.2873763091,-0.0660798812,-1.0285272861,-0.5235331431,-1.3481510589,-0.8201236238,-0.6574300411,0.4191208951,0.6019764004,-0.6586054657,-0.3426489516,0.9916568227,-0.9407071303,-0.7332080728,-0.0339653651,-1.0508351768,-1.5959920192,0.2905080822,-1.0872171226,-0.5587682873,-1.1291753316,0.4840548313,0.0257681242,-1.0251251855,0.0643169599,-0.6530947761,0.02798757,0.0226768402,-0.5520430601,0.8547137832,-0.2656952163,-1.2827295153,-0.012713148,-0.8491700546,-0.4975746529,1.0513966152,-0.9852462285,-0.5820917946,0.2728716181,-0.5408675877,-0.5559828088,-0.0467926088,-0.4315869812,-0.0041826044,-0.7845763832,-0.6490209374,0.2055751803,-0.1204198141,-0.196960613,0.1597806294,-0.0283541467,-0.4401028742,0.1328714833,0.9499361089,-0.9471710552,0.8614961332,-0.9555867981,0.5121185543,-0.6128977724,-1.3025736397,0.1231609064,-0.6054405817,-0.4285484497,-0.968788934,-0.2308702356,-0.463073874,0.3291434977,-0.373740969,22.2398785795,-9.5087402992,-86.4338668716,35.5032275728,-15.6547825896,-48.7181839961,-22.8364184034,31.7635837281,1.6592480169,-0.3835045718,-0.0378611556,0.4912579372,0.1664889447
   0.0106149536,0.2635150387,0.7217395093,-0.5765954214,-0.5641152946,-0.682127349,-0.4667645548,-0.0719172224,-0.2082953996,0.7425608811,0.8388288553,-0.5556696996,-0.1261631096,0.8222651419,-1.7625978188,-0.7733005815,-10.3546190833,20.3681703475,-24.12589382,-24.036823086,-6.3045294281,-28.9078940625,-0.3167858322,-0.42149496,-0.8903060295,-0.3899585047,-0.5331538644,0.9520059807,0.3509774415,0.5612876342,-0.8146476323,0.6696071681,-1.4688612014,0.1545653482,-0.1610595352,0.0660774929,0.4852807472,-0.3788069815,-0.2244294225,1.0802910558,-0.8528750569,-0.0889649218,-0.7425938465,-0.7237976695,0.5271005609,-0.1826016933,0.1527614204,-0.3720747712,0.7167720543,-0.9703334976,-0.5023345902,0.0726261745,0.0108654027,1.2444916369,-1.3923770042,-1.6540741846,0.2100599881,-1.7265430006,-1.2932912763,0.0108062073,-1.1260144957,5.5214560246,2.2333815976,-0.3813305043,-1.1997429965,-0.7930654258,-0.365171765,-1.4440922515,-2.1970709709,-0.6899297941,-11.1979663458,21.248840431,-8.8205720716,-20.8742599144,-1.7483830417,-15.9206434311,-0.7468110084,-0.4859663554,-0.0836862833,-0.0111898103,-0.6021047052,0.2522519767,-0.0564224571,-0.0641299505,-0.5500813633,-0.2949673878,0.0116983234,-0.5256418968,-1.3804323214,1.257289786,0.0153088069,-1.3556218846,0.3981941528,-0.8828611389,-1.0767640514,-1.3215433872,0.0891569026,-4.9243696048,2.3937670836,-16.0345588306,0.5703523005,-0.1584121435,0.5849692666,-0.7323977956,-0.3665061353,0.032803969,0.2305653719,1.0167922144,-1.3496288177,0.2202194612,-0.9991649768,0.8864717327,0.0642778747,-1.2730772272,-0.8863182169,-8.1362363832,15.4889689029,14.3593076924,-15.9293590594,-0.2914888883,-0.0256023547,-1.0634849958,-0.8624997997,-1.1683847709,-14.9743192052,16.2349507284,14.7625157453,-7.0780927766,-1.9508413627,-14.6859127651,-1.3409661797,-0.4089145543,0.0489259535,-0.3121622031,0.0206124617,0.0891384092,0.2899598391,0.724856075,0.357545805,-1.3055114745,-0.9521062044,0.1392853868,-0.0502381709,0.1488184726,-0.6844130104,0.5026746502,0.298967324,-0.6128892169,-0.5164671611,0.1541920399,-1.1287443019,0.3779743099,0.3678752136,-0.2253243408,-0.87810576,0.2365043338,-0.6244052289,-0.8882930619,-0.8825527719,0.068064872,-0.8092658968,0.4791748864,0.3410569243,-1.0571132447,0.0775263794,0.6261279377,-0.4340470719,0.0244324673,-1.2847687978,-0.7171523686,-0.3966361438,-0.0372717812,-0.2856585094,-0.6752584987,-0.319319381,0.2157529786,-1.6246643366,0.195643751,-5.1657563805,5.8062061123,12.0399533065,-1.0803063057,0.524677069,-0.9726303045,-0.9717733599
##end
biasActivation=0,1,1,1,1
[BASIC:ACTIVATION]
"org.encog.engine.network.activation.ActivationLinear"
"org.encog.engine.network.activation.ActivationReLU",0,0
"org.encog.engine.network.activation.ActivationReLU",0,0
"org.encog.engine.network.activation.ActivationReLU",0,0
"org.encog.engine.network.activation.ActivationLinear"
