encog,BasicNetwork,java,3.4.0,1,1524773826287
[BASIC]
[BASIC:PARAMS]
[BASIC:NETWORK]
beginTraining=0
connectionLimit=0
contextTargetOffset=0,0,0,0
contextTargetSize=0,0,0,0
endTraining=3
hasContext=f
inputCount=8
layerCounts=1,25,49,9
layerFeedCounts=1,24,48,8
layerContextCount=0,0,0,0
layerIndex=0,1,26,75
output=7.6763354789,0,1.7315918054,0,0,1.1257648537,0,0,0,0,0,0,0,0,0,0,0,0,0,0,0,1.9550831359,2.5898161398,0,0,1,0,0,0,0,0,0,0,0,0,0,0,0,0,0,0,0,0,0,0,0,0,0,0,0,0,0,0,0,0,0,0,0,0,0,0,0,0,0,0,0,0,0,0,0,0,0,0,0,1,1029.3839210707,826.7765894908,2.1461460488,-1.0116261722,0,0,0,1,1
outputCount=1
weightIndex=0,25,1201,1633
weights=0.0374989375,1.78458317,0.0271147703,-0.0935655375,-0.9648461365,2.2056264542,0.0477826372,0.0503669342,0.0706088111,-0.0953971952,3.4072136801,0.7528281015,0.0060363195,-0.0003837606,0.0299998093,-0.0690222621,0.0868161606,1.5915279574,0.0300114815,-0.034615017,1.9591856662,2.6204850151,-0.0626048917,0.0873376429,-4.1043638937,-0.0505271806,-0.585017833,-0.6953311864,0.8386322995,0.2351338298,-0.1282609886,-0.9325272248,-0.488871715,-0.2207775192,-0.2733532702,0.3140552711,-0.456010123,0.6885008098,0.2938861837,0.353869054,-0.3530310643,0.1452743086,-0.184566181,0.4280160067,-0.8607534605,-0.6984103176,-0.5248336694,-0.3612665412,-0.5530366307,-0.0865284367,0.6733727788,-0.6265764288,0.3669405728,0.004722736,0.8524710595,0.8287574797,-1.1272469685,-0.7228811023,0.6652447766,-1.00689495,-0.9024205338,-0.7384126388,0.6857070646,-0.7896241679,-0.1858846791,-0.9549177864,0.6401790564,0.1594382268,0.0804262425,0.9238179665,-0.3731697288,0.2737665342,-0.3462374116,-10.4322948714,-0.4353584838,0.8878621382,-1.0396296769,-0.5413636948,-0.2325353697,-0.8830180103,-0.5652181828,-0.4540703459,0.0249480073,-1.1334926618,0.3375146151,-0.9928246764,0.9197383008,-0.0885402877,0.1826906296,-0.9681948406,-0.7126065707,-0.2241157127,0.9635915882,-0.9526720186,0.8766738147,-0.370582757,0.0942699229,0.1547050718,0.8742645724,-0.8403093002,1.0849350684,0.0373341172,0.9649736858,0.5885990519,0.532229506,0.2311369735,-0.1971072089,-0.4750391291,0.1412131705,-0.3434623814,0.7393730353,0.3155389507,0.5822361387,0.062000756,-0.1812154429,0.9134946684,0.8877748611,0.7676087402,-0.1313658466,0.5049751421,-0.145760867,-0.0331991449,1.8315918054,-1.0220207793,-0.5456421878,-0.7906281832,-0.0042352075,-0.511058149,-0.8262328844,-0.2388453161,0.9086493139,0.550430013,-0.4604693889,0.0586465421,0.2050611755,0.1767465748,-0.8507707182,0.6542293947,1.1397168209,-0.4766537863,-0.8604408897,0.8349212544,-0.4957664771,0.9457909126,-0.2477471826,0.8058593856,-0.736826782,-0.2292259524,0.8329413902,0.5251282131,0.4369836069,-0.1705901115,-0.7112055176,-0.3761756007,0.1525565622,0.494525189,-0.0440640504,-0.9372015233,-0.600474855,-0.4461387827,-0.2745791615,-0.1603701375,0.6594671002,-0.0250750372,0.5990254987,0.608693727,-0.2181557911,0.1881332791,0.1115710268,0.1544815983,0.9392234821,-7.656628871,0.1201317497,-0.9139527549,0.0264447414,0.4383488715,0.0673304632,0.6874097598,-0.0873182187,0.0040743157,0.0125427486,-0.6896209696,0.1306844499,-0.1900078731,-0.1727835596,0.7556343077,-0.4476068068,-0.8500382635,0.226161337,0.8871310409,-0.2401887088,0.4081943167,0.2518989446,0.1903374594,1.0306966862,-0.6208357483,0.8377328169,-0.6783048502,-0.9201740611,-0.8228615171,-0.9794005044,0.6287858633,0.6991065431,-0.2912844976,-0.8861748748,-0.5323796243,-0.2654714607,-0.9424216381,0.2739854093,-0.3416508426,-0.2171145916,-0.4562802223,0.4899575497,-0.0321491538,0.0766977656,0.8030632913,-0.1774755632,-0.8217740697,-1.1157366775,0.2026115446,-1.1979135524,0.641917425,0.0166751067,-0.3221598798,0.7095883584,0.4241726864,-0.3976932248,-0.5603106305,0.3250155509,-0.7065219522,-0.6216483984,-0.2764058492,-0.2657256262,-0.1405241111,0.5181269328,-0.6282758197,-0.2212598751,-0.5844583934,0.3038678995,-0.4572816285,-0.1556766976,0.55939154,-0.1418294544,-0.6109787391,-0.8941810473,0.5635023354,-0.0464941895,-0.6321912337,0.4689984221,-1.0672668921,-0.4173436306,0.2277994501,1.0251697452,0.5558428049,-0.7462585274,-0.0713717548,0.1361604513,-0.5104415004,0.3287905773,0.021839886,-0.144354994,0.0804638943,0.2324808418,-0.1507995573,0.1513778935,0.991332518,-0.7860837095,0.1646236979,-0.9330801852,1.0257648537,-0.7113676178,-0.7110891237,0.2791473607,0.1566510513,0.3654944127,0.17279603,-0.3587614723,0.237630308,1.0566729578,0.5953384519,-0.624624677,-0.1956584089,-0.1645034706,0.028471306,-0.8516611567,0.171190218,-0.7543121205,-0.431999683,-0.7652597114,0.2787107864,0.3276338954,0.0640795335,-0.3001274834,0.5854285406,-0.7862821334,0.4645616269,0.9692094234,-0.9334608408,-0.6924609525,-0.9122783934,-0.8685904686,0.3686895121,-0.4714273848,0.1039042988,-0.6005954849,-0.3821295378,-0.8850688611,-0.1821835666,0.70774841,0.5117215895,-0.3463881801,-0.4570085463,-1.2211590889,-0.746796974,-0.1931594765,-0.6705209518,-1.3231887725,-1.0862032779,-11.0835219261,0.6811434773,-0.7491998917,-0.3854063808,-0.4670894156,0.1514495642,-0.3853541131,0.4055367809,-0.3142452449,0.4181424181,-0.3885125208,0.8666148407,-0.5312089095,0.3696644723,-0.4343032069,-0.448496458,0.3016282925,-0.4692464313,0.3554136646,0.2736977057,-0.3315210578,0.3180545138,0.5576867153,0.6685633933,-0.5957536953,0.248537576,-0.4305340175,0.0763446242,0.7594980321,-0.6025304588,-0.2822066079,0.3539030964,-0.2108918888,-0.3174615461,0.8042891034,-0.1382548986,-0.6686781045,-0.0659484278,0.9250212126,0.284514497,-0.1026233699,-0.5930358802,-0.5315510151,0.1400446539,-0.8733572356,-0.9448575653,0.1571354674,0.0290835536,0.3005712427,-12.7797187127,0.2561344041,0.4747369971,-0.0436855332,0.013690528,0.1895680061,0.201655061,-0.2405051205,0.7909828288,0.9993978539,-0.6614281016,0.9303800114,-0.5427276422,0.4816399762,0.8357508287,-0.3344702051,-0.986526048,-0.3950974165,0.5474075341,-0.4917183325,-0.1732463003,-0.454844446,0.6802003248,-0.4629867821,0.0155649483,-0.3175866431,0.0942481346,-0.0928844344,-0.7913280357,0.3195500845,-0.6066070278,-0.5721264861,-0.1802467906,-0.3088932345,0.3002975393,0.0025766075,0.8209114705,-0.0001080098,-0.4770160682,0.0854843998,-0.4183502821,0.7917429216,-0.7377800634,0.0772154793,0.2746474303,-0.4389970376,-1.0305202129,0.2593246256,-0.8727197512,-8.7549586307,-0.463901001,0.2121627605,-0.0802516324,0.7212930892,-0.9580953446,0.0672729783,-0.9881081987,-0.1548176182,0.6506055213,-0.3001406405,0.0595176053,-0.1607850564,0.213263174,-0.0234766191,-0.7426659903,0.044399204,0.1821100045,0.8003673489,-0.8158945282,-0.2840536798,-0.2956013805,-0.0489501413,-0.5346511836,-0.7202920801,-0.2501815822,-1.0778438608,-0.7389960209,0.6247133096,0.2589365839,-0.6127658237,0.3092585172,1.0247793352,-0.6281655922,0.3126452347,-0.7041239226,-0.0010767811,-0.8038825212,-0.3813031516,-0.7969790301,-0.7284934218,-0.9256758639,0.8588372384,0.1607698412,-0.4162782702,-0.0172654788,-0.3714177083,0.2807052401,-0.1403826156,-10.1824125721,0.5162045857,0.5869725624,0.004467226,0.1398870752,-0.8926656923,0.8256961134,-0.3319513291,-0.4376576132,1.0488655537,-0.5257266794,0.6388801589,-0.1773453129,-0.5655080059,-0.6365892648,0.4799143858,0.5900915156,-0.9419775375,-0.8928965553,0.157225753,-0.3357512806,-0.0687741603,-0.1075608627,0.0502674783,-0.8237182482,0.6432071005,0.1760954619,0.4169966739,0.0267032832,0.3926340455,0.0294941304,-0.4072165308,-0.8061240682,-0.8169671657,-0.0236143779,0.3767060453,-0.1866162999,-0.8575663024,-0.3234624879,0.4738341409,0.3037350876,0.7456710083,-0.5248319601,-0.0895971703,1.011625687,0.2492942026,-0.1729820562,-0.6564918237,-0.4584130129,-1.4153866177,-1.0862804467,0.8695041484,-0.6618735203,-0.3788538447,-0.2884914429,0.9544031481,0.4419753162,0.9251641108,0.005110712,0.3034080771,0.6724962248,-0.0289129692,0.9033924949,0.6632455758,0.6985594589,-0.8099197552,-0.3233385943,0.7894295625,0.8885188872,-0.0923777838,-0.4423046975,-0.2330862781,-0.641487652,-0.3537710958,0.0483897978,0.4383717842,0.6492399306,-0.3236002416,0.0886497594,0.3281038457,-0.396091857,0.4156191935,0.4840708213,-0.5439676608,0.2351467403,0.3832474047,-0.4979430726,0.9429672342,0.5873732246,-0.2043272697,-0.6432709159,0.6742890625,-0.9434447109,0.6550244243,0.9671189354,-0.3316991481,-0.8947437416,0.0613317962,-5.5226617878,-0.5654971038,0.3257249454,-0.3291043796,0.5441043989,-0.7368523289,-0.7544583538,0.1435985156,0.7688576527,0.5950232409,0.1956680111,0.9591503598,-0.438470253,-0.5460899266,-0.3364295225,0.1969338866,0.1430733599,-0.3722184235,-0.3067528745,-0.4099951428,-0.7236505438,-0.0443380014,-0.5388159348,-1.0889388409,-0.3059216755,-1.0121126993,-0.2387965159,-0.5775202358,-0.6144911513,-1.0885460089,0.1046394758,0.7388678559,-0.0678672708,0.1888235596,0.1011408122,0.8029148645,-0.411463965,-0.9644246845,0.1172872086,-0.6928166245,-0.4829153592,-0.7939114244,0.6904492333,-1.0288659659,-0.0493837821,-0.1454196127,-1.1192582079,-0.5854287392,0.149914804,-7.357477442,-0.2592991984,1.027082384,0.5343210912,-1.0647083669,0.0913155808,-0.1246051577,-1.2179850902,0.5910073427,-0.8597908716,-0.6669871873,0.4395166079,0.2479385651,-0.7267066228,0.9522799731,-0.8958477567,-0.1772650374,-1.1239665492,0.3650077404,-0.2251866837,0.4080036807,-0.2065223263,0.4903004491,-0.7894441844,0.0406979799,0.7169080043,0.6554443955,-0.0080459898,-0.3736285665,0.1211532816,0.6402160704,0.2229797411,-1.2817367412,-0.2402746447,0.5932061254,-0.131239534,0.1153745936,-0.6365977823,-0.2555260312,-0.2170672979,0.355752933,0.3822252342,-0.6566633636,-0.4846621792,-0.0347085492,-0.2221620887,-0.2594099314,0.2634023853,0.849294716,-14.4198692465,0.3860474189,-0.4918449832,-0.2785540919,-0.5188851263,-0.2746600839,-1.0477632958,-1.1337682768,0.359893871,-0.438437571,-0.317351424,0.7281030021,-0.1676889986,0.2477510602,-0.4828623936,0.6240846304,0.3163762924,0.1808280674,-0.300793508,-0.1953965564,-0.0360395542,-0.8481102639,0.697415119,-0.5226960885,0.3901681278,-0.1197904517,-0.2186148992,-0.6539426038,0.0090644103,-0.0240786179,0.4788121443,-0.2672684083,-0.7185501847,0.0536930445,-0.0956110323,-0.5574176814,0.4763731043,-0.2983442948,-0.7431249079,-0.5098148933,0.4298421872,0.979693558,0.8670520447,0.5281316558,-0.072684751,-0.6645336104,0.3379147343,-0.2793135205,-0.0406518547,-1.956941178,-0.4105998278,0.5343178687,0.7090347009,-0.964511777,0.1951595564,-0.3251298971,-0.4434570981,-0.3577759461,0.6347582776,-0.7916474277,0.082432855,0.7754043857,-1.0353537238,0.8252197302,-0.202993536,0.5839162585,-0.5263944284,1.113253588,0.0357290798,0.2776127387,-0.4241539797,-0.4542482015,1.0478900357,-0.8626864992,-0.4873539236,0.2848501666,0.3355404462,0.1509567737,-0.1385070249,-0.3309710821,0.3888191406,-1.059059863,-0.5642671311,-0.0055643793,-1.0556584636,0.7056068939,0.1238277265,-0.6565720534,0.6784985516,-1.0798512356,0.2768617822,0.1633656839,1.0226241427,-0.5261664302,0.9642991348,-0.4623552958,-1.2539478424,-0.6031949428,-3.7337980477,0.9436264066,-0.47841049,0.7376983949,-0.8394114224,1.5067004108,-0.2936110075,0.4909509578,-0.9703256362,-1.0344841067,-1.7308810758,0.7063453458,1.0582308564,0.5409264012,0.868123315,-0.3928199816,-0.7575457116,-0.8759787272,-0.5435131567,0.59795788,0.7504157943,0.3947541587,-0.0067593144,-0.3508611482,-0.6835206748,1.0704792697,-0.5328763166,-0.3224303937,0.0075116818,-0.946034243,-0.2075794218,0.3739557702,0.6300066143,-0.4658312412,0.634500544,-1.1650479675,0.4925328223,0.7381552638,0.1844003409,0.509852667,-1.0833096107,0.4322204753,-0.9796979767,0.6601500002,0.5851608849,0.9967179888,0.2449510289,-1.1030826075,-0.2828660828,-2.4622161,0.425152538,0.1949714101,-0.6025127014,-0.9023939511,0.1148963594,-0.4938731011,0.4368889593,1.0215115254,0.5040305013,-0.5759766147,0.8745932426,-0.4895097001,-0.1279799092,-1.1236955861,0.3425028719,0.5175291175,-0.3202830078,-0.0358946654,0.1268361344,-0.9330568084,0.1790193468,-0.6988202101,-0.6509079792,-0.8155601463,0.6897235299,0.090175542,0.6256290411,-0.1495007855,-0.476475414,0.493289814,-0.7632294437,-0.2885358705,-0.8292061868,0.857113178,0.2539311046,-0.7801121903,0.1267503727,-0.2266237455,0.2093665824,-0.4991246778,-0.7377401382,0.005816276,0.6318602276,0.6799733824,0.2834989102,-0.3927752552,0.321507807,0.3299950251,-15.1445635189,-0.5504041701,-0.1233599262,-1.0062061825,0.5622736044,1.235457097,-0.5527046644,-0.6031881946,0.8316902978,0.3573092674,-0.8541451771,-0.2442196811,-0.7241011052,0.6233097102,-0.3054774416,-0.6948002269,-0.6897864938,0.4905396328,-0.4808736594,-0.8111069633,-0.4295046608,0.9045869327,-0.1865481037,0.6440170402,0.6579564205,0.9433162801,0.8887732248,0.0490489088,0.0778564181,0.2212444821,0.6889985009,0.6463026697,0.751131802,0.3330823977,0.2390989078,0.4317104404,-0.0701653852,0.1199289593,0.163817999,-0.6537968151,-0.5505549046,0.5469077189,-0.3191203272,-0.3019459858,-0.555652054,-0.496329321,-0.0047719637,0.1069117043,0.4865865276,-4.0988625505,-0.7774695563,0.1889021798,0.5617870058,0.2004510922,-0.6445473512,-0.5005891403,1.0337732053,-0.8266731529,0.8677585138,-0.3026032989,0.0228102205,-0.0180572315,-0.322178264,-0.6627417226,-0.3546457908,1.1716741417,-0.9205046626,0.8424773572,0.024145177,-0.4983819655,-0.6392833217,-1.1779296002,-0.2894287217,0.0190869936,-0.9486256139,0.4686310498,0.8132688822,-0.3692958704,-0.5639158558,0.7454088066,-0.2798347459,-0.8406198966,-0.0926487695,0.4626092028,0.4327345952,-0.2657064117,0.1825555834,0.9294724509,0.3278186794,-0.8512794263,-0.3223362087,-0.7797086272,-0.6759630653,-0.6869942846,-0.3723247573,-0.0437794413,0.2088383597,-0.497356286,-15.7264025291,0.3975304167,0.399081878,-0.6825424151,-0.3283231681,0.2999995996,-0.5713494332,-0.0774894967,-0.1853945754,-0.9058181412,-0.9121286746,-0.0399512298,0.4302543284,-0.9389723673,0.0640706096,-0.0979271643,-0.233309262,-0.9783349538,-0.7125023102,-0.7203186317,0.5613092432,-0.9009429451,0.5323969902,-0.5034449811,-0.2232103513,-0.6334067859,0.9173131071,-0.3536099261,0.3538950773,1.1708674515,0.282978794,0.7452643951,0.5289624889,-0.504321954,-0.6502983947,0.3749275369,-0.2172795914,-0.3856605763,-0.2910024741,0.3205475729,-0.3663261026,0.6154362911,-0.2993998136,-0.7882191692,0.4221180408,-0.9703388151,0.4537303439,-0.6288564115,-1.1530044801,-1.9239477909,-0.6335831234,-0.3632891248,0.7592928905,-0.5972695433,-1.1896747068,0.7250403505,-0.3224710483,0.711316466,0.2475622982,0.5839126044,0.032511885,0.0765472791,-0.2417674435,-0.5579892198,-0.0393334641,0.0459334581,0.8156169364,-0.6673115636,0.7436042476,0.9802327438,0.1331345039,-0.8942777274,0.2784955649,-0.4365656338,-0.4445036735,0.1858925001,-0.3679495671,-0.3426734941,-0.3817902555,-0.7415593647,0.0419419484,-0.8695858687,0.8471670054,-0.1307649747,0.0890725331,0.4205753812,-0.9958145985,-0.5777479847,0.2187693835,-0.1899089024,-0.098869837,-0.7267548536,-0.2211675334,0.6692304729,-0.2180611405,0.2936917655,-0.4607956493,0.1655381546,2.0550831359,0.4781198128,-0.1203704298,-0.5686219831,-0.3581857817,-0.4827153888,-0.1852855064,-0.7309258667,0.133423941,-0.5532993762,-0.3770980846,0.3495995297,0.4241224962,0.303871927,0.3920165205,0.3773273554,-0.9122914016,0.2443997254,-0.164990666,-0.1959266644,-0.3833419409,0.5939653359,0.5132051384,0.181193851,0.3044158585,-0.3728655368,-0.0478368091,-0.2852904778,-0.2509385849,-0.2038074729,-0.6869148843,0.5968230087,-0.5915082201,-0.7328771416,0.3757116566,0.7647175356,-0.8344435178,0.1826629918,0.0573282544,0.3440735831,0.989500014,-0.2160465581,0.5318721412,-0.5247692507,-0.8903584221,0.0303989284,-0.1749611186,-0.7848460453,-0.5939850401,2.6898161398,-0.0883026669,0.4879019337,0.2395514812,-0.1228944191,0.9152276598,0.1821079464,0.3189260909,-0.2159094794,0.4012982747,-0.0011887581,0.6694248425,0.8028407896,0.5200533479,0.0656979294,1.0783686006,0.0698151008,-0.772266954,-0.8800403809,-0.3954658913,0.7033759829,-0.7631622374,0.8907541994,-0.3620715081,-0.468697446,0.4399751486,0.3005587694,-0.6576606989,0.276052396,-0.1353022389,0.6359673534,-0.7655521826,0.1882708274,1.055451858,0.7295681076,-0.8934673679,-0.8570847045,0.480814977,-0.9305649704,0.9249363806,-0.6458850076,-0.3699222549,0.8679452541,0.6958117063,-0.6916976596,-0.5425565911,0.6956539089,-1.0618633052,-0.7922040569,-2.2014108416,0.7101117581,-0.9187993251,-0.1479377794,0.4817334801,-0.4296710902,0.8169844847,0.6565266105,-0.6188889431,-0.3595374103,-0.3778413062,0.8307236168,-0.4762927944,0.0267814711,0.2081596569,0.4803885013,-0.6753400866,0.6940236034,-0.898480702,-0.0358338021,-0.4410561918,0.4410924908,-0.6393711945,-0.538746462,-0.2479502792,-1.0609978493,-0.7850292701,0.453479311,0.3198241094,-0.1906117993,0.2983990663,0.0094379649,-0.2880803274,-0.536611145,-0.4981019611,-0.5514816624,0.6176842525,-0.1892014795,-0.3237317822,0.6222894935,0.5812557413,0.5091104032,0.1429469321,-0.678229645,0.3726787197,0.3461757278,0.7276372397,0.3727688627,0.2620005072,-15.0889173331,0.047443956,-1.1259597101,-0.6972258534,-0.0643059765,-1.3437096547,0.9832609124,0.4966914013,0.2444310272,-0.2676696067,-0.9690364767,0.0367698216,-0.6508960882,-0.1781192784,-0.7765581638,0.4413302631,-0.0493766832,-0.8578252156,0.0340955197,-0.1192721421,-0.1972919631,-0.6526861154,-0.2548619959,-1.2989940431,-0.4018321994,0.9727545532,-0.3837744281,0.1013423559,0.0540242726,-0.925848378,-0.1651565212,0.9970120221,0.353048681,-0.4519411147,-0.0068404524,-0.5239567672,-0.0492891472,-0.0126272394,-1.4952792095,-0.4343251909,0.6943716716,-0.7336840566,-0.2275176727,-0.4836054945,-0.2792078706,-0.0410549527,-0.0169324771,-0.586053928,-0.040188429,-0.5774101874,-0.9913365883,-0.7125773388,-0.2216683922,-1.5140644559,-0.5928845523,0.045620108,-1.0963790437,-1.0419175389,0.2257794957,-1.2209617485,0.1610088284,-0.3607530127,-0.7371391833,-0.2270681108,0.0175080723,-0.6407377356,-0.4373409724,0.8458540492,-0.6836354324,-0.1992634273,0.0753843973,-0.8352005157,-1.083708959,0.0376086458,-1.3770563518,0.2712643938,0.0678784789,-0.2118332649,-0.8297977296,-0.0359728095,0.1227490219,-1.5139441875,-0.0822919589,-0.454747242,-1.4464696278,-2.0802099773,-0.0493033024,-1.1017901831,-0.5802237311,-0.4684059492,0.5252175839,-0.0422241453,-0.1765219899,-0.4685938815,-0.0395514861,0.1188485621,-1.2583946158,-0.1668489233,-0.534745662,0.4095308721,0.0441311683,-1.2352641898,-0.7482093381,0.2905326248,-1.0102141941,0.2018312526,0.1828152944,-0.2148057076,-1.1842294714,-0.904472923,0.0741507276,0.6699626314,0.1176564203,-0.6404587767,-0.597170184,-1.0064377405,-0.5640262559,-0.0759257799,-0.029424812,-0.7367399345,-0.2924562407,0.7380196227,-0.953025795,-0.6872776494,-0.3294513033,0.4081927741,0.3514012795,0.0169439523,-0.3528967373,-0.1050304095,0.582822012,0.4502413537,-0.9453262494,-0.5822339778,-0.2114055188,0.8070204962,-0.0224048528,-0.6364342446,0.9983720754,-0.4786803264,-0.9246768378,-0.0299429833,-0.7102255745,0.3934802781,0.5907154351,-1.4266500274,-0.1093479306,15.1336392549,-2.0754405513,-0.253594916,-0.351275576,-0.5395897571,-0.296032312,-1.568311087,-1.1875351042,0.0578476613,-0.283602859,-0.616848906,0.708816568,-0.6160546268,0.0584771981,0.5265051801,-0.450503865,-0.7410776254,-0.1216360949,0.0830279791,-0.74751727,0.606505497,-0.35628761,0.9478373226,0.2007230747,0.8476676344,-0.4559895593,-0.2052164719,0.9145434862,0.5076731236,0.1986836997,0.4656827462,0.6701196561,-0.7879607949,0.414014254,-0.1579928174,-0.8302035978,0.7282917051,-0.7318369336,-0.7183770956,0.596200671,0.5988604865,-0.087995364,0.9765974824,-0.0634621817,-0.4976540163,0.1775989843,0.1632160225,-0.6410024327,-0.1962314413,-0.1337743138,-0.6770518541,-0.1298504491,0.0575231457,-1.2235666838,0.1517261379,1.3958458074,-0.5116527912,-0.4071361794,-1.15295311,-0.4269770638,-1.8393092359,-0.0467447863,-0.1215816384,0.107993703,0.3909778087,-0.5026047546,0.5900767763,0.2878324156,0.9719177053,-0.2567873658,-0.4743430231,-0.0429018115,-0.5581910415,-0.3324292126,0.7871781979,-0.5774478784,0.1269487954,0.1965745047,0.3564665498,-1.4255441994,0.067753233,-0.8326981536,-1.0532574927,-0.9052879932,0.9569868298,-0.4916228298,-0.6522898254,-0.9891157027,-0.0414319808,-0.5893943677,0.7255483832,0.0071650374,-0.7850692234,0.5558456377,-0.3784163398,-0.2647963634,-0.6264714299,-0.6258838865,-0.4268074879,0.5061027533,0.7415434656,0.5999996305,0.1348302156,-0.6471046982,-0.2835801931,-0.2709086395,0.0551368931,-1.0113001055,0.6261621985,-0.2264958454,-0.982606795,0.418091229,0.1373910493,0.0606319207,-0.1026306231,-1.1036107002,-0.001558809,0.4144233266,-0.4306708929,-0.2232390715,-0.1604688557,-0.7353863207,-0.5599029343,-0.7113903921,-0.3904083657,-0.0040812772,0.2079784751,0.4574001355,-0.4153646879,-0.4679707188,0.4564054465,0.5805592957,-1.1322461667,0.063167276,-1.4945521988,-0.520783747,0.0897846159,-0.6105621589,-0.296146971,-0.8814430051,0.3435183765,-0.5795956021,-0.0727621353,-0.4638321528,-0.5657545331,1.054641467,-1.3998794028,-1.1519811273,0.2831255187,0.7266217973,-1.4625292577,-0.4563406642,-0.3930689342,0.6038567952,0.7695698025,-0.702913335,0.4000124113,-0.1790192303,0.3172210446,-0.7063915539,-1.0400227523,0.0434004446,0.2472847411,-0.5462809857,-1.1363709326,-0.2715170375,0.585493526,0.3108940325,0.273893946,-0.8812614293,-0.7196285394,-0.0156767988,0.8221916017,-0.3522901244,-0.8424283014,0.1006121336,-0.9328062548,0.8188032865,0.0113673602,-1.1815337258,-0.7381008479,-0.8075518698,-0.3954705823,0.2721964773,0.340959422,0.4194124947,0.5883946282,-0.8272784117,-0.612207199,0.3367201829,0.3748882003,-0.6089880558,0.2173362326,-0.2876921023,-0.5485816724,-0.8734310104,0.0340329485,-0.8134608519,0.5647533584,-0.00770963,0.7479463159,-0.0165559659,-0.9810215212,-0.1909931059,-0.4588124189,0.049625221,-0.82149965,-0.8799188573,0.6484270939,-0.1258245865,-0.6156828894,-0.69848888,0.0226488222,-1.6059128418,-0.5812267854,-0.9585609103,-0.6425164888,0.1918252867,0.4604887736,-0.5644066965,-0.3673921155,0.2282667248,0.8113827427,-0.006570265,-0.4070539448,0.0005683408,0.7142880736,-0.9437828509,-0.7744506845,-0.451834382,0.0201453663,-0.3788957682,-0.3696181681,-0.0437823815,0.0029163782,1.0856958644,-0.7910128447,0.3737584034,-0.2497601826,0.4400860169,-0.7331006814,-0.3963279566,-0.0590470503,0.7907499465,0.6985579359,-0.3810290327,-0.3230247376,-0.3128066587,-1.0297797318,0.4635951858,-0.6285923893,-0.2058372176,-0.4883301305,0.4840111665,-0.5415681957,-0.1459656818,-0.0337668042,0.337429058,-0.8895841847,-1.2361213334,0.0926570778,-0.2969904401,-1.2567168651,-0.3830063919,-0.3478103973,-1.0931045126,-0.3215206365,-0.6521856347,-0.1342044206,-0.7712630388,-4.50497036,-2.1950105663,0.5038452411,-1.5456382183,0.6462394383,1.7150061396,-0.2309812222,-0.0360220887,-0.7645606133,0.9985975708,0.4787000568,-0.9672850533,0.6406291193,0.5194160017,0.9316489044,-0.5310095908
biasActivation=0,1,1,1
[BASIC:ACTIVATION]
"org.encog.engine.network.activation.ActivationLinear"
"org.encog.engine.network.activation.ActivationReLU",0,0
"org.encog.engine.network.activation.ActivationReLU",0,0
"org.encog.engine.network.activation.ActivationLinear"
